{"learner":{"attributes":{"scikit_learn":"{\"_estimator_type\": \"classifier\"}"},"feature_names":["spread","obi","micro_price"],"feature_types":["float","float","float"],"gradient_booster":{"model":{"cats":{"enc":[],"feature_segments":[],"sorted_idx":[]},"gbtree_model_param":{"num_parallel_tree":"1","num_trees":"600"},"iteration_indptr":[0,3,6,9,12,15,18,21,24,27,30,33,36,39,42,45,48,51,54,57,60,63,66,69,72,75,78,81,84,87,90,93,96,99,102,105,108,111,114,117,120,123,126,129,132,135,138,141,144,147,150,153,156,159,162,165,168,171,174,177,180,183,186,189,192,195,198,201,204,207,210,213,216,219,222,225,228,231,234,237,240,243,246,249,252,255,258,261,264,267,270,273,276,279,282,285,288,291,294,297,300,303,306,309,312,315,318,321,324,327,330,333,336,339,342,345,348,351,354,357,360,363,366,369,372,375,378,381,384,387,390,393,396,399,402,405,408,411,414,417,420,423,426,429,432,435,438,441,444,447,450,453,456,459,462,465,468,471,474,477,480,483,486,489,492,495,498,501,504,507,510,513,516,519,522,525,528,531,534,537,540,543,546,549,552,555,558,561,564,567,570,573,576,579,582,585,588,591,594,597,600],"tree_info":[0,1,2,0,1,2,0,1,2,0,1,2,0,1,2,0,1,2,0,1,2,0,1,2,0,1,2,0,1,2,0,1,2,0,1,2,0,1,2,0,1,2,0,1,2,0,1,2,0,1,2,0,1,2,0,1,2,0,1,2,0,1,2,0,1,2,0,1,2,0,1,2,0,1,2,0,1,2,0,1,2,0,1,2,0,1,2,0,1,2,0,1,2,0,1,2,0,1,2,0,1,2,0,1,2,0,1,2,0,1,2,0,1,2,0,1,2,0,1,2,0,1,2,0,1,2,0,1,2,0,1,2,0,1,2,0,1,2,0,1,2,0,1,2,0,1,2,0,1,2,0,1,2,0,1,2,0,1,2,0,1,2,0,1,2,0,1,2,0,1,2,0,1,2,0,1,2,0,1,2,0,1,2,0,1,2,0,1,2,0,1,2,0,1,2,0,1,2,0,1,2,0,1,2,0,1,2,0,1,2,0,1,2,0,1,2,0,1,2,0,1,2,0,1,2,0,1,2,0,1,2,0,1,2,0,1,2,0,1,2,0,1,2,0,1,2,0,1,2,0,1,2,0,1,2,0,1,2,0,1,2,0,1,2,0,1,2,0,1,2,0,1,2,0,1,2,0,1,2,0,1,2,0,1,2,0,1,2,0,1,2,0,1,2,0,1,2,0,1,2,0,1,2,0,1,2,0,1,2,0,1,2,0,1,2,0,1,2,0,1,2,0,1,2,0,1,2,0,1,2,0,1,2,0,1,2,0,1,2,0,1,2,0,1,2,0,1,2,0,1,2,0,1,2,0,1,2,0,1,2,0,1,2,0,1,2,0,1,2,0,1,2,0,1,2,0,1,2,0,1,2,0,1,2,0,1,2,0,1,2,0,1,2,0,1,2,0,1,2,0,1,2,0,1,2,0,1,2,0,1,2,0,1,2,0,1,2,0,1,2,0,1,2,0,1,2,0,1,2,0,1,2,0,1,2,0,1,2,0,1,2,0,1,2,0,1,2,0,1,2,0,1,2,0,1,2,0,1,2,0,1,2,0,1,2,0,1,2,0,1,2,0,1,2,0,1,2,0,1,2,0,1,2,0,1,2,0,1,2,0,1,2,0,1,2,0,1,2,0,1,2,0,1,2,0,1,2,0,1,2,0,1,2,0,1,2,0,1,2,0,1,2,0,1,2,0,1,2,0,1,2,0,1,2,0,1,2,0,1,2,0,1,2,0,1,2,0,1,2,0,1,2,0,1,2,0,1,2,0,1,2,0,1,2,0,1,2,0,1,2,0,1,2,0,1,2,0,1,2,0,1,2,0,1,2,0,1,2,0,1,2,0,1,2,0,1,2,0,1,2],"trees":[{"base_weights":[8.3321303E-1,8.5147697E-1,4.559791E-1,3.7636933E-1,8.59456E-1,5.2878875E-1,2.2120632E-1,4.0391395E-3,2.3589354E-2,3.6497384E-2,4.3145567E-2,2.986728E-2,4.3291065E-1,-1.7339151E-2,2.4649391E-2,1.3346858E-2,2.8348926E-2],"categories":[],"categories_nodes":[],"categories_segments":[],"categories_sizes":[],"default_left":[0,0,0,0,0,0,0,0,0,0,0,0,0,0,0,0,0],"id":0,"left_children":[1,3,5,7,9,11,13,-1,-1,-1,-1,-1,15,-1,-1,-1,-1],"loss_changes":[1.4311523E1,7.3867188E0,1.6040211E0,9.5953655E-1,2.6501465E-1,2.417984E-1,4.115348E0,0E0,0E0,0E0,0E0,0E0,6.357484E-1,0E0,0E0,0E0,0E0],"parents":[2147483647,0,0,1,1,2,2,3,3,4,4,5,5,6,6,12,12],"right_children":[2,4,6,8,10,12,14,-1,-1,-1,-1,-1,16,-1,-1,-1,-1],"split_conditions":[9.480968E-1,-9.7019005E-1,9.966595E-1,-9.9271685E-1,-9.3300945E-1,9.880546E-1,9.984398E-1,4.0391395E-3,2.3589354E-2,3.6497384E-2,4.3145567E-2,2.986728E-2,9.954911E-1,-1.7339151E-2,2.4649391E-2,1.3346858E-2,2.8348926E-2],"split_indices":[1,1,1,1,1,1,1,0,0,0,0,0,1,0,0,0,0],"split_type":[0,0,0,0,0,0,0,0,0,0,0,0,0,0,0,0,0],"sum_hessian":[2.1325596E3,2.0328798E3,9.9679855E1,3.4372364E1,1.9985074E3,7.512817E1,2.4551687E1,8.838608E0,2.5533756E1,5.745095E1,1.9410565E3,4.0755802E1,3.4372364E1,7.85654E0,1.6695148E1,1.6695148E1,1.7677216E1],"tree_param":{"num_deleted":"0","num_feature":"3","num_nodes":"17","size_leaf_vector":"1"}},{"base_weights":[-5.9486145E-1,-6.182982E-1,1.2018919E-1,-3.1108314E-2,-1.8739067E-2,-5.8429637E-3,2.7865246E-1,1.4465454E-1,-1.4071575E-2,4.9772333E-2,-7.35744E-2,-2.1204792E-3,1.0901528E-2,-7.55674E-3,1.828046E-5],"categories":[],"categories_nodes":[],"categories_segments":[],"categories_sizes":[],"default_left":[0,0,0,0,0,0,0,0,0,0,0,0,0,0,0],"id":1,"left_children":[1,3,5,-1,-1,7,9,11,-1,-1,13,-1,-1,-1,-1],"loss_changes":[2.5123962E1,1.130188E0,9.657456E-1,0E0,0E0,1.1965622E0,5.4777937E0,2.6572442E-1,0E0,0E0,8.77088E-2,0E0,0E0,0E0,0E0],"parents":[2147483647,0,0,1,1,2,2,5,5,6,6,7,7,10,10],"right_children":[2,4,6,-1,-1,8,10,12,-1,-1,14,-1,-1,-1,-1],"split_conditions":[9.849148E-1,9.480968E-1,9.966595E-1,-3.1108314E-2,-1.8739067E-2,9.954911E-1,9.984398E-1,9.880546E-1,-1.4071575E-2,4.9772333E-2,9.9901414E-1,-2.1204792E-3,1.0901528E-2,-7.55674E-3,1.828046E-5],"split_indices":[1,1,1,0,0,1,1,1,0,0,1,0,0,0,0],"split_type":[0,0,0,0,0,0,0,0,0,0,0,0,0,0,0],"sum_hessian":[1.4937458E3,1.4464711E3,4.7274742E1,1.4223236E3,2.4147532E1,2.686838E1,2.0406364E1,1.7685516E1,9.182864E0,6.121909E0,1.4284455E1,5.101591E0,1.2583924E1,6.462015E0,7.8224397E0],"tree_param":{"num_deleted":"0","num_feature":"3","num_nodes":"15","size_leaf_vector":"1"}},{"base_weights":[-6.0827017E-1,2.1062526E-1,-6.1878407E-1,1.951347E-2,9.34033E-2,-4.1460666E-1,-6.2519354E-1,2.454369E-3,6.055604E-3,-1.1322144E-2,-2.16673E-2,-2.8942628E-2,-3.1807568E-2],"categories":[],"categories_nodes":[],"categories_segments":[],"categories_sizes":[],"default_left":[0,0,0,0,0,0,0,0,0,0,0,0,0],"id":2,"left_children":[1,3,5,-1,7,9,11,-1,-1,-1,-1,-1,-1],"loss_changes":[1.2946045E1,3.7660253E-1,1.6644287E0,0E0,1.0244437E-2,7.008743E-2,3.544922E-1,0E0,0E0,0E0,0E0,0E0,0E0],"parents":[2147483647,0,0,1,1,2,2,4,4,5,5,6,6],"right_children":[2,4,6,-1,8,10,12,-1,-1,-1,-1,-1,-1],"split_conditions":[-9.753399E-1,-9.9271685E-1,-9.3300945E-1,1.951347E-2,-9.873868E-1,-9.7019005E-1,-5.185201E-1,2.454369E-3,6.055604E-3,-1.1322144E-2,-2.16673E-2,-2.8942628E-2,-3.1807568E-2],"split_indices":[1,1,1,0,1,1,1,0,0,0,0,0,0],"split_type":[0,0,0,0,0,0,0,0,0,0,0,0,0],"sum_hessian":[1.4874993E3,1.8614893E1,1.4688843E3,6.4305997E0,1.2184294E1,4.670646E1,1.4221779E3,5.7536945E0,6.4305997E0,5.4152417E0,4.1291218E1,2.8226947E2,1.1399083E3],"tree_param":{"num_deleted":"0","num_feature":"3","num_nodes":"13","size_leaf_vector":"1"}},{"base_weights":[7.999046E-1,8.1663924E-1,3.207435E-1,2.809753E-1,8.2506853E-1,4.0103942E-1,1.7700824E-1,1.428266E-1,2.0347979E-2,8.289304E-1,2.8823871E-2,3.294188E-1,2.4638625E-2,-1.2183771E-2,2.1560743E-2,5.036075E-3,8.31409E-3,3.47322E-2,4.161035E-2,2.1320254E-2,5.42956E-3],"categories":[],"categories_nodes":[],"categories_segments":[],"categories_sizes":[],"default_left":[0,0,0,0,0,0,0,0,0,0,0,0,0,0,0,0,0,0,0,0,0],"id":3,"left_children":[1,3,5,7,9,11,13,15,-1,17,-1,19,-1,-1,-1,-1,-1,-1,-1,-1,-1],"loss_changes":[1.7008179E1,9.161743E0,7.8685474E-1,5.29227E-1,1.487915E0,1.4578724E-1,3.1454194E0,6.699562E-4,0E0,3.0810547E-1,0E0,5.823443E-1,0E0,0E0,0E0,0E0,0E0,0E0,0E0,0E0,0E0],"parents":[2147483647,0,0,1,1,2,2,3,3,4,4,5,5,6,6,7,7,9,9,11,11],"right_children":[2,4,6,8,10,12,14,16,-1,18,-1,20,-1,-1,-1,-1,-1,-1,-1,-1,-1],"split_conditions":[9.849148E-1,-9.7019005E-1,9.966595E-1,-9.873868E-1,9.480968E-1,9.954911E-1,9.984398E-1,-9.9271685E-1,2.0347979E-2,-9.452765E-1,2.8823871E-2,9.93498E-1,2.4638625E-2,-1.2183771E-2,2.1560743E-2,5.036075E-3,8.31409E-3,3.47322E-2,4.161035E-2,2.1320254E-2,5.42956E-3],"split_indices":[1,1,1,1,1,1,1,1,0,1,0,1,0,0,0,0,0,0,0,0,0],"split_type":[0,0,0,0,0,0,0,0,0,0,0,0,0,0,0,0,0,0,0,0,0],"sum_hessian":[2.152746E3,2.0794185E3,7.3327736E1,3.2746975E1,2.0466714E3,4.5897526E1,2.7430212E1,1.6637127E1,1.6109846E1,2.0130641E3,3.3607273E1,2.8352419E1,1.7545107E1,1.0347568E1,1.7082644E1,7.8462677E0,8.790859E0,5.302246E1,1.9600416E3,1.905335E1,9.299068E0],"tree_param":{"num_deleted":"0","num_feature":"3","num_nodes":"21","size_leaf_vector":"1"}},{"base_weights":[-5.813981E-1,-2.861662E-2,-3.0909304E-2],"categories":[],"categories_nodes":[],"categories_segments":[],"categories_sizes":[],"default_left":[0,0,0],"id":4,"left_children":[1,-1,-1],"loss_changes":[1.2728882E-1,0E0,0E0],"parents":[2147483647,0,0],"right_children":[2,-1,-1],"split_conditions":[9.495099E4,-2.861662E-2,-3.0909304E-2],"split_indices":[2,0,0],"split_type":[0,0,0],"sum_hessian":[1.4414785E3,1.1697664E3,2.7171216E2],"tree_param":{"num_deleted":"0","num_feature":"3","num_nodes":"3","size_leaf_vector":"1"}},{"base_weights":[-6.066536E-1,1.0683862E-1,-6.180637E-1,2.177767E-1,-3.8559467E-2,-2.8571678E-2,-3.1402655E-2,1.419952E-2,6.2103993E-3,-6.1624526E-4,-3.5957582E-3],"categories":[],"categories_nodes":[],"categories_segments":[],"categories_sizes":[],"default_left":[0,0,0,0,0,0,0,0,0,0,0],"id":5,"left_children":[1,3,5,7,9,-1,-1,-1,-1,-1,-1],"loss_changes":[1.187677E1,3.904887E-1,3.062744E-1,4.890257E-2,8.828126E-3,0E0,0E0,0E0,0E0,0E0,0E0],"parents":[2147483647,0,0,1,1,2,2,3,3,4,4],"right_children":[2,4,6,8,10,-1,-1,-1,-1,-1,-1],"split_conditions":[-9.7019005E-1,-9.873868E-1,-6.138018E-1,-9.9271685E-1,-9.753399E-1,-2.8571678E-2,-3.1402655E-2,1.419952E-2,6.2103993E-3,-6.1624526E-4,-3.5957582E-3],"split_indices":[1,1,1,1,1,0,0,0,0,0,0],"split_type":[0,0,0,0,0,0,0,0,0,0,0],"sum_hessian":[1.4497725E3,2.2687971E1,1.4270845E3,1.2586632E1,1.010134E1,2.6205014E2,1.1650344E3,6.1789856E0,6.407646E0,6.4208117E0,3.6805286E0],"tree_param":{"num_deleted":"0","num_feature":"3","num_nodes":"11","size_leaf_vector":"1"}},{"base_weights":[7.76466E-1,7.9108894E-1,3.4076276E-1,2.8736156E-1,7.994261E-1,-3.1040815E-1,5.977362E-1,1.5893316E-1,2.8881386E-2,8.0233026E-1,5.982683E-1,2.8855607E-1,-5.688219E-1,3.724922E-1,6.6690576E-1,3.1035066E-1,-5.3683734E-1,6.8815535E-1,4.0274188E-2,1.2135197E-1,6.678441E-1,2.136735E-2,1.3573113E-3,-1.4442828E-1,-3.542925E-2,5.716099E-1,-1.1660419E-1,3.833741E-2,4.7791237E-1,-6.1605005E-3,1.9265391E-2,-3.5556536E-2,-1.2815587E-2,3.6540974E-2,5.787253E-3,3.8977418E-4,1.06080705E-2,2.415519E-2,3.931782E-2,4.863135E-3,-1.37799E-2,3.1028897E-2,1.2097665E-2,-2.2291465E-2,1.2498115E-2,-6.130142E-3,2.8610287E-2],"categories":[],"categories_nodes":[],"categories_segments":[],"categories_sizes":[],"default_left":[0,0,0,0,0,0,0,0,0,0,0,0,0,0,0,0,0,0,0,0,0,0,0,0,0,0,0,0,0,0,0,0,0,0,0,0,0,0,0,0,0,0,0,0,0,0,0],"id":6,"left_children":[1,3,5,7,9,11,13,15,-1,17,19,21,23,25,27,29,31,33,-1,35,37,-1,-1,39,-1,41,43,-1,45,-1,-1,-1,-1,-1,-1,-1,-1,-1,-1,-1,-1,-1,-1,-1,-1,-1,-1],"loss_changes":[1.3098389E1,8.292358E0,1.1880104E1,1.1980443E0,6.8603516E-1,3.3269234E0,5.3765297E-1,2.8390493E0,0E0,1.5283203E-1,9.9186134E-1,2.3591942E-1,7.6434994E-1,1.4416511E0,3.3805466E-1,7.451091E-1,5.7314873E-2,1.372427E0,0E0,5.3398073E-2,2.3304272E-1,0E0,0E0,1.8138358E-1,0E0,1.4557362E-2,7.046569E-1,0E0,9.5124555E-1,0E0,0E0,0E0,0E0,0E0,0E0,0E0,0E0,0E0,0E0,0E0,0E0,0E0,0E0,0E0,0E0,0E0,0E0],"parents":[2147483647,0,0,1,1,2,2,3,3,4,4,5,5,6,6,7,7,9,9,10,10,11,11,12,12,13,13,14,14,15,15,16,16,17,17,19,19,20,20,23,23,25,25,26,26,28,28],"right_children":[2,4,6,8,10,12,14,16,-1,18,20,22,24,26,28,30,32,34,-1,36,38,-1,-1,40,-1,42,44,-1,46,-1,-1,-1,-1,-1,-1,-1,-1,-1,-1,-1,-1,-1,-1,-1,-1,-1,-1],"split_conditions":[9.849148E-1,-9.7019005E-1,9.49194E4,9.4957164E4,9.480968E-1,9.488151E4,9.493423E4,9.4931E4,2.8881386E-2,-9.3300945E-1,9.487401E4,9.93498E-1,9.93498E-1,9.492802E4,9.493594E4,9.488557E4,9.494254E4,9.4938914E4,4.0274188E-2,9.6739554E-1,9.493241E4,2.136735E-2,1.3573113E-3,9.490721E4,-3.542925E-2,9.966595E-1,9.493242E4,3.833741E-2,9.4937805E4,-6.1605005E-3,1.9265391E-2,-3.5556536E-2,-1.2815587E-2,3.6540974E-2,5.787253E-3,3.8977418E-4,1.06080705E-2,2.415519E-2,3.931782E-2,4.863135E-3,-1.37799E-2,3.1028897E-2,1.2097665E-2,-2.2291465E-2,1.2498115E-2,-6.130142E-3,2.8610287E-2],"split_indices":[1,1,2,2,1,2,2,2,0,1,2,1,1,2,2,2,2,2,0,1,2,0,0,2,0,1,2,0,2,0,0,0,0,0,0,0,0,0,0,0,0,0,0,0,0,0,0],"split_type":[0,0,0,0,0,0,0,0,0,0,0,0,0,0,0,0,0,0,0,0,0,0,0,0,0,0,0,0,0,0,0,0,0,0,0,0,0,0,0,0,0,0,0,0,0,0,0],"sum_hessian":[2.0971526E3,2.0282648E3,6.88877E1,3.3600403E1,1.9946644E3,1.9433998E1,4.945371E1,2.436683E1,9.233573E0,1.9633302E3,3.1334146E1,5.8222513E0,1.3611747E1,1.3118808E1,3.63349E1,2.04667E1,3.9001312E0,5.8661354E1,1.9046688E3,4.3386326E0,2.6995514E1,3.3884408E0,2.4338105E0,3.8758936E0,9.735853E0,9.203311E0,3.9154973E0,2.1774662E1,1.4560237E1,2.9219685E0,1.7544731E1,1.4587811E0,2.4413502E0,5.4334812E1,4.326541E0,2.4103515E0,1.9282812E0,1.2533828E1,1.4461685E1,1.4544487E0,2.421445E0,7.2446704E0,1.9586406E0,1.9488986E0,1.9665986E0,1.9352438E0,1.2624993E1],"tree_param":{"num_deleted":"0","num_feature":"3","num_nodes":"47","size_leaf_vector":"1"}},{"base_weights":[-5.7624084E-1,-3.0131465E-2,-5.0705977E-2,4.0995693E-1,-3.035288E-1,3.0581603E-2,1.0100446E0,-3.79761E-1,1.3659604E-1,-2.579237E-1,3.9955296E-2,1.1692398E0,2.2831175E-3,-2.80195E-1,-2.8890569E-2,4.597807E-2,-1.9252542E-1,1.1159348E-2,-2.2638988E-2,2.1977572E-2,6.976018E-2,-1.83853E-2,2.3578538E-2,-2.1964567E-2,4.044951E-3],"categories":[],"categories_nodes":[],"categories_segments":[],"categories_sizes":[],"default_left":[0,0,0,0,0,0,0,0,0,0,0,0,0,0,0,0,0,0,0,0,0,0,0,0,0],"id":7,"left_children":[1,-1,3,5,7,9,11,13,15,17,-1,19,-1,21,-1,-1,23,-1,-1,-1,-1,-1,-1,-1,-1],"loss_changes":[1.94169E1,0E0,8.0603485E0,5.5627904E0,1.5472331E0,3.7724893E0,1.4028969E0,5.924225E-1,2.0621405E0,1.2682675E0,0E0,7.2246075E-1,0E0,1.9758139E0,0E0,0E0,4.3883532E-1,0E0,0E0,0E0,0E0,0E0,0E0,0E0,0E0],"parents":[2147483647,0,0,2,2,3,3,4,4,5,5,6,6,7,7,8,8,9,9,11,11,13,13,16,16],"right_children":[2,-1,4,6,8,10,12,14,16,18,-1,20,-1,22,-1,-1,24,-1,-1,-1,-1,-1,-1,-1,-1],"split_conditions":[9.480968E-1,-3.0131465E-2,9.492409E4,9.93498E-1,9.494043E4,9.491669E4,9.491808E4,9.4937805E4,9.4948414E4,9.487401E4,3.9955296E-2,9.488151E4,2.2831175E-3,9.493594E4,-2.8890569E-2,4.597807E-2,9.93498E-1,1.1159348E-2,-2.2638988E-2,2.1977572E-2,6.976018E-2,-1.83853E-2,2.3578538E-2,-2.1964567E-2,4.044951E-3],"split_indices":[1,0,2,1,2,2,2,2,2,2,0,2,0,2,0,0,1,0,0,0,0,0,0,0,0],"split_type":[0,0,0,0,0,0,0,0,0,0,0,0,0,0,0,0,0,0,0,0,0,0,0,0,0],"sum_hessian":[1.4013182E3,1.334179E3,6.713928E1,2.3570488E1,4.356879E1,1.50848255E1,8.485662E0,3.7253426E1,6.315365E0,1.145063E1,3.6341949E0,7.101037E0,1.3846259E0,2.6397402E1,1.0856024E1,1.3380988E0,4.977266E0,3.2588792E0,8.1917515E0,2.3754382E0,4.725599E0,2.4102566E1,2.294837E0,2.2973113E0,2.6799545E0],"tree_param":{"num_deleted":"0","num_feature":"3","num_nodes":"25","size_leaf_vector":"1"}},{"base_weights":[-5.9302807E-1,1.8848436E-1,-6.024835E-1,3.3187744E-1,-4.7489884E-3,-4.8594853E-1,-3.0829092E-2,1.0907153E-2,1.9809907E-2,-9.679195E-3,-4.94338E-1,-2.0914778E-2,-2.592503E-2],"categories":[],"categories_nodes":[],"categories_segments":[],"categories_sizes":[],"default_left":[0,0,0,0,0,0,0,0,0,0,0,0,0],"id":8,"left_children":[1,3,5,7,-1,9,-1,-1,-1,-1,11,-1,-1],"loss_changes":[1.0576141E1,7.50454E-1,1.9991455E0,1.1250973E-3,0E0,2.862587E-1,0E0,0E0,0E0,0E0,6.0070038E-2,0E0,0E0],"parents":[2147483647,0,0,1,1,2,2,3,3,5,5,10,10],"right_children":[2,4,6,8,-1,10,-1,-1,-1,-1,12,-1,-1],"split_conditions":[-9.753399E-1,-9.873868E-1,-7.876082E-1,-9.9271685E-1,-4.7489884E-3,-9.7019005E-1,-3.0829092E-2,1.0907153E-2,1.9809907E-2,-9.679195E-3,-9.3300945E-1,-2.0914778E-2,-2.592503E-2],"split_indices":[1,1,1,1,0,1,0,0,0,0,1,0,0],"split_type":[0,0,0,0,0,0,0,0,0,0,0,0,0],"sum_hessian":[1.4148586E3,1.668731E1,1.3981714E3,1.0968165E1,5.719145E0,1.5472296E2,1.2434484E3,5.54853E0,5.419635E0,4.987533E0,1.4973543E2,4.052138E1,1.0921405E2],"tree_param":{"num_deleted":"0","num_feature":"3","num_nodes":"13","size_leaf_vector":"1"}},{"base_weights":[7.571479E-1],"categories":[],"categories_nodes":[],"categories_segments":[],"categories_sizes":[],"default_left":[0],"id":9,"left_children":[-1],"loss_changes":[0E0],"parents":[2147483647],"right_children":[-1],"split_conditions":[3.7857395E-2],"split_indices":[0],"split_type":[0],"sum_hessian":[2.0639175E3],"tree_param":{"num_deleted":"0","num_feature":"3","num_nodes":"1","size_leaf_vector":"1"}},{"base_weights":[-5.6455123E-1,-5.9632206E-1,1.613023E-2,-3.0322893E-2,-2.820893E-2,-2.255494E-1,1.7508055E-1,-5.73616E-3,-2.5003517E-1,3.1255597E-1,-1.4916289E-1,-3.1062907E-1,-8.664017E-3,1.0070733E-1,4.4993784E-2,-1.9651797E-2,4.116447E-3,-8.795495E-3,-1.906887E-2,8.981249E-3,3.321413E-4],"categories":[],"categories_nodes":[],"categories_segments":[],"categories_sizes":[],"default_left":[0,0,0,0,0,0,0,0,0,0,0,0,0,0,0,0,0,0,0,0,0],"id":10,"left_children":[1,3,5,-1,-1,7,9,-1,11,13,15,17,-1,19,-1,-1,-1,-1,-1,-1,-1],"loss_changes":[2.5271759E1,8.0841064E-2,2.8056293E0,0E0,0E0,5.0027013E-2,2.0079858E0,0E0,5.272138E-2,3.794212E0,8.101951E-1,4.290819E-2,0E0,1.7750242E-1,0E0,0E0,0E0,0E0,0E0,0E0,0E0],"parents":[2147483647,0,0,1,1,2,2,5,5,6,6,8,8,9,9,10,10,11,11,13,13],"right_children":[2,4,6,-1,-1,8,10,-1,12,14,16,18,-1,20,-1,-1,-1,-1,-1,-1,-1],"split_conditions":[9.480968E-1,5.780774E-1,9.880546E-1,-3.0322893E-2,-2.820893E-2,9.570868E-1,9.984398E-1,-5.73616E-3,9.7521865E-1,9.966595E-1,9.9901414E-1,9.6739554E-1,-8.664017E-3,9.954911E-1,4.4993784E-2,-1.9651797E-2,4.116447E-3,-8.795495E-3,-1.906887E-2,8.981249E-3,3.321413E-4],"split_indices":[1,1,1,0,0,1,1,0,1,1,1,1,0,1,0,0,0,0,0,0,0],"split_type":[0,0,0,0,0,0,0,0,0,0,0,0,0,0,0,0,0,0,0,0,0],"sum_hessian":[1.3683173E3,1.2973105E3,7.100667E1,9.727178E2,3.245928E2,2.8005726E1,4.300094E1,6.096658E0,2.1909067E1,3.0222849E1,1.277809E1,1.0540709E1,1.136836E1,2.3072111E1,7.1507373E0,5.882806E0,6.8952837E0,4.8299403E0,5.710768E0,1.2051569E1,1.1020543E1],"tree_param":{"num_deleted":"0","num_feature":"3","num_nodes":"21","size_leaf_vector":"1"}},{"base_weights":[-5.8515614E-1,1.1522994E-1,-5.975564E-1,7.4996087E-3,-1.0000376E-3,-4.8168346E-1,-3.057812E-2,-1.7056696E-2,-5.039272E-1,-2.5729313E-2,-1.2671192E-2],"categories":[],"categories_nodes":[],"categories_segments":[],"categories_sizes":[],"default_left":[0,0,0,0,0,0,0,0,0,0,0],"id":11,"left_children":[1,3,5,-1,-1,7,-1,-1,9,-1,-1],"loss_changes":[1.1999023E1,1.1928028E-1,1.8962097E0,0E0,0E0,2.9793167E-1,0E0,0E0,2.1043777E-1,0E0,0E0],"parents":[2147483647,0,0,1,1,2,2,5,5,8,8],"right_children":[2,4,6,-1,-1,8,-1,-1,10,-1,-1],"split_conditions":[-9.7019005E-1,-9.753399E-1,-7.876082E-1,7.4996087E-3,-1.0000376E-3,-9.500076E-1,-3.057812E-2,-1.7056696E-2,-8.007864E-1,-2.5729313E-2,-1.2671192E-2],"split_indices":[1,1,1,0,0,1,0,0,1,0,0],"split_type":[0,0,0,0,0,0,0,0,0,0,0],"sum_hessian":[1.3726536E3,2.3735655E1,1.3489178E3,1.8795063E1,4.9405923E0,1.492818E2,1.1996361E3,2.2629696E1,1.2665209E2,1.2047174E2,6.180356E0],"tree_param":{"num_deleted":"0","num_feature":"3","num_nodes":"11","size_leaf_vector":"1"}},{"base_weights":[7.398492E-1,7.561095E-1,2.9165995E-1,1.6304707E-2,7.6083994E-1,2.4356428E-1,2.1451024E-2,3.432803E-2,7.665095E-1,3.123753E-1,-9.492907E-3,3.8413238E-2,6.0525805E-1,2.4397707E-1,2.2111213E-2,2.0326365E-2,3.4375787E-2,1.5857873E-2,1.1982636E-3],"categories":[],"categories_nodes":[],"categories_segments":[],"categories_sizes":[],"default_left":[0,0,0,0,0,0,0,0,0,0,0,0,0,0,0,0,0,0,0],"id":12,"left_children":[1,3,5,-1,7,9,-1,-1,11,13,-1,-1,15,17,-1,-1,-1,-1,-1],"loss_changes":[1.4624268E1,3.7491455E0,3.7739038E-1,0E0,2.919922E-1,1.7395587E0,0E0,0E0,4.345703E-2,3.2727623E-1,0E0,0E0,1.13801956E-1,5.450237E-1,0E0,0E0,0E0,0E0,0E0],"parents":[2147483647,0,0,1,1,2,2,4,4,5,5,8,8,9,9,12,12,13,13],"right_children":[2,4,6,-1,8,10,-1,-1,12,14,-1,-1,16,18,-1,-1,-1,-1,-1],"split_conditions":[9.7521865E-1,-9.753399E-1,9.984398E-1,1.6304707E-2,-8.6364186E-1,9.966595E-1,2.1451024E-2,3.432803E-2,9.480968E-1,9.954911E-1,-9.492907E-3,3.8413238E-2,9.570868E-1,9.93498E-1,2.2111213E-2,2.0326365E-2,3.4375787E-2,1.5857873E-2,1.1982636E-3],"split_indices":[1,1,1,0,1,1,0,0,1,1,0,0,1,1,0,0,0,0,0],"split_type":[0,0,0,0,0,0,0,0,0,0,0,0,0,0,0,0,0,0,0],"sum_hessian":[2.0359694E3,1.9640277E3,7.194159E1,2.213163E1,1.9418961E3,5.5338455E1,1.6603134E1,1.463665E2,1.7955297E3,4.7997547E1,7.3409076E0,1.7724707E3,2.3058939E1,3.3323334E1,1.4674216E1,8.489885E0,1.4569053E1,2.4674536E1,8.648797E0],"tree_param":{"num_deleted":"0","num_feature":"3","num_nodes":"19","size_leaf_vector":"1"}},{"base_weights":[-5.5920833E-1,-5.89948E-1,1.6358829E-1,-2.9636977E-2,-3.4875813E-1,-4.0230196E-2,2.5700188E-1,-1.0530402E-2,-1.9724457E-2,-3.3380985E-3,4.4083802E-4,3.8323823E-1,5.3003645E-3,1.561629E-1,4.4734906E-2,-3.3750627E-3,3.1291582E-3,1.96907E-2,-4.1312593E-5],"categories":[],"categories_nodes":[],"categories_segments":[],"categories_sizes":[],"default_left":[0,0,0,0,0,0,0,0,0,0,0,0,0,0,0,0,0,0,0],"id":13,"left_children":[1,3,5,-1,7,9,11,-1,-1,-1,-1,13,15,17,-1,-1,-1,-1,-1],"loss_changes":[2.9554993E1,6.496582E-1,1.0550226E0,0E0,2.4209738E-2,2.4153851E-2,1.1977687E0,0E0,0E0,0E0,0E0,2.7793422E0,6.1051045E-2,6.9492173E-1,0E0,0E0,0E0,0E0,0E0],"parents":[2147483647,0,0,1,1,2,2,4,4,5,5,6,6,11,11,12,12,13,13],"right_children":[2,4,6,-1,8,10,12,-1,-1,-1,-1,14,16,18,-1,-1,-1,-1,-1],"split_conditions":[9.7521865E-1,9.480968E-1,9.93498E-1,-2.9636977E-2,9.570868E-1,9.880546E-1,9.984398E-1,-1.0530402E-2,-1.9724457E-2,-3.3380985E-3,4.4083802E-4,9.966595E-1,9.9901414E-1,9.954911E-1,4.4734906E-2,-3.3750627E-3,3.1291582E-3,1.96907E-2,-4.1312593E-5],"split_indices":[1,1,1,0,1,1,1,0,0,0,0,1,1,1,0,0,0,0,0],"split_type":[0,0,0,0,0,0,0,0,0,0,0,0,0,0,0,0,0,0,0],"sum_hessian":[1.3248495E3,1.27098E3,5.386952E1,1.2549972E3,1.5982706E1,1.7108948E1,3.6760567E1,5.368926E0,1.061378E1,1.0868492E1,6.240456E0,2.4134003E1,1.2626565E1,1.761757E1,6.5164313E0,5.481568E0,7.1449976E0,6.408223E0,1.1209349E1],"tree_param":{"num_deleted":"0","num_feature":"3","num_nodes":"19","size_leaf_vector":"1"}},{"base_weights":[-5.787272E-1,1.1416552E-1,-5.9081167E-1,1.1069976E-2,-3.8810128E-3,-4.8462522E-1,-3.017745E-2,1.5748646E-3,-2.1522662E-3,-4.9473614E-1,-7.0897774E-3,-2.048289E-2,-2.6278151E-2],"categories":[],"categories_nodes":[],"categories_segments":[],"categories_sizes":[],"default_left":[0,0,0,0,0,0,0,0,0,0,0,0,0],"id":14,"left_children":[1,3,5,-1,7,9,-1,-1,-1,11,-1,-1,-1],"loss_changes":[1.1140747E1,2.984284E-1,1.4657288E0,0E0,1.822132E-2,4.300537E-1,0E0,0E0,0E0,1.5127563E-1,0E0,0E0,0E0],"parents":[2147483647,0,0,1,1,2,2,4,4,5,5,9,9],"right_children":[2,4,6,-1,8,10,-1,-1,-1,12,-1,-1,-1],"split_conditions":[-9.7019005E-1,-9.873868E-1,-7.876082E-1,1.1069976E-2,-9.753399E-1,-8.007864E-1,-3.017745E-2,1.5748646E-3,-2.1522662E-3,-9.3300945E-1,-7.0897774E-3,-2.048289E-2,-2.6278151E-2],"split_indices":[1,1,1,0,1,1,0,0,0,1,0,0,0],"split_type":[0,0,0,0,0,0,0,0,0,0,0,0,0],"sum_hessian":[1.3214563E3,2.250727E1,1.2989491E3,1.133499E1,1.1172281E1,1.433056E2,1.1556434E3,5.9727135E0,5.1995673E0,1.3876984E2,4.535771E0,4.0708458E1,9.806137E1],"tree_param":{"num_deleted":"0","num_feature":"3","num_nodes":"13","size_leaf_vector":"1"}},{"base_weights":[7.124332E-1,6.2204576E-1,3.5946317E-2,3.2397587E-2,4.4150198E-1,-2.9387861E-2,2.9042004E-2,1.9160308E-2,-3.727893E-2],"categories":[],"categories_nodes":[],"categories_segments":[],"categories_sizes":[],"default_left":[0,0,0,0,0,0,0,0,0],"id":15,"left_children":[1,3,-1,-1,5,7,-1,-1,-1],"loss_changes":[7.264404E-1,3.7553024E-1,0E0,0E0,1.3876338E0,1.9763929E0,0E0,0E0,0E0],"parents":[2147483647,0,0,1,1,4,4,5,5],"right_children":[2,4,-1,-1,6,8,-1,-1,-1],"split_conditions":[9.488799E4,9.487268E4,3.5946317E-2,3.2397587E-2,9.488149E4,9.487304E4,2.9042004E-2,1.9160308E-2,-3.727893E-2],"split_indices":[2,2,0,0,2,2,0,0,0],"split_type":[0,0,0,0,0,0,0,0,0],"sum_hessian":[1.9988416E3,1.4045406E2,1.8583876E3,1.20565414E2,1.9888643E1,4.721507E0,1.5167136E1,3.290693E0,1.4308139E0],"tree_param":{"num_deleted":"0","num_feature":"3","num_nodes":"9","size_leaf_vector":"1"}},{"base_weights":[-5.5400854E-1,-5.3125596E-1,-2.8691033E-2,-5.4699767E-1,-4.6267954E-1,-4.8456326E-1,-5.5879927E-1,5.7250023E-2,-5.337504E-1,-2.619028E-2,1.6776667E-3,-2.968429E-2,-5.229235E-1,-2.7662693E-2,-3.5873505E-1,5.475381E-2,-2.6835412E-2,2.1772194E-3,-2.3350457E-2],"categories":[],"categories_nodes":[],"categories_segments":[],"categories_sizes":[],"default_left":[0,0,0,0,0,0,0,0,0,0,0,0,0,0,0,0,0,0,0],"id":16,"left_children":[1,3,-1,5,7,9,11,-1,13,-1,-1,-1,15,-1,17,-1,-1,-1,-1],"loss_changes":[2.713623E-1,4.038086E-1,0E0,8.984375E-2,1.433252E1,1.7525272E0,1.9652557E-1,0E0,1.9641876E-1,0E0,0E0,0E0,5.2290497E0,0E0,6.494508E-1,0E0,0E0,0E0,0E0],"parents":[2147483647,0,0,1,1,3,3,4,4,5,5,6,6,8,8,12,12,14,14],"right_children":[2,4,-1,6,8,10,12,-1,14,-1,-1,-1,16,-1,18,-1,-1,-1,-1],"split_conditions":[9.492878E4,9.491725E4,-2.8691033E-2,9.488451E4,9.491943E4,9.487304E4,9.489025E4,5.7250023E-2,9.492802E4,-2.619028E-2,1.6776667E-3,-2.968429E-2,9.4893766E4,-2.7662693E-2,9.492869E4,5.475381E-2,-2.6835412E-2,2.1772194E-3,-2.3350457E-2],"split_indices":[2,2,0,2,2,2,2,0,2,0,0,0,2,0,2,0,0,0,0],"split_type":[0,0,0,0,0,0,0,0,0,0,0,0,0,0,0,0,0,0,0],"sum_hessian":[1.2773387E3,6.074954E2,6.698434E2,4.8840552E2,1.1908989E2,8.4330444E1,4.0407507E2,4.402018E0,1.14687874E2,7.838272E1,5.9477205E0,1.969791E2,2.0709598E2,1.01244194E2,1.3443679E1,1.0868307E0,2.0600916E2,2.9778109E0,1.0465868E1],"tree_param":{"num_deleted":"0","num_feature":"3","num_nodes":"19","size_leaf_vector":"1"}},{"base_weights":[-5.7478493E-1,1.1464195E-1,-5.8738166E-1,2.6771718E-1,-2.6667774E-1,-4.6814826E-1,-2.9806754E-2,-1.1931296E-2,5.382347E-2,-1.5332085E-2,-6.1295102E-3,-5.128572E-1,-1.1425819E-1,1.8202505E-1,-2.42217E-2,-5.3915983E-1,-3.518291E-1,3.451426E-2,-3.362262E-1,-8.5981144E-4,2.515988E-2,-1.6182339E-2,-2.8175175E-2,-2.3441603E-2,5.6492067E-3,-2.0892326E-2,6.758328E-3],"categories":[],"categories_nodes":[],"categories_segments":[],"categories_sizes":[],"default_left":[0,0,0,0,0,0,0,0,0,0,0,0,0,0,0,0,0,0,0,0,0,0,0,0,0,0,0],"id":17,"left_children":[1,3,5,7,9,11,-1,13,-1,-1,-1,15,17,19,-1,21,23,-1,25,-1,-1,-1,-1,-1,-1,-1,-1],"loss_changes":[1.1032867E1,1.4426963E0,1.0153198E0,3.9170563E0,4.043877E-3,1.3570919E0,0E0,1.3543674E0,0E0,0E0,0E0,1.455574E-1,2.2541363E0,6.81913E-1,0E0,1.6473198E-1,8.1390846E-1,0E0,4.237945E-1,0E0,0E0,0E0,0E0,0E0,0E0,0E0,0E0],"parents":[2147483647,0,0,1,1,2,2,3,3,4,4,5,5,7,7,11,11,12,12,13,13,15,15,16,16,18,18],"right_children":[2,4,6,8,10,12,-1,14,-1,-1,-1,16,18,20,-1,22,24,-1,26,-1,-1,-1,-1,-1,-1,-1,-1],"split_conditions":[-9.7019005E-1,9.4957164E4,-8.6364186E-1,9.4931E4,-9.753399E-1,9.4938914E4,-2.9806754E-2,9.492626E4,5.382347E-2,-1.5332085E-2,-6.1295102E-3,9.49288E4,9.494044E4,9.488799E4,-2.42217E-2,-9.5608467E-1,-9.1086036E-1,3.451426E-2,-8.8217276E-1,-8.5981144E-4,2.515988E-2,-1.6182339E-2,-2.8175175E-2,-2.3441603E-2,5.6492067E-3,-2.0892326E-2,6.758328E-3],"split_indices":[1,2,1,2,1,2,0,2,0,0,0,2,2,2,0,1,1,0,1,0,0,0,0,0,0,0,0],"split_type":[0,0,0,0,0,0,0,0,0,0,0,0,0,0,0,0,0,0,0,0,0,0,0,0,0,0,0],"sum_hessian":[1.261651E3,2.2493025E1,1.239158E3,1.6262571E1,6.2304535E0,8.8475815E1,1.1506821E3,1.2816246E1,3.4463248E0,3.9944074E0,2.236046E0,7.815309E1,1.03227215E1,9.522248E0,3.2939978E0,6.516128E1,1.29918165E1,1.7759147E0,8.546807E0,6.460994E0,3.0612545E0,8.06421E0,5.7097065E1,1.0372262E1,2.6195548E0,7.382193E0,1.1646141E0],"tree_param":{"num_deleted":"0","num_feature":"3","num_nodes":"27","size_leaf_vector":"1"}},{"base_weights":[6.97726E-1,6.246693E-1,7.031807E-1,3.2955524E-2,4.817571E-1,3.70914E-2,6.9567007E-1,-1.1420813E-1,5.767385E-1,-3.0574426E-2,6.9857156E-1,1.5824478E-2,-3.6807984E-2,1.7707497E-2,3.061126E-2,4.4861922E-1,3.525055E-2,2.427792E-2,-1.1871736E-2],"categories":[],"categories_nodes":[],"categories_segments":[],"categories_sizes":[],"default_left":[0,0,0,0,0,0,0,0,0,0,0,0,0,0,0,0,0,0,0],"id":18,"left_children":[1,3,5,-1,7,-1,9,11,13,-1,15,-1,-1,-1,-1,17,-1,-1,-1],"loss_changes":[3.4259033E-1,3.9748E-1,1.15356445E-2,0E0,1.8730822E0,0E0,6.260376E0,1.6322193E0,2.002716E-3,0E0,2.154541E0,0E0,0E0,0E0,0E0,1.1620064E0,0E0,0E0,0E0],"parents":[2147483647,0,0,1,1,2,2,4,4,6,6,7,7,8,8,10,10,15,15],"right_children":[2,4,6,-1,8,-1,10,12,14,-1,16,-1,-1,-1,-1,18,-1,-1,-1],"split_conditions":[9.4888E4,9.487268E4,9.489025E4,3.2955524E-2,9.488149E4,3.70914E-2,9.4893766E4,9.487304E4,9.488451E4,-3.0574426E-2,9.490705E4,1.5824478E-2,-3.6807984E-2,1.7707497E-2,3.061126E-2,9.490654E4,3.525055E-2,2.427792E-2,-1.1871736E-2],"split_indices":[2,2,2,0,2,0,2,2,2,0,2,0,0,0,0,2,0,0,0],"split_type":[0,0,0,0,0,0,0,0,0,0,0,0,0,0,0,0,0,0,0],"sum_hessian":[1.960965E3,1.4426622E2,1.8166987E3,1.13339806E2,3.0926409E1,2.7969678E2,1.537002E3,4.2234907E0,2.6702917E1,2.939609E0,1.5340624E3,2.7856083E0,1.4378823E0,5.181571E0,2.1521347E1,4.0303284E1,1.493759E3,3.852142E1,1.7818627E0],"tree_param":{"num_deleted":"0","num_feature":"3","num_nodes":"19","size_leaf_vector":"1"}},{"base_weights":[-5.478952E-1,-5.773057E-1,1.3922541E-1,-5.803179E-1,-2.924583E-1,8.323192E-1,-2.485847E-1,-2.9568864E-2,-5.465358E-1,-9.882273E-2,-2.0965999E-2,-4.6610937E-2,1.1747779E0,-3.2551405E-1,2.0017633E-1,-3.4042236E-1,-2.7583579E-2,-1.422353E-2,1.128267E-2,2.9677961E-2,-2.4074374E-2,3.515761E-3,1.2887695E0,-7.148825E-2,-4.0719137E-1,4.65052E-2,-2.4588172E-1,-2.3594478E-2,-9.503524E-3,7.0765786E-2,1.6402258E-2,-1.777657E-2,2.5634727E-2,-2.5368229E-2,-8.770234E-3,-2.0824075E-2,4.067334E-3],"categories":[],"categories_nodes":[],"categories_segments":[],"categories_sizes":[],"default_left":[0,0,0,0,0,0,0,0,0,0,0,0,0,0,0,0,0,0,0,0,0,0,0,0,0,0,0,0,0,0,0,0,0,0,0,0,0],"id":19,"left_children":[1,3,5,7,9,11,13,-1,15,17,-1,19,21,23,25,27,-1,-1,-1,-1,-1,-1,29,31,33,-1,35,-1,-1,-1,-1,-1,-1,-1,-1,-1,-1],"loss_changes":[2.509195E1,8.4884644E-1,1.4078243E1,1.1526489E-1,3.132223E-1,5.6971464E0,1.2341468E0,0E0,1.3256073E-1,4.8725575E-1,0E0,2.0168037E0,1.612524E0,5.7853675E-1,2.0436811E0,1.0736215E-1,0E0,0E0,0E0,0E0,0E0,0E0,1.0194893E0,1.5659093E0,4.206183E-1,0E0,2.7118868E-1,0E0,0E0,0E0,0E0,0E0,0E0,0E0,0E0,0E0,0E0],"parents":[2147483647,0,0,1,1,2,2,3,3,4,4,5,5,6,6,8,8,9,9,11,11,12,12,13,13,14,14,15,15,22,22,23,23,24,24,26,26],"right_children":[2,4,6,8,10,12,14,-1,16,18,-1,20,22,24,26,28,-1,-1,-1,-1,-1,-1,30,32,34,-1,36,-1,-1,-1,-1,-1,-1,-1,-1,-1,-1],"split_conditions":[9.7521865E-1,9.480968E-1,9.492527E4,5.780774E-1,9.491669E4,9.488151E4,9.494043E4,-2.9568864E-2,5.908711E-1,9.570868E-1,-2.0965999E-2,9.488149E4,9.849148E-1,9.493423E4,9.4948414E4,9.489025E4,-2.7583579E-2,-1.422353E-2,1.128267E-2,2.9677961E-2,-2.4074374E-2,3.515761E-3,9.491943E4,9.966595E-1,9.493594E4,4.65052E-2,9.495098E4,-2.3594478E-2,-9.503524E-3,7.0765786E-2,1.6402258E-2,-1.777657E-2,2.5634727E-2,-2.5368229E-2,-8.770234E-3,-2.0824075E-2,4.067334E-3],"split_indices":[1,1,2,1,2,2,2,0,1,1,0,2,1,2,2,2,0,0,0,0,0,0,2,1,2,0,2,0,0,0,0,0,0,0,0,0,0],"split_type":[0,0,0,0,0,0,0,0,0,0,0,0,0,0,0,0,0,0,0,0,0,0,0,0,0,0,0,0,0,0,0,0,0,0,0,0,0],"sum_hessian":[1.2366742E3,1.1860674E3,5.060685E1,1.1726296E3,1.3437678E1,1.7745647E1,3.2861202E1,8.709862E2,3.0164346E2,6.0231743E0,7.4145045E0,5.2178297E0,1.2527817E1,2.8286755E1,4.574449E0,8.969194E0,2.926743E2,3.909602E0,2.1135721E0,1.9631046E0,3.254725E0,1.3232934E0,1.1204523E1,7.3384824E0,2.094827E1,1.3235059E0,3.2509434E0,3.6441743E0,5.32502E0,9.482339E0,1.7221842E0,5.201027E0,2.1374555E0,1.3796704E1,7.1515675E0,1.9575989E0,1.2933446E0],"tree_param":{"num_deleted":"0","num_feature":"3","num_nodes":"37","size_leaf_vector":"1"}},{"base_weights":[-5.638375E-1,-4.45424E-1,-5.675992E-1,-2.8768197E-2,-2.5737673E-1,-2.8657934E-2,-4.848805E-1,-2.9158962E-1,7.850004E-3,3.9367974E-2,-5.197219E-1,-1.0893009E-2,-1.8735664E-2,-1.9130362E-2,-2.78402E-2],"categories":[],"categories_nodes":[],"categories_segments":[],"categories_sizes":[],"default_left":[0,0,0,0,0,0,0,0,0,0,0,0,0,0,0],"id":20,"left_children":[1,3,5,-1,7,-1,9,11,-1,-1,13,-1,-1,-1,-1],"loss_changes":[2.9510498E-1,8.909025E-1,2.6870728E-1,0E0,3.1776273E-1,0E0,4.0151386E0,2.9119492E-2,0E0,0E0,1.9261932E-1,0E0,0E0,0E0,0E0],"parents":[2147483647,0,0,1,1,2,2,4,4,6,6,7,7,10,10],"right_children":[2,4,6,-1,8,-1,10,12,-1,-1,14,-1,-1,-1,-1],"split_conditions":[9.487079E4,9.485564E4,9.495347E4,-2.8768197E-2,9.4868055E4,-2.8657934E-2,9.4957164E4,9.486423E4,7.850004E-3,3.9367974E-2,9.495858E4,-1.0893009E-2,-1.8735664E-2,-1.9130362E-2,-2.78402E-2],"split_indices":[2,2,2,0,2,0,2,2,0,0,2,0,0,0,0],"split_type":[0,0,0,0,0,0,0,0,0,0,0,0,0,0,0],"sum_hessian":[1.229151E3,4.1520763E1,1.1876302E3,2.3335997E1,1.8184767E1,1.1072811E3,8.034911E1,1.7071575E1,1.1131916E0,1.5660521E0,7.8783066E1,1.09659E1,6.1056743E0,1.9180208E1,5.9602856E1],"tree_param":{"num_deleted":"0","num_feature":"3","num_nodes":"15","size_leaf_vector":"1"}},{"base_weights":[6.7715114E-1,5.7501024E-1,6.8479514E-1,3.0311644E-2,4.327685E-1,3.6284912E-2,6.7674446E-1,-1.13985606E-1,2.6650662E-2,-1.707546E-1,6.8084806E-1,1.5546664E-2,-3.611073E-2,-3.438776E-2,5.2782986E-2,4.5731583E-1,3.422658E-2,9.322138E-3,-9.080255E-3,3.057813E-2,-6.6934074E-3],"categories":[],"categories_nodes":[],"categories_segments":[],"categories_sizes":[],"default_left":[0,0,0,0,0,0,0,0,0,0,0,0,0,0,0,0,0,0,0,0,0],"id":21,"left_children":[1,3,5,-1,7,-1,9,11,-1,13,15,-1,-1,-1,17,19,-1,-1,-1,-1,-1],"loss_changes":[1.0859985E0,3.5140228E-1,8.782959E-2,0E0,1.6156888E0,0E0,5.276428E0,1.5735046E0,0E0,9.549913E-1,9.0289307E-1,0E0,0E0,0E0,2.3681715E-1,2.5398073E0,0E0,0E0,0E0,0E0,0E0],"parents":[2147483647,0,0,1,1,2,2,4,4,6,6,7,7,9,9,10,10,14,14,15,15],"right_children":[2,4,6,-1,8,-1,10,12,-1,14,16,-1,-1,-1,18,20,-1,-1,-1,-1,-1],"split_conditions":[9.4888E4,9.487268E4,9.489025E4,3.0311644E-2,9.488149E4,3.6284912E-2,9.489999E4,9.487304E4,2.6650662E-2,9.489326E4,9.490653E4,1.5546664E-2,-3.611073E-2,-3.438776E-2,9.489377E4,9.490098E4,3.422658E-2,9.322138E-3,-9.080255E-3,3.057813E-2,-6.6934074E-3],"split_indices":[2,2,2,0,2,0,2,2,0,2,2,0,0,0,2,2,0,0,0,0,0],"split_type":[0,0,0,0,0,0,0,0,0,0,0,0,0,0,0,0,0,0,0,0,0],"sum_hessian":[1.8942665E3,1.3719914E2,1.7570674E3,1.0982923E2,2.7369911E1,2.7429803E2,1.4827693E3,4.219403E0,2.3150509E1,6.9492683E0,1.4758201E3,2.77178E0,1.4476225E0,1.470829E0,5.4784393E0,2.5954563E1,1.4498655E3,3.619166E0,1.8592734E0,2.055663E1,5.397934E0],"tree_param":{"num_deleted":"0","num_feature":"3","num_nodes":"21","size_leaf_vector":"1"}},{"base_weights":[-5.346196E-1,-5.66702E-1,1.8784252E-1,-5.71479E-1,-2.1562102E-1,6.825244E-2,3.821402E-1,-2.9168705E-2,-5.346425E-1,-3.163039E-3,-1.4309376E-2,1.3407867E-1,-5.877685E-2,4.1077755E-2,3.1271994E-2,-1.8188877E-2,-2.6980514E-2,2.1234347E-2,2.0343466E-2,-1.3344425E-3,-3.9645457E-3,-8.651587E-3,1.0113214E-2,-3.3334445E-3,3.5842396E-3],"categories":[],"categories_nodes":[],"categories_segments":[],"categories_sizes":[],"default_left":[0,0,0,0,0,0,0,0,0,0,0,0,0,0,0,0,0,0,0,0,0,0,0,0,0],"id":22,"left_children":[1,3,5,7,9,11,13,-1,15,-1,-1,17,19,-1,21,-1,-1,23,-1,-1,-1,-1,-1,-1,-1],"loss_changes":[2.75224E1,1.7765808E0,1.1599698E0,1.7755127E-1,1.626535E-1,2.8226337E-1,2.9391215E0,0E0,4.5295715E-2,0E0,0E0,6.6606855E-1,5.713962E-3,0E0,4.448431E-1,0E0,0E0,7.821713E-2,0E0,0E0,0E0,0E0,0E0,0E0,0E0],"parents":[2147483647,0,0,1,1,2,2,3,3,4,4,5,5,6,6,8,8,11,11,12,12,14,14,17,17],"right_children":[2,4,6,8,10,12,14,-1,16,-1,-1,18,20,-1,22,-1,-1,24,-1,-1,-1,-1,-1,-1,-1],"split_conditions":[9.7521865E-1,9.480968E-1,9.966595E-1,5.780774E-1,9.570868E-1,9.954911E-1,9.984398E-1,-2.9168705E-2,5.908711E-1,-3.163039E-3,-1.4309376E-2,9.93498E-1,9.963226E-1,4.1077755E-2,9.9901414E-1,-1.8188877E-2,-2.6980514E-2,9.849148E-1,2.0343466E-2,-1.3344425E-3,-3.9645457E-3,-8.651587E-3,1.0113214E-2,-3.3334445E-3,3.5842396E-3],"split_indices":[1,1,1,1,1,1,1,0,1,0,0,1,1,0,1,0,0,1,0,0,0,0,0,0,0],"split_type":[0,0,0,0,0,0,0,0,0,0,0,0,0,0,0,0,0,0,0,0,0,0,0,0,0],"sum_hessian":[1.1818271E3,1.1317836E3,5.004356E1,1.1159713E3,1.5812299E1,3.1813593E1,1.8229967E1,8.323546E2,2.8361667E2,5.6056333E0,1.0206666E1,2.0918295E1,1.0895298E1,7.498109E0,1.0731858E1,1.0110107E1,2.7350656E2,1.5559637E1,5.358658E0,5.146371E0,5.748927E0,4.8842125E0,5.8476453E0,5.5565724E0,1.0003065E1],"tree_param":{"num_deleted":"0","num_feature":"3","num_nodes":"25","size_leaf_vector":"1"}},{"base_weights":[-5.6064916E-1,2.029385E-1,-5.7249826E-1,1.2915517E-2,3.2627643E-3,-4.161243E-1,-2.925737E-2,-3.0043495E-1,-4.5346594E-1,-1.6592694E-2,-6.4321244E-3,-2.4099099E-2,-2.5766882E-1,-5.8538127E-3,-1.6938893E-2],"categories":[],"categories_nodes":[],"categories_segments":[],"categories_sizes":[],"default_left":[0,0,0,0,0,0,0,0,0,0,0,0,0,0,0],"id":23,"left_children":[1,3,5,-1,-1,7,-1,9,11,-1,-1,-1,13,-1,-1],"loss_changes":[1.0775635E1,1.2601805E-1,2.0516663E0,0E0,0E0,2.5386333E-1,0E0,9.2235565E-2,2.4599838E-1,0E0,0E0,0E0,8.0955684E-2,0E0,0E0],"parents":[2147483647,0,0,1,1,2,2,5,5,7,7,8,8,12,12],"right_children":[2,4,6,-1,-1,8,-1,10,12,-1,-1,-1,14,-1,-1],"split_conditions":[-9.753399E-1,-9.873868E-1,-8.6364186E-1,1.2915517E-2,3.2627643E-3,-9.500076E-1,-2.925737E-2,-9.533544E-1,-8.8217276E-1,-1.6592694E-2,-6.4321244E-3,-2.4099099E-2,-8.727114E-1,-5.8538127E-3,-1.6938893E-2],"split_indices":[1,1,1,0,0,1,0,1,1,0,0,0,1,0,0],"split_type":[0,0,0,0,0,0,0,0,0,0,0,0,0,0,0],"sum_hessian":[1.1771188E3,1.7740618E1,1.159378E3,1.2027442E1,5.713177E0,8.930039E1,1.0700778E3,2.3997738E1,6.530265E1,1.9499743E1,4.4979963E0,5.5725166E1,9.577486E0,4.397829E0,5.179657E0],"tree_param":{"num_deleted":"0","num_feature":"3","num_nodes":"15","size_leaf_vector":"1"}},{"base_weights":[6.640044E-1,6.826218E-1,1.9930024E-1,1.59848E-1,6.916316E-1,1.4548519E-1,1.8380882E-2,7.0226598E-3,1.0505859E-2,6.937987E-1,2.521835E-2,2.6094276E-1,-2.2222847E-2,6.3407207E-1,3.5053186E-2,1.9266672E-1,1.9560624E-2,3.2034434E-2,2.080181E-2,1.6387671E-2,2.0930415E-3],"categories":[],"categories_nodes":[],"categories_segments":[],"categories_sizes":[],"default_left":[0,0,0,0,0,0,0,0,0,0,0,0,0,0,0,0,0,0,0,0,0],"id":24,"left_children":[1,3,5,7,9,11,-1,-1,-1,13,-1,15,-1,17,-1,19,-1,-1,-1,-1,-1],"loss_changes":[1.6081055E1,8.376404E0,6.13333E-1,1.5202165E-3,3.6871338E-1,4.028165E0,0E0,0E0,0E0,3.1402588E-1,0E0,3.5747218E-1,0E0,2.204132E-2,0E0,6.769024E-1,0E0,0E0,0E0,0E0,0E0],"parents":[2147483647,0,0,1,1,2,2,3,3,4,4,5,5,9,9,11,11,13,13,15,15],"right_children":[2,4,6,8,10,12,-1,-1,-1,14,-1,16,-1,18,-1,20,-1,-1,-1,-1,-1],"split_conditions":[9.7521865E-1,-9.7019005E-1,9.984398E-1,-9.753399E-1,9.480968E-1,9.966595E-1,1.8380882E-2,7.0226598E-3,1.0505859E-2,-7.876082E-1,2.521835E-2,9.954911E-1,-2.2222847E-2,-8.007864E-1,3.5053186E-2,9.880546E-1,1.9560624E-2,3.2034434E-2,2.080181E-2,1.6387671E-2,2.0930415E-3],"split_indices":[1,1,1,1,1,1,0,0,0,1,0,1,0,1,0,1,0,0,0,0,0],"split_type":[0,0,0,0,0,0,0,0,0,0,0,0,0,0,0,0,0,0,0,0,0],"sum_hessian":[1.8734689E3,1.8008527E3,7.2616196E1,3.08288E1,1.7700238E3,5.6436478E1,1.6179724E1,2.4983644E1,5.8451552E0,1.7471005E3,2.2923315E1,4.7665535E1,8.770941E0,1.9903848E2,1.548062E3,3.290079E1,1.4764746E1,1.9129492E2,7.743566E0,1.6735956E1,1.6164833E1],"tree_param":{"num_deleted":"0","num_feature":"3","num_nodes":"21","size_leaf_vector":"1"}},{"base_weights":[-5.345794E-1,-5.6474894E-1,1.0998441E-1,-5.6791466E-1,-2.9224855E-1,3.7243526E-2,2.3578934E-1,-2.8972624E-2,-5.321443E-1,-1.4794351E-1,-2.472185E-2,1.347997E-1,-9.359631E-3,3.0375361E-2,-6.747123E-3,-1.8004635E-2,-2.6864508E-2,-1.452552E-2,-7.354069E-5,-3.8037254E-3,2.533823E-2,-1.3013355E-3,5.09045E-4,-5.430469E-3,2.7424356E-3],"categories":[],"categories_nodes":[],"categories_segments":[],"categories_sizes":[],"default_left":[0,0,0,0,0,0,0,0,0,0,0,0,0,0,0,0,0,0,0,0,0,0,0,0,0],"id":25,"left_children":[1,3,5,7,9,11,13,-1,15,17,-1,19,-1,-1,21,-1,-1,-1,-1,23,-1,-1,-1,-1,-1],"loss_changes":[2.2510468E1,7.854614E-1,4.712264E-1,1.4120483E-1,3.5650945E-1,7.78943E-1,1.7197168E0,0E0,5.256653E-2,2.0881207E-1,0E0,1.2689278E0,0E0,0E0,4.346124E-3,0E0,0E0,0E0,0E0,1.2211592E-1,0E0,0E0,0E0,0E0,0E0],"parents":[2147483647,0,0,1,1,2,2,3,3,4,4,5,5,6,6,8,8,9,9,11,11,14,14,19,19],"right_children":[2,4,6,8,10,12,14,-1,16,18,-1,20,-1,-1,22,-1,-1,-1,-1,24,-1,-1,-1,-1,-1],"split_conditions":[9.7521865E-1,9.480968E-1,9.966595E-1,5.780774E-1,9.6739554E-1,9.954911E-1,9.984398E-1,-2.8972624E-2,5.908711E-1,9.570868E-1,-2.472185E-2,9.93498E-1,-9.359631E-3,3.0375361E-2,9.9901414E-1,-1.8004635E-2,-2.6864508E-2,-1.452552E-2,-7.354069E-5,9.849148E-1,2.533823E-2,-1.3013355E-3,5.09045E-4,-5.430469E-3,2.7424356E-3],"split_indices":[1,1,1,1,1,1,1,0,1,1,0,1,0,0,1,0,0,0,0,1,0,0,0,0,0],"split_type":[0,0,0,0,0,0,0,0,0,0,0,0,0,0,0,0,0,0,0,0,0,0,0,0,0],"sum_hessian":[1.1533817E3,1.1019285E3,5.1453228E1,1.0882025E3,1.3726012E1,3.342361E1,1.8029617E1,8.113126E2,2.7688986E2,9.020005E0,4.7060065E0,2.3575415E1,9.848195E0,6.5247703E0,1.1504846E1,1.0102186E1,2.6678766E2,4.0726147E0,4.9473906E0,1.7896503E1,5.6789117E0,5.12753E0,6.377316E0,6.116042E0,1.1780461E1],"tree_param":{"num_deleted":"0","num_feature":"3","num_nodes":"25","size_leaf_vector":"1"}},{"base_weights":[-5.589662E-1,-4.5695627E-1,-2.8115792E-2,-2.8270135E-2,-2.9985127E-1,-3.30156E-1,9.153212E-4,-1.0069052E-2,-2.5194539E-2],"categories":[],"categories_nodes":[],"categories_segments":[],"categories_sizes":[],"default_left":[0,0,0,0,0,0,0,0,0],"id":26,"left_children":[1,3,-1,-1,5,7,-1,-1,-1],"loss_changes":[1.3043213E-1,5.3552914E-1,0E0,0E0,1.8951881E-1,2.884134E-1,0E0,0E0,0E0],"parents":[2147483647,0,0,1,1,4,4,5,5],"right_children":[2,4,-1,-1,6,8,-1,-1,-1],"split_conditions":[9.487079E4,9.485564E4,-2.8115792E-2,-2.8270135E-2,9.4868055E4,9.486423E4,9.153212E-4,-1.0069052E-2,-2.5194539E-2],"split_indices":[2,2,0,0,2,2,0,0,0],"split_type":[0,0,0,0,0,0,0,0,0],"sum_hessian":[1.1328186E3,4.0383217E1,1.0924354E3,2.2353888E1,1.8029327E1,1.6426939E1,1.6023886E0,1.06741905E1,5.7527494E0],"tree_param":{"num_deleted":"0","num_feature":"3","num_nodes":"9","size_leaf_vector":"1"}},{"base_weights":[6.514762E-1,5.7284516E-1,6.5766287E-1,2.988088E-2,4.6224222E-1,3.4849666E-2,6.5000063E-1,-1.293196E-1,2.8115382E-2,-3.704268E-2,6.5245724E-1,1.4607086E-2,-3.5875287E-2,3.57752E-1,3.2907136E-2,2.215465E-2,-2.824357E-3],"categories":[],"categories_nodes":[],"categories_segments":[],"categories_sizes":[],"default_left":[0,0,0,0,0,0,0,0,0,0,0,0,0,0,0,0,0],"id":27,"left_children":[1,3,5,-1,7,-1,9,11,-1,-1,13,-1,-1,15,-1,-1,-1],"loss_changes":[5.0805664E-1,1.0849762E-1,5.303955E-2,0E0,1.8550954E0,0E0,5.33667E0,1.4911001E0,0E0,0E0,2.1412354E0,0E0,0E0,1.0515554E0,0E0,0E0,0E0],"parents":[2147483647,0,0,1,1,2,2,4,4,6,6,7,7,10,10,13,13],"right_children":[2,4,6,-1,8,-1,10,12,-1,-1,14,-1,-1,16,-1,-1,-1],"split_conditions":[9.4888E4,9.487268E4,9.489025E4,2.988088E-2,9.488149E4,3.4849666E-2,9.489327E4,9.487304E4,2.8115382E-2,-3.704268E-2,9.490653E4,1.4607086E-2,-3.5875287E-2,9.490157E4,3.2907136E-2,2.215465E-2,-2.824357E-3],"split_indices":[2,2,2,0,2,0,2,2,0,0,2,0,0,2,0,0,0],"split_type":[0,0,0,0,0,0,0,0,0,0,0,0,0,0,0,0,0],"sum_hessian":[1.8178452E3,1.3942136E2,1.678424E3,1.1031102E2,2.9110332E1,2.590003E2,1.4194236E3,4.169418E0,2.4940914E1,1.9726974E0,1.4174509E3,2.722176E0,1.4472418E0,2.8037628E1,1.3894132E3,2.3190332E1,4.8472977E0],"tree_param":{"num_deleted":"0","num_feature":"3","num_nodes":"17","size_leaf_vector":"1"}},{"base_weights":[-5.274089E-1,-3.9702004E-1,-5.362237E-1,-4.4994685E-1,2.1356227E-1,-5.263615E-1,-2.8710527E-2,-2.2975465E-2,-5.2393996E-3,5.435521E-2,-7.7501372E-3,-2.8591637E-2,-5.1390344E-1,6.097283E-1,-5.221139E-1,5.426523E-2,5.2890126E-3,-1.6924297E-2,-2.6380563E-2],"categories":[],"categories_nodes":[],"categories_segments":[],"categories_sizes":[],"default_left":[0,0,0,0,0,0,0,0,0,0,0,0,0,0,0,0,0,0,0],"id":28,"left_children":[1,3,5,7,9,11,-1,-1,-1,-1,-1,-1,13,15,17,-1,-1,-1,-1],"loss_changes":[1.0715027E0,2.5074072E0,8.886719E-2,1.7954159E-1,2.3031209E0,1.823883E-1,0E0,0E0,0E0,0E0,0E0,0E0,6.497635E0,1.1602389E0,4.9319458E-1,0E0,0E0,0E0,0E0],"parents":[2147483647,0,0,1,1,2,2,3,3,4,4,5,5,12,12,13,13,14,14],"right_children":[2,4,6,8,10,12,-1,-1,-1,-1,-1,-1,14,16,18,-1,-1,-1,-1],"split_conditions":[9.488451E4,9.487304E4,9.495099E4,9.487268E4,9.488149E4,9.489025E4,-2.8710527E-2,-2.2975465E-2,-5.2393996E-3,5.435521E-2,-7.7501372E-3,-2.8591637E-2,9.489999E4,9.4893766E4,9.490698E4,5.426523E-2,5.2890126E-3,-1.6924297E-2,-2.6380563E-2],"split_indices":[2,2,2,2,2,2,0,0,0,0,0,0,2,2,2,0,0,0,0],"split_type":[0,0,0,0,0,0,0,0,0,0,0,0,0,0,0,0,0,0,0],"sum_hessian":[1.1165061E3,7.361635E1,1.0428898E3,6.798621E1,5.6301303E0,8.3973315E2,2.0315659E2,6.583111E1,2.155112E0,1.09212E0,4.53801E0,1.7093445E2,6.687987E2,4.320088E0,6.6447864E2,1.6291002E0,2.6909878E0,2.1133373E1,6.433453E2],"tree_param":{"num_deleted":"0","num_feature":"3","num_nodes":"19","size_leaf_vector":"1"}},{"base_weights":[-5.4921746E-1,3.6467093E-1,-5.636252E-1,5.5339897E-1,-1.3763404E-2,-2.95647E-1,-5.7207197E-1,2.4681762E-1,6.2594526E-2,-3.9994285E-1,1.4643694E-1,-4.8062697E-1,-2.8995058E-2,3.8843963E-1,-1.8795563E-2,-4.3468496E-1,-2.3823138E-1,7.087433E-1,-2.806462E-1,-5.4867816E-1,-2.7724376E-1,4.1116728E-3,3.976107E-2,-1.3598247E-2,-2.4528233E-2,1.5308491E-2,-2.4129497E-2,4.428984E-2,8.277827E-3,-6.372452E-3,-1.8446669E-2,-3.0631009E-3,-2.8920231E-2,3.7279562E-3,-1.7931214E-2],"categories":[],"categories_nodes":[],"categories_segments":[],"categories_sizes":[],"default_left":[0,0,0,0,0,0,0,0,0,0,0,0,0,0,0,0,0,0,0,0,0,0,0,0,0,0,0,0,0,0,0,0,0,0,0],"id":29,"left_children":[1,3,5,7,-1,9,11,13,-1,15,17,19,-1,21,-1,23,25,27,29,31,33,-1,-1,-1,-1,-1,-1,-1,-1,-1,-1,-1,-1,-1,-1],"loss_changes":[1.4766815E1,2.2986424E0,2.296112E0,2.7010317E0,0E0,1.6884594E0,4.7644043E-1,1.1173698E0,0E0,5.8642387E-2,1.9951793E0,1.0800228E0,0E0,1.113572E0,0E0,7.164192E-2,1.1212921E0,1.9114828E-1,2.0165056E-2,9.162674E-1,7.236098E-1,0E0,0E0,0E0,0E0,0E0,0E0,0E0,0E0,0E0,0E0,0E0,0E0,0E0,0E0],"parents":[2147483647,0,0,1,1,2,2,3,3,5,5,6,6,7,7,9,9,10,10,11,11,13,13,15,15,16,16,17,17,18,18,19,19,20,20],"right_children":[2,4,6,8,-1,10,12,14,-1,16,18,20,-1,22,-1,24,26,28,30,32,34,-1,-1,-1,-1,-1,-1,-1,-1,-1,-1,-1,-1,-1,-1],"split_conditions":[-9.753399E-1,9.4957164E4,-9.3300945E-1,9.492992E4,-1.3763404E-2,9.4938914E4,-7.876082E-1,9.492626E4,6.2594526E-2,9.492992E4,9.495678E4,9.49288E4,-2.8995058E-2,9.488799E4,-1.8795563E-2,9.4926266E4,-9.500076E-1,-9.471264E-1,-9.7019005E-1,9.490584E4,-8.96489E-1,4.1116728E-3,3.976107E-2,-1.3598247E-2,-2.4528233E-2,1.5308491E-2,-2.4129497E-2,4.428984E-2,8.277827E-3,-6.372452E-3,-1.8446669E-2,-3.0631009E-3,-2.8920231E-2,3.7279562E-3,-1.7931214E-2],"split_indices":[1,2,1,2,0,2,1,2,0,2,2,2,0,2,0,2,1,1,1,2,1,0,0,0,0,0,0,0,0,0,0,0,0,0,0],"split_type":[0,0,0,0,0,0,0,0,0,0,0,0,0,0,0,0,0,0,0,0,0,0,0,0,0,0,0,0,0,0,0,0,0,0,0],"sum_hessian":[1.104887E3,1.6771221E1,1.0881157E3,1.3056026E1,3.715195E0,3.434983E1,1.053766E3,1.0014032E1,3.0419934E0,2.787008E1,6.4797487E0,8.8024414E1,9.657415E2,8.465113E0,1.5489197E0,2.155185E1,6.3182316E0,2.5123892E0,3.9673595E0,6.468374E1,2.3340673E1,5.515477E0,2.9496357E0,7.0089555E0,1.4542894E1,1.8790293E0,4.4392023E0,1.4190909E0,1.0932983E0,2.3438506E0,1.6235088E0,3.8940995E0,6.078964E1,4.4006705E0,1.8940002E1],"tree_param":{"num_deleted":"0","num_feature":"3","num_nodes":"35","size_leaf_vector":"1"}},{"base_weights":[6.3756907E-1,6.537885E-1,1.9263454E-1,1.7145804E-1,6.6249067E-1,1.18945636E-1,1.9791374E-2,1.0074009E-1,1.6667772E-2,6.651269E-1,2.283953E-2,1.9883034E-1,-1.0110562E-2,1.1776194E-2,1.9537082E-2,2.499828E-2,3.3396434E-2,1.362735E-1,1.4463638E-2,-2.2200933E-3,3.9603277E-3,1.1628401E-2,-2.717313E-3],"categories":[],"categories_nodes":[],"categories_segments":[],"categories_sizes":[],"default_left":[0,0,0,0,0,0,0,0,0,0,0,0,0,0,0,0,0,0,0,0,0,0,0],"id":30,"left_children":[1,3,5,7,9,11,-1,13,-1,15,-1,17,-1,-1,19,-1,-1,21,-1,-1,-1,-1,-1],"loss_changes":[1.2786499E1,7.130554E0,9.164159E-1,3.320552E-1,6.1535645E-1,1.2884152E0,0E0,2.543557E-1,0E0,4.3951416E-1,0E0,1.8386793E-1,0E0,0E0,6.400806E-2,0E0,0E0,4.7556794E-1,0E0,0E0,0E0,0E0,0E0],"parents":[2147483647,0,0,1,1,2,2,3,3,4,4,5,5,7,7,9,9,11,11,14,14,17,17],"right_children":[2,4,6,8,10,12,-1,14,-1,16,-1,18,-1,-1,20,-1,-1,22,-1,-1,-1,-1,-1],"split_conditions":[9.849148E-1,-9.7019005E-1,9.984398E-1,-9.753399E-1,9.570868E-1,9.966595E-1,1.9791374E-2,-9.9271685E-1,1.6667772E-2,-9.500076E-1,2.283953E-2,9.954911E-1,-1.0110562E-2,1.1776194E-2,-9.873868E-1,2.499828E-2,3.3396434E-2,9.93498E-1,1.4463638E-2,-2.2200933E-3,3.9603277E-3,1.1628401E-2,-2.717313E-3],"split_indices":[1,1,1,1,1,1,0,1,0,1,0,1,0,0,1,0,0,1,0,0,0,0,0],"split_type":[0,0,0,0,0,0,0,0,0,0,0,0,0,0,0,0,0,0,0,0,0,0,0],"sum_hessian":[1.788266E3,1.7249172E3,6.334875E1,3.0936062E1,1.6939812E3,4.7652664E1,1.5696087E1,2.2660181E1,8.275883E0,1.6703407E3,2.364048E1,3.8465607E1,9.187058E0,7.804893E0,1.4855288E1,3.085563E1,1.639485E3,2.4219976E1,1.424563E1,7.2946057E0,7.560682E0,1.5945034E1,8.274941E0],"tree_param":{"num_deleted":"0","num_feature":"3","num_nodes":"23","size_leaf_vector":"1"}},{"base_weights":[-5.167194E-1,-5.554909E-1,9.133655E-2,-2.842928E-2,-5.1422626E-1,6.27025E-1,-2.3279889E-1,-3.3242542E-1,-2.5984446E-2,8.9881524E-2,9.633786E-1,4.066671E-2,-3.2789245E-1,-1.5170076E-1,-2.3718916E-2,7.1912444E-1,-3.7423313E-1,1.9771339E-1,1.1724435E0,-2.0407382E-1,6.5582764E-1,-4.2613053E-1,1.5993653E-1,-2.227785E-2,1.7620418E-2,1.6162375E-2,5.517769E-2,-9.936376E-3,-2.3003377E-2,1.663448E-4,1.5520205E-2,6.924198E-2,2.283462E-2,-1.6830157E-2,2.2582829E-3,5.3964585E-2,1.1346446E-3,-2.4593579E-2,-1.5926009E-2,2.0505762E-2,-1.8090857E-2],"categories":[],"categories_nodes":[],"categories_segments":[],"categories_sizes":[],"default_left":[0,0,0,0,0,0,0,0,0,0,0,0,0,0,0,0,0,0,0,0,0,0,0,0,0,0,0,0,0,0,0,0,0,0,0,0,0,0,0,0,0],"id":31,"left_children":[1,3,5,-1,7,9,11,13,-1,15,17,19,21,23,-1,25,27,29,31,33,35,37,39,-1,-1,-1,-1,-1,-1,-1,-1,-1,-1,-1,-1,-1,-1,-1,-1,-1,-1],"loss_changes":[2.5527466E1,2.566223E-1,1.1542439E1,0E0,8.0696106E-2,4.4326077E0,1.0956774E0,1.902225E-1,0E0,3.4041047E0,2.2139235E0,1.8845553E0,1.5534155E0,1.0408101E0,0E0,3.8884544E-1,1.1548102E-2,9.710215E-2,1.1612511E0,3.151787E-1,9.264791E-1,2.7760983E-2,9.214125E-1,0E0,0E0,0E0,0E0,0E0,0E0,0E0,0E0,0E0,0E0,0E0,0E0,0E0,0E0,0E0,0E0,0E0,0E0],"parents":[2147483647,0,0,1,1,2,2,4,4,5,5,6,6,7,7,9,9,10,10,11,11,12,12,13,13,15,15,16,16,17,17,18,18,19,19,20,20,21,21,22,22],"right_children":[2,4,6,-1,8,10,12,14,-1,16,18,20,22,24,-1,26,28,30,32,34,36,38,40,-1,-1,-1,-1,-1,-1,-1,-1,-1,-1,-1,-1,-1,-1,-1,-1,-1,-1],"split_conditions":[9.480968E-1,5.780774E-1,9.492527E4,-2.842928E-2,5.908711E-1,9.489025E4,9.493423E4,9.4924E4,-2.5984446E-2,9.488149E4,9.849148E-1,9.966595E-1,9.494043E4,9.489025E4,-2.3718916E-2,9.849148E-1,9.570868E-1,9.491669E4,9.491821E4,9.492802E4,9.493242E4,9.493594E4,9.495234E4,-2.227785E-2,1.7620418E-2,1.6162375E-2,5.517769E-2,-9.936376E-3,-2.3003377E-2,1.663448E-4,1.5520205E-2,6.924198E-2,2.283462E-2,-1.6830157E-2,2.2582829E-3,5.3964585E-2,1.1346446E-3,-2.4593579E-2,-1.5926009E-2,2.0505762E-2,-1.8090857E-2],"split_indices":[1,1,2,0,1,2,2,2,0,2,1,1,2,2,0,1,1,2,2,2,2,2,2,0,0,0,0,0,0,0,0,0,0,0,0,0,0,0,0,0,0],"split_type":[0,0,0,0,0,0,0,0,0,0,0,0,0,0,0,0,0,0,0,0,0,0,0,0,0,0,0,0,0,0,0,0,0,0,0,0,0,0,0,0,0],"sum_hessian":[1.0796558E3,1.01502136E3,6.463439E1,7.6081146E2,2.5420992E2,2.401353E1,4.0620865E1,9.219933E0,2.4498997E2,9.734746E0,1.4278785E1,1.0628442E1,2.9992422E1,4.966103E0,4.2538295E0,3.899025E0,5.835721E0,3.4799078E0,1.0798877E1,8.081495E0,2.546947E0,2.507029E1,4.922132E0,3.2106779E0,1.755425E0,2.8278337E0,1.0711913E0,3.005539E0,2.830182E0,1.6548634E0,1.8250444E0,7.60679E0,3.192087E0,5.047201E0,3.0342941E0,1.1039231E0,1.4430239E0,1.3346082E1,1.1724208E1,3.4715202E0,1.4506121E0],"tree_param":{"num_deleted":"0","num_feature":"3","num_nodes":"41","size_leaf_vector":"1"}},{"base_weights":[-5.4029757E-1,2.7562404E-1,-5.557911E-1,4.7979215E-1,-1.6707197E-2,-4.1690546E-1,-2.8614406E-2,1.7067322E-1,5.832606E-2,-4.915807E-1,-2.3670787E-1,3.3053225E-1,-2.0562572E-2,-9.299032E-2,-5.2346474E-1,9.34628E-2,-2.8379834E-1,-1.5033315E-3,3.5202764E-2,-2.0077048E-2,5.6248857E-3,-1.2371163E-2,-2.7991941E-2,-1.0466724E-2,3.2747444E-2,-1.6080353E-2,2.779755E-3],"categories":[],"categories_nodes":[],"categories_segments":[],"categories_sizes":[],"default_left":[0,0,0,0,0,0,0,0,0,0,0,0,0,0,0,0,0,0,0,0,0,0,0,0,0,0,0],"id":32,"left_children":[1,3,5,7,-1,9,-1,11,-1,13,15,17,-1,19,21,23,25,-1,-1,-1,-1,-1,-1,-1,-1,-1,-1],"loss_changes":[1.3768036E1,2.7421563E0,2.1837769E0,3.1861367E0,0E0,1.4436569E0,0E0,1.2678959E0,0E0,9.811878E-1,5.8462715E-1,1.381603E0,0E0,5.0282925E-1,6.1271477E-1,1.0267707E0,4.2417836E-1,0E0,0E0,0E0,0E0,0E0,0E0,0E0,0E0,0E0,0E0],"parents":[2147483647,0,0,1,1,2,2,3,3,5,5,7,7,9,9,10,10,11,11,13,13,14,14,15,15,16,16],"right_children":[2,4,6,8,-1,10,-1,12,-1,14,16,18,-1,20,22,24,26,-1,-1,-1,-1,-1,-1,-1,-1,-1,-1],"split_conditions":[-9.7019005E-1,9.4957164E4,-7.876082E-1,9.4931E4,-1.6707197E-2,9.49288E4,-2.8614406E-2,9.49288E4,5.832606E-2,9.490584E4,-9.500076E-1,9.488799E4,-2.0562572E-2,-8.973588E-1,-9.533544E-1,-9.533544E-1,9.495726E4,-1.5033315E-3,3.5202764E-2,-2.0077048E-2,5.6248857E-3,-1.2371163E-2,-2.7991941E-2,-1.0466724E-2,3.2747444E-2,-1.6080353E-2,2.779755E-3],"split_indices":[1,2,1,2,0,2,0,2,0,2,1,2,0,1,1,1,2,0,0,0,0,0,0,0,0,0,0],"split_type":[0,0,0,0,0,0,0,0,0,0,0,0,0,0,0,0,0,0,0,0,0,0,0,0,0,0,0],"sum_hessian":[1.0759948E3,1.973845E1,1.0562563E3,1.4946935E1,4.7915134E0,1.14932106E2,9.413243E2,1.1168267E1,3.7786677E0,8.003641E1,3.4895695E1,9.100338E0,2.0679288E0,6.2181673E0,7.3818245E1,4.232832E0,3.0662863E1,5.098121E0,4.0022173E0,2.104328E0,4.113839E0,9.502943E0,6.43153E1,3.15733E0,1.0755019E0,2.7636538E1,3.0263255E0],"tree_param":{"num_deleted":"0","num_feature":"3","num_nodes":"27","size_leaf_vector":"1"}},{"base_weights":[6.233383E-1,6.403612E-1,1.5457195E-1,1.6358593E-3,6.463352E-1,-3.7651053E-1,3.9780185E-1,-1.1490297E-1,2.590391E-2,4.858477E-1,6.516584E-1,1.7793597E-1,-5.939144E-1,1.2508495E-1,4.8879397E-1,2.2337759E-1,-3.797248E-1,5.239249E-1,2.531678E-1,3.2775026E-2,4.3188706E-1,1.3191511E-2,2.4024684E-3,-6.6815656E-1,-2.0413896E-1,4.1059035E-1,-4.0012172E-1,3.185558E-2,2.0521407E-1,-1.982764E-2,2.2416964E-2,-9.445175E-3,-3.876437E-2,9.739529E-3,2.7455261E-2,-9.783459E-3,2.3791183E-2,9.443493E-3,3.0450715E-2,7.3000125E-4,-3.7885945E-2,-1.9901106E-2,3.5420388E-3,2.3530835E-2,3.5073103E-3,-4.278351E-2,9.5195975E-3,1.6052276E-2,-2.1988234E-2],"categories":[],"categories_nodes":[],"categories_segments":[],"categories_sizes":[],"default_left":[0,0,0,0,0,0,0,0,0,0,0,0,0,0,0,0,0,0,0,0,0,0,0,0,0,0,0,0,0,0,0,0,0,0,0,0,0,0,0,0,0,0,0,0,0,0,0,0,0],"id":33,"left_children":[1,3,5,7,9,11,13,15,-1,17,19,21,23,25,27,29,31,33,35,-1,37,-1,-1,39,41,43,45,-1,47,-1,-1,-1,-1,-1,-1,-1,-1,-1,-1,-1,-1,-1,-1,-1,-1,-1,-1,-1,-1],"loss_changes":[1.3760925E1,6.3930054E0,8.1820755E0,1.0544018E0,1.1016846E0,2.5220501E0,1.0092583E0,1.3663392E0,0E0,3.7439442E-1,1.071228E0,5.8901727E-2,2.8697968E-1,1.9839764E0,1.2151585E0,1.1416048E0,4.8715234E-1,2.9288292E-1,1.0907905E0,0E0,1.1974154E0,0E0,0E0,7.356658E-1,2.2976598E-1,1.3773263E-1,1.4488018E0,0E0,1.072365E0,0E0,0E0,0E0,0E0,0E0,0E0,0E0,0E0,0E0,0E0,0E0,0E0,0E0,0E0,0E0,0E0,0E0,0E0,0E0,0E0],"parents":[2147483647,0,0,1,1,2,2,3,3,4,4,5,5,6,6,7,7,9,9,10,10,11,11,12,12,13,13,14,14,15,15,16,16,17,17,18,18,20,20,23,23,24,24,25,25,26,26,28,28],"right_children":[2,4,6,8,10,12,14,16,-1,18,20,22,24,26,28,30,32,34,36,-1,38,-1,-1,40,42,44,46,-1,48,-1,-1,-1,-1,-1,-1,-1,-1,-1,-1,-1,-1,-1,-1,-1,-1,-1,-1,-1,-1],"split_conditions":[9.849148E-1,-9.873868E-1,9.492409E4,9.495716E4,-9.452765E-1,9.488151E4,9.493423E4,9.488799E4,2.590391E-2,9.493542E4,9.480968E-1,9.93498E-1,9.491821E4,9.492802E4,9.493594E4,9.488557E4,9.4946664E4,-9.753399E-1,9.495678E4,3.2775026E-2,9.491864E4,1.3191511E-2,2.4024684E-3,9.880546E-1,9.93498E-1,9.966595E-1,9.493242E4,3.185558E-2,9.9901414E-1,-1.982764E-2,2.2416964E-2,-9.445175E-3,-3.876437E-2,9.739529E-3,2.7455261E-2,-9.783459E-3,2.3791183E-2,9.443493E-3,3.0450715E-2,7.3000125E-4,-3.7885945E-2,-1.9901106E-2,3.5420388E-3,2.3530835E-2,3.5073103E-3,-4.278351E-2,9.5195975E-3,1.6052276E-2,-2.1988234E-2],"split_indices":[1,1,2,2,1,2,2,2,0,2,1,1,2,2,2,2,2,1,2,0,2,0,0,1,1,1,2,0,1,0,0,0,0,0,0,0,0,0,0,0,0,0,0,0,0,0,0,0,0],"split_type":[0,0,0,0,0,0,0,0,0,0,0,0,0,0,0,0,0,0,0,0,0,0,0,0,0,0,0,0,0,0,0,0,0,0,0,0,0,0,0,0,0,0,0,0,0,0,0,0,0],"sum_hessian":[1.735879E3,1.6746975E3,6.1181458E1,1.5530088E1,1.6591675E3,1.9046421E1,4.2135036E1,1.330519E1,2.2248988E0,5.622866E1,1.6029388E3,5.415859E0,1.3630562E1,1.1135367E1,3.099967E1,5.911018E0,7.394172E0,4.7245422E1,8.983236E0,1.5734489E3,2.9489962E1,2.6392703E0,2.7765887E0,1.0849752E1,2.7808087E0,7.3552446E0,3.7801225E0,1.953554E1,1.1464131E1,1.3707805E0,4.5402374E0,5.984687E0,1.4094858E0,3.9784584E0,4.3266964E1,3.0188804E0,5.9643555E0,1.3303691E1,1.618627E1,1.3552573E0,9.494495E0,1.3684677E0,1.4123411E0,5.927721E0,1.4275239E0,1.8804404E0,1.899682E0,1.0144521E1,1.3196114E0],"tree_param":{"num_deleted":"0","num_feature":"3","num_nodes":"49","size_leaf_vector":"1"}},{"base_weights":[-5.0729364E-1,-5.495315E-1,1.286253E-1,-5.6118155E-1,-5.135749E-1,6.4850426E-1,-1.7240186E-1,-4.2847815E-1,-2.8240955E-2,-2.8868574E-1,-2.5818957E-2,1.892016E-1,1.0830648E0,-2.7727565E-1,6.0250588E-2,-1.6386567E-1,-4.9406967E-1,6.7152376E-3,-2.2167442E-2,7.3726165E-1,-1.8866685E-1,4.736384E-1,5.8876604E-2,6.2407384E-4,-2.9450157E-1,5.6233656E-1,-2.2858042E-1,-2.0956157E-2,6.889317E-3,-2.7120922E-2,-8.410554E-3,2.0726467E-2,5.351782E-2,-1.8372273E-2,1.6627135E-2,3.180651E-2,5.3972783E-3,-2.1351052E-2,-1.0663917E-2,6.229544E-4,3.8130514E-2,-2.0548452E-2,2.9159779E-2],"categories":[],"categories_nodes":[],"categories_segments":[],"categories_sizes":[],"default_left":[0,0,0,0,0,0,0,0,0,0,0,0,0,0,0,0,0,0,0,0,0,0,0,0,0,0,0,0,0,0,0,0,0,0,0,0,0,0,0,0,0,0,0],"id":34,"left_children":[1,3,5,7,9,11,13,15,-1,17,-1,19,21,23,25,27,29,-1,-1,31,33,35,-1,-1,37,39,41,-1,-1,-1,-1,-1,-1,-1,-1,-1,-1,-1,-1,-1,-1,-1,-1],"loss_changes":[2.8290985E1,1.2454224E-1,1.0479502E1,1.12075806E-1,1.0429382E-2,4.6858187E0,1.0596455E0,3.3058548E-1,0E0,4.116982E-1,0E0,2.8570485E0,1.549511E-1,1.5162921E-1,2.173713E0,5.356293E-1,2.0030832E-1,0E0,0E0,1.539762E-1,9.202409E-1,1.294604E-1,0E0,0E0,2.1051645E-1,5.894929E-1,1.6704738E0,0E0,0E0,0E0,0E0,0E0,0E0,0E0,0E0,0E0,0E0,0E0,0E0,0E0,0E0,0E0,0E0],"parents":[2147483647,0,0,1,1,2,2,3,3,4,4,5,5,6,6,7,7,9,9,11,11,12,12,13,13,14,14,15,15,16,16,19,19,20,20,21,21,24,24,25,25,26,26],"right_children":[2,4,6,8,10,12,14,16,-1,18,-1,20,22,24,26,28,30,-1,-1,32,34,36,-1,-1,38,40,42,-1,-1,-1,-1,-1,-1,-1,-1,-1,-1,-1,-1,-1,-1,-1,-1],"split_conditions":[9.480968E-1,5.780774E-1,9.491943E4,9.4863055E4,5.831702E-1,9.489025E4,9.966595E-1,-5.988601E-1,-2.8240955E-2,9.491199E4,-2.5818957E-2,9.488149E4,9.849148E-1,9.570868E-1,9.984398E-1,-7.12604E-1,3.3942866E-1,6.7152376E-3,-2.2167442E-2,9.849148E-1,9.93498E-1,9.491698E4,5.8876604E-2,6.2407384E-4,9.849148E-1,9.492527E4,9.493594E4,-2.0956157E-2,6.889317E-3,-2.7120922E-2,-8.410554E-3,2.0726467E-2,5.351782E-2,-1.8372273E-2,1.6627135E-2,3.180651E-2,5.3972783E-3,-2.1351052E-2,-1.0663917E-2,6.229544E-4,3.8130514E-2,-2.0548452E-2,2.9159779E-2],"split_indices":[1,1,2,2,1,2,1,1,0,2,0,2,1,1,1,1,1,0,0,1,1,2,0,0,1,2,2,0,0,0,0,0,0,0,0,0,0,0,0,0,0,0,0],"split_type":[0,0,0,0,0,0,0,0,0,0,0,0,0,0,0,0,0,0,0,0,0,0,0,0,0,0,0,0,0,0,0,0,0,0,0,0,0,0,0,0,0,0,0],"sum_hessian":[1.0496498E3,9.844015E2,6.524825E1,7.324713E2,2.519302E2,2.350332E1,4.174493E1,2.271163E1,7.0975964E2,4.3828926E0,2.4754732E2,1.2124204E1,1.1379118E1,2.8642035E1,1.3102898E1,5.2063184E0,1.7505312E1,1.2087352E0,3.1741574E0,4.559705E0,7.5644984E0,2.3342447E0,9.044873E0,1.6226631E0,2.7019371E1,4.439173E0,8.663725E0,2.609087E0,2.5972311E0,1.4664853E1,2.8404584E0,3.4558465E0,1.1038584E0,5.8521748E0,1.712324E0,1.1041201E0,1.2301246E0,8.649665E0,1.8369705E1,1.4687469E0,2.9704263E0,7.4774446E0,1.1862803E0],"tree_param":{"num_deleted":"0","num_feature":"3","num_nodes":"43","size_leaf_vector":"1"}},{"base_weights":[-5.433195E-1,6.995744E-2,-5.5741423E-1,1.9534756E-1,-6.7886196E-2,-4.3913087E-1,-2.860787E-2,2.9299678E-3,1.4772777E-2,-4.997778E-3,-1.0141289E-3,-4.509022E-1,-6.6906996E-3,-1.890857E-2,-2.3692232E-2],"categories":[],"categories_nodes":[],"categories_segments":[],"categories_sizes":[],"default_left":[0,0,0,0,0,0,0,0,0,0,0,0,0,0,0],"id":35,"left_children":[1,3,5,7,9,11,-1,-1,-1,-1,-1,13,-1,-1,-1],"loss_changes":[8.946259E0,4.2876068E-1,1.5056152E0,1.5854481E-1,1.6586803E-2,3.5639763E-1,0E0,0E0,0E0,0E0,0E0,6.3991547E-3,0E0,0E0,0E0],"parents":[2147483647,0,0,1,1,2,2,3,3,4,4,5,5,11,11],"right_children":[2,4,6,8,10,12,-1,-1,-1,-1,-1,14,-1,-1,-1],"split_conditions":[-9.7019005E-1,-9.873868E-1,-7.876082E-1,-9.9271685E-1,-9.753399E-1,-8.007864E-1,-2.860787E-2,2.9299678E-3,1.4772777E-2,-4.997778E-3,-1.0141289E-3,-9.3300945E-1,-6.6906996E-3,-1.890857E-2,-2.3692232E-2],"split_indices":[1,1,1,1,1,1,0,0,0,0,0,1,0,0,0],"split_type":[0,0,0,0,0,0,0,0,0,0,0,0,0,0,0],"sum_hessian":[1.0294663E3,2.303921E1,1.00642706E3,1.1846142E1,1.1193068E1,1.1495288E2,8.914742E2,5.6768646E0,6.169277E0,6.030633E0,5.162435E0,1.10226326E2,4.7265487E0,3.0624771E1,7.9601555E1],"tree_param":{"num_deleted":"0","num_feature":"3","num_nodes":"15","size_leaf_vector":"1"}},{"base_weights":[6.14878E-1,5.230522E-1,6.2076044E-1,2.7327841E-2,6.1246227E-3,3.3064675E-2,6.122496E-1,-1.4240646E-1,6.1641186E-1,-2.952447E-2,4.9304124E-2,4.314387E-1,3.1014627E-2,9.397827E-3,-1.01222005E-2,2.4225784E-2,-1.1167604E-2],"categories":[],"categories_nodes":[],"categories_segments":[],"categories_sizes":[],"default_left":[0,0,0,0,0,0,0,0,0,0,0,0,0,0,0,0,0],"id":36,"left_children":[1,3,5,-1,-1,-1,7,9,11,-1,13,15,-1,-1,-1,-1,-1],"loss_changes":[5.9020996E-1,9.528351E-1,1.4227295E-1,0E0,0E0,0E0,4.248108E0,7.229767E-1,6.7807007E-1,0E0,2.6772732E-1,1.1632113E0,0E0,0E0,0E0,0E0,0E0],"parents":[2147483647,0,0,1,1,2,2,6,6,7,7,8,8,10,10,11,11],"right_children":[2,4,6,-1,-1,-1,8,10,12,-1,14,16,-1,-1,-1,-1,-1],"split_conditions":[9.488451E4,9.487304E4,9.489025E4,2.7327841E-2,6.1246227E-3,3.3064675E-2,9.489999E4,9.489327E4,9.490705E4,-2.952447E-2,9.489377E4,9.490654E4,3.1014627E-2,9.397827E-3,-1.01222005E-2,2.4225784E-2,-1.1167604E-2],"split_indices":[2,2,2,0,0,0,2,2,2,0,2,2,0,0,0,0,0],"split_type":[0,0,0,0,0,0,0,0,0,0,0,0,0,0,0,0,0],"sum_hessian":[1.6925978E3,1.0731447E2,1.5852832E3,1.0102207E2,6.292399E0,2.6179086E2,1.3234924E3,7.077356E0,1.316415E3,1.4973975E0,5.5799584E0,2.9355776E1,1.2870593E3,3.7616127E0,1.8183455E0,2.7395184E1,1.9605922E0],"tree_param":{"num_deleted":"0","num_feature":"3","num_nodes":"17","size_leaf_vector":"1"}},{"base_weights":[-5.061833E-1,-5.433739E-1,8.902029E-2,-2.7896477E-2,-4.9960047E-1,-1.2827723E-1,1.7977796E-1,-1.3770129E-2,-2.52759E-2,7.8509393E-4,-1.6047178E-1,2.5067377E-1,-1.0557868E-1,-2.244206E-1,-1.8023839E-3,1.0663973E-1,3.442222E-2,-1.3185921E-2,2.3674078E-3,-6.484588E-3,-1.405434E-2,8.397917E-3,3.552514E-6],"categories":[],"categories_nodes":[],"categories_segments":[],"categories_sizes":[],"default_left":[0,0,0,0,0,0,0,0,0,0,0,0,0,0,0,0,0,0,0,0,0,0,0],"id":37,"left_children":[1,3,5,-1,7,9,11,-1,-1,-1,13,15,17,19,-1,21,-1,-1,-1,-1,-1,-1,-1],"loss_changes":[2.2266876E1,3.232422E-1,1.2041326E0,0E0,1.862793E-1,8.7010086E-2,8.8950896E-1,0E0,0E0,0E0,1.11147285E-1,2.0998688E0,2.3481396E-1,1.5651375E-2,0E0,1.7719167E-1,0E0,0E0,0E0,0E0,0E0,0E0,0E0],"parents":[2147483647,0,0,1,1,2,2,4,4,5,5,6,6,10,10,11,11,12,12,13,13,15,15],"right_children":[2,4,6,-1,8,10,12,-1,-1,-1,14,16,18,20,-1,22,-1,-1,-1,-1,-1,-1,-1],"split_conditions":[9.480968E-1,5.780774E-1,9.849148E-1,-2.7896477E-2,5.908711E-1,9.570868E-1,9.984398E-1,-1.3770129E-2,-2.52759E-2,7.8509393E-4,9.7521865E-1,9.966595E-1,9.9901414E-1,9.6739554E-1,-1.8023839E-3,9.954911E-1,3.442222E-2,-1.3185921E-2,2.3674078E-3,-6.484588E-3,-1.405434E-2,8.397917E-3,3.552514E-6],"split_indices":[1,1,1,0,1,1,1,0,0,0,1,1,1,1,0,1,0,0,0,0,0,0,0],"split_type":[0,0,0,0,0,0,0,0,0,0,0,0,0,0,0,0,0,0,0,0,0,0,0],"sum_hessian":[1.00273065E3,9.438429E2,5.888774E1,6.994983E2,2.4434464E2,1.7227417E1,4.1660324E1,7.505954E0,2.3683868E2,3.2418115E0,1.3985606E1,3.3467094E1,8.193232E0,8.70693E0,5.278675E0,2.6117565E1,7.349529E0,3.671797E0,4.5214343E0,4.4898868E0,4.217044E0,1.6212809E1,9.904755E0],"tree_param":{"num_deleted":"0","num_feature":"3","num_nodes":"23","size_leaf_vector":"1"}},{"base_weights":[-5.3420824E-1,2.3475249E-1,-5.51761E-1,3.7360248E-1,-1.919836E-1,-4.3780494E-1,-2.8288672E-2,1.1872143E-1,1.1416097E0,-1.8705707E-2,-5.346369E-2,-4.596937E-1,4.8701204E-2,2.3968214E-1,-2.040393E-2,2.1836722E-2,6.724785E-2,-3.992632E-3,-1.7597899E-4,-2.4142647E-1,-4.859615E-1,1.6865058E-2,-1.7224619E-1,-2.7017875E-3,3.2575022E-2,-3.253608E-4,-1.6158579E-2,-2.6916012E-2,-1.7117245E-2,-1.8028669E-2,6.5115006E-3],"categories":[],"categories_nodes":[],"categories_segments":[],"categories_sizes":[],"default_left":[0,0,0,0,0,0,0,0,0,0,0,0,0,0,0,0,0,0,0,0,0,0,0,0,0,0,0,0,0,0,0],"id":38,"left_children":[1,3,5,7,9,11,-1,13,15,-1,17,19,21,23,-1,-1,-1,-1,-1,25,27,-1,29,-1,-1,-1,-1,-1,-1,-1,-1],"loss_changes":[1.3506287E1,1.4238211E0,1.3000183E0,3.301189E0,1.379967E-1,1.1996746E0,0E0,1.008907E0,2.3025036E-2,0E0,5.944968E-3,4.8978233E-1,4.1926926E-1,1.5179139E0,0E0,0E0,0E0,0E0,0E0,2.5449145E-1,5.189972E-1,0E0,2.6740977E-1,0E0,0E0,0E0,0E0,0E0,0E0,0E0,0E0],"parents":[2147483647,0,0,1,1,2,2,3,3,4,4,5,5,7,7,8,8,10,10,11,11,12,12,13,13,19,19,20,20,22,22],"right_children":[2,4,6,8,10,12,-1,14,16,-1,18,20,22,24,-1,-1,-1,-1,-1,26,28,-1,30,-1,-1,-1,-1,-1,-1,-1,-1],"split_conditions":[-9.7019005E-1,9.4957164E4,-7.876082E-1,9.4931E4,-9.873868E-1,9.4951195E4,-2.8288672E-2,9.49288E4,9.4946664E4,-1.8705707E-2,-9.753399E-1,-9.533544E-1,-8.727114E-1,9.4907055E4,-2.040393E-2,2.1836722E-2,6.724785E-2,-3.992632E-3,-1.7597899E-4,9.491346E4,9.49288E4,1.6865058E-2,-8.1396693E-1,-2.7017875E-3,3.2575022E-2,-3.253608E-4,-1.6158579E-2,-2.6916012E-2,-1.7117245E-2,-1.8028669E-2,6.5115006E-3],"split_indices":[1,2,1,2,1,2,0,2,2,0,1,1,1,2,0,0,0,0,0,2,2,0,1,0,0,0,0,0,0,0,0],"split_type":[0,0,0,0,0,0,0,0,0,0,0,0,0,0,0,0,0,0,0,0,0,0,0,0,0,0,0,0,0,0,0],"sum_hessian":[9.9006793E2,2.1819288E1,9.6824866E2,1.655665E1,5.262637E0,1.0955345E2,8.586952E2,1.3297988E1,3.258663E0,1.538703E0,3.7239342E0,1.04889404E2,4.6640487E0,1.1258012E1,2.0399756E0,1.4343646E0,1.8242984E0,2.044724E0,1.67921E0,1.236185E1,9.252755E1,1.7940543E0,2.8699946E0,7.0783587E0,4.1796536E0,3.469836E0,8.892014E0,6.57929E1,2.6734652E1,1.6503713E0,1.2196232E0],"tree_param":{"num_deleted":"0","num_feature":"3","num_nodes":"31","size_leaf_vector":"1"}},{"base_weights":[6.0351187E-1,6.1882794E-1,1.9944425E-1,5.0090462E-2,6.2705547E-1,-3.070386E-1,4.0777257E-1,4.1004026E-1,-1.2828359E-1,6.302343E-1,4.4237605E-1,2.2221082E-1,-5.673871E-1,4.6379206E-1,-1.5014032E-3,8.56056E-4,2.4335207E-2,-4.64137E-1,2.2996902E-2,5.0827163E-1,6.338516E-1,2.5057602E-1,5.4561687E-1,1.5165179E-2,3.8830244E-3,-6.6293514E-1,-4.248684E-3,1.6961761E-1,2.7513927E-2,-2.0627635E-2,1.930285E-1,-1.167473E-2,-4.6319768E-2,2.718469E-2,1.4181648E-2,2.7362246E-2,3.183722E-2,1.6997559E-2,-3.715266E-3,6.67554E-3,2.93933E-2,-1.9881483E-2,-4.035367E-2,2.433541E-2,-3.2056857E-2,1.3123229E-2,9.3847426E-5],"categories":[],"categories_nodes":[],"categories_segments":[],"categories_sizes":[],"default_left":[0,0,0,0,0,0,0,0,0,0,0,0,0,0,0,0,0,0,0,0,0,0,0,0,0,0,0,0,0,0,0,0,0,0,0,0,0,0,0,0,0,0,0,0,0,0,0],"id":39,"left_children":[1,3,5,7,9,11,13,15,17,19,21,23,25,27,29,-1,-1,31,-1,33,35,37,39,-1,-1,41,-1,43,-1,-1,45,-1,-1,-1,-1,-1,-1,-1,-1,-1,-1,-1,-1,-1,-1,-1,-1],"loss_changes":[1.0079224E1,7.398987E0,6.6336536E0,1.5762333E0,6.4001465E-1,2.6817465E0,1.0125995E0,2.3570359E-1,3.4986491E0,3.5565186E-1,4.541564E-1,5.655521E-2,5.2967834E-1,8.944464E-1,5.842315E-1,0E0,0E0,9.6531963E-1,0E0,2.3809052E-1,2.4353027E-2,3.8214052E-1,2.4447203E-1,0E0,0E0,7.926035E-2,0E0,2.9514122E0,0E0,0E0,6.540193E-2,0E0,0E0,0E0,0E0,0E0,0E0,0E0,0E0,0E0,0E0,0E0,0E0,0E0,0E0,0E0,0E0],"parents":[2147483647,0,0,1,1,2,2,3,3,4,4,5,5,6,6,7,7,8,8,9,9,10,10,11,11,12,12,13,13,14,14,17,17,19,19,20,20,21,21,22,22,25,25,27,27,30,30],"right_children":[2,4,6,8,10,12,14,16,18,20,22,24,26,28,30,-1,-1,32,-1,34,36,38,40,-1,-1,42,-1,44,-1,-1,46,-1,-1,-1,-1,-1,-1,-1,-1,-1,-1,-1,-1,-1,-1,-1,-1],"split_conditions":[9.849148E-1,-9.753399E-1,9.492527E4,9.488799E4,9.480968E-1,9.488151E4,9.494043E4,9.488557E4,9.4957164E4,-9.452765E-1,9.491698E4,9.93498E-1,9.49194E4,9.493242E4,9.494666E4,8.56056E-4,2.4335207E-2,9.4946664E4,2.2996902E-2,9.4938914E4,9.487079E4,9.489025E4,9.570868E-1,1.5165179E-2,3.8830244E-3,9.963226E-1,-4.248684E-3,9.492802E4,2.7513927E-2,-2.0627635E-2,9.495098E4,-1.167473E-2,-4.6319768E-2,2.718469E-2,1.4181648E-2,2.7362246E-2,3.183722E-2,1.6997559E-2,-3.715266E-3,6.67554E-3,2.93933E-2,-1.9881483E-2,-4.035367E-2,2.433541E-2,-3.2056857E-2,1.3123229E-2,9.3847426E-5],"split_indices":[1,1,2,2,1,2,2,2,2,1,2,1,2,2,2,0,0,2,0,2,2,2,1,0,0,1,0,2,0,0,2,0,0,0,0,0,0,0,0,0,0,0,0,0,0,0,0],"split_type":[0,0,0,0,0,0,0,0,0,0,0,0,0,0,0,0,0,0,0,0,0,0,0,0,0,0,0,0,0,0,0,0,0,0,0,0,0,0,0,0,0,0,0,0,0,0,0],"sum_hessian":[1.6475947E3,1.5869117E3,6.0682877E1,2.2730476E1,1.5641813E3,1.7547642E1,4.3135235E1,7.1014147E0,1.5629062E1,1.5353416E3,2.8839748E1,5.8341594E0,1.1713483E1,3.7824753E1,5.3104806E0,1.359093E0,5.742322E0,1.0082988E1,5.5460744E0,4.8301308E1,1.4870403E3,1.1290828E1,1.754892E1,3.033891E0,2.8002684E0,9.46468E0,2.2488034E0,9.266601E0,2.8558151E1,1.345855E0,3.9646256E0,7.7308307E0,2.3521569E0,4.049548E1,7.805828E0,5.4210987E1,1.4328292E3,8.818472E0,2.4723558E0,2.018657E0,1.5530263E1,4.6550727E0,4.8096075E0,6.9486365E0,2.3179643E0,2.6345506E0,1.3300753E0],"tree_param":{"num_deleted":"0","num_feature":"3","num_nodes":"47","size_leaf_vector":"1"}},{"base_weights":[-5.065058E-1,-5.4098433E-1,3.9840512E-2,-2.7695278E-2,-5.004075E-1,-8.0470905E-2,2.3902418E-1,-1.37262065E-2,-2.5339125E-2,8.306998E-3,-1.1276884E-1,4.2859003E-1,-9.743807E-4,1.5956253E-3,-7.5309887E-4,-1.2890845E-2,-7.804831E-2,7.7416557E-3,2.967127E-2,-2.444544E-4,1.5331736E-4,-5.8993306E-3,-3.1504442E-3],"categories":[],"categories_nodes":[],"categories_segments":[],"categories_sizes":[],"default_left":[0,0,0,0,0,0,0,0,0,0,0,0,0,0,0,0,0,0,0,0,0,0,0],"id":40,"left_children":[1,3,5,-1,7,9,11,-1,-1,13,15,17,19,-1,-1,-1,21,-1,-1,-1,-1,-1,-1],"loss_changes":[1.8390259E1,2.0379639E-1,1.4287149E0,0E0,1.9482422E-1,1.08221814E-1,1.019527E0,0E0,0E0,6.5003745E-3,1.1839062E-1,4.7295928E-1,1.8714018E-4,0E0,0E0,0E0,6.7566037E-3,0E0,0E0,0E0,0E0,0E0,0E0],"parents":[2147483647,0,0,1,1,2,2,4,4,5,5,6,6,9,9,10,10,11,11,12,12,16,16],"right_children":[2,4,6,-1,8,10,12,-1,-1,14,16,18,20,-1,-1,-1,22,-1,-1,-1,-1,-1,-1],"split_conditions":[9.480968E-1,5.780774E-1,9.963226E-1,-2.7695278E-2,5.908711E-1,9.6739554E-1,9.984398E-1,-1.37262065E-2,-2.5339125E-2,9.570868E-1,9.7521865E-1,9.966595E-1,9.9901414E-1,1.5956253E-3,-7.5309887E-4,-1.2890845E-2,9.849148E-1,7.7416557E-3,2.967127E-2,-2.444544E-4,1.5331736E-4,-5.8993306E-3,-3.1504442E-3],"split_indices":[1,1,1,0,1,1,1,0,0,1,1,1,1,0,0,0,1,0,0,0,0,0,0],"split_type":[0,0,0,0,0,0,0,0,0,0,0,0,0,0,0,0,0,0,0,0,0,0,0],"sum_hessian":[9.741286E2,9.163122E2,5.7816406E1,6.8540283E2,2.3090933E2,3.64162E1,2.1400208E1,7.5473666E0,2.2336197E2,9.912456E0,2.6503744E1,1.1517312E1,9.882895E0,4.7493954E0,5.16306E0,3.8779166E0,2.2625826E1,5.057382E0,6.4599304E0,4.9130855E0,4.96981E0,4.3168807E0,1.8308947E1],"tree_param":{"num_deleted":"0","num_feature":"3","num_nodes":"23","size_leaf_vector":"1"}},{"base_weights":[-5.343399E-1,-4.0767452E-1,-5.384143E-1,-4.8134124E-1,-6.774894E-4,-2.7136106E-2,-4.724084E-1,-2.7051196E-2,-1.599224E-2,4.0819533E-2,-2.581901E-2],"categories":[],"categories_nodes":[],"categories_segments":[],"categories_sizes":[],"default_left":[0,0,0,0,0,0,0,0,0,0,0],"id":41,"left_children":[1,3,5,7,-1,-1,9,-1,-1,-1,-1],"loss_changes":[2.739563E-1,9.781766E-1,6.134033E-3,1.0209417E-1,0E0,0E0,4.064376E0,0E0,0E0,0E0,0E0],"parents":[2147483647,0,0,1,1,2,2,3,3,6,6],"right_children":[2,4,6,8,-1,-1,10,-1,-1,-1,-1],"split_conditions":[9.487079E4,9.486314E4,9.495347E4,9.485564E4,-6.774894E-4,-2.7136106E-2,9.4957164E4,-2.7051196E-2,-1.599224E-2,4.0819533E-2,-2.581901E-2],"split_indices":[2,2,2,2,0,0,2,0,0,0,0],"split_type":[0,0,0,0,0,0,0,0,0,0,0],"sum_hessian":[9.5514136E2,3.2915497E1,9.222259E2,2.7545595E1,5.3698997E0,8.589458E2,6.3280113E1,1.8396801E1,9.148796E0,1.5082276E0,6.1771885E1],"tree_param":{"num_deleted":"0","num_feature":"3","num_nodes":"11","size_leaf_vector":"1"}},{"base_weights":[5.9783334E-1,6.1470824E-1,1.57082E-1,2.1890351E-1,6.227538E-1,-3.9512193E-1,3.953379E-1,8.963366E-2,2.6326904E-2,6.251196E-1,4.3256631E-1,6.871636E-2,-6.0922915E-1,4.8421723E-1,1.839051E-1,3.2263315E-1,-6.379642E-1,5.6006366E-1,3.1501144E-2,1.7521784E-1,2.7953861E-2,-3.77699E-2,4.222068E-1,-2.5055268E-1,-7.243639E-1,3.236869E-1,2.7859008E-2,2.832006E-1,-2.2664776E-2,2.677012E-2,6.1356737E-3,-1.1300654E-2,-4.538949E-2,9.653761E-3,2.8686872E-2,-4.4158293E-4,1.2886675E-2,2.6068887E-2,7.410881E-3,1.071369E-3,-1.8488258E-2,-1.8925313E-2,-4.3254655E-2,2.7027374E-2,-2.6566138E-2,-2.6670431E-3,1.6180344E-2],"categories":[],"categories_nodes":[],"categories_segments":[],"categories_sizes":[],"default_left":[0,0,0,0,0,0,0,0,0,0,0,0,0,0,0,0,0,0,0,0,0,0,0,0,0,0,0,0,0,0,0,0,0,0,0,0,0,0,0,0,0,0,0,0,0,0,0],"id":42,"left_children":[1,3,5,7,9,11,13,15,-1,17,19,21,23,25,27,29,31,33,-1,35,-1,-1,37,39,41,43,-1,45,-1,-1,-1,-1,-1,-1,-1,-1,-1,-1,-1,-1,-1,-1,-1,-1,-1,-1,-1],"loss_changes":[1.1793518E1,4.765747E0,8.088697E0,1.2336986E0,4.0820312E-1,1.8963296E0,7.118583E-1,4.2549577E0,0E0,1.2158203E-1,6.110196E-1,2.2987201E0,3.5029078E-1,1.6392994E-1,1.0284652E0,7.320864E-1,4.761188E-1,4.5753098E-1,0E0,1.3339174E-1,0E0,0E0,6.938112E-2,1.5894964E-1,1.21283054E-1,2.4327393E0,0E0,1.929996E-1,0E0,0E0,0E0,0E0,0E0,0E0,0E0,0E0,0E0,0E0,0E0,0E0,0E0,0E0,0E0,0E0,0E0,0E0,0E0],"parents":[2147483647,0,0,1,1,2,2,3,3,4,4,5,5,6,6,7,7,9,9,10,10,11,11,12,12,13,13,14,14,15,15,16,16,17,17,19,19,22,22,23,23,24,24,25,25,27,27],"right_children":[2,4,6,8,10,12,14,16,-1,18,20,22,24,26,28,30,32,34,-1,36,-1,-1,38,40,42,44,-1,46,-1,-1,-1,-1,-1,-1,-1,-1,-1,-1,-1,-1,-1,-1,-1,-1,-1,-1,-1],"split_conditions":[9.849148E-1,-9.7019005E-1,9.491943E4,9.4957164E4,9.570868E-1,9.488151E4,9.493594E4,9.492992E4,2.6326904E-2,-8.6364186E-1,9.491864E4,9.488149E4,9.93498E-1,9.493242E4,9.9901414E-1,9.488799E4,9.4946664E4,9.490157E4,3.1501144E-2,9.487401E4,2.7953861E-2,-3.77699E-2,9.93498E-1,9.4908E4,9.489475E4,9.492802E4,2.7859008E-2,9.493835E4,-2.2664776E-2,2.677012E-2,6.1356737E-3,-1.1300654E-2,-4.538949E-2,9.653761E-3,2.8686872E-2,-4.4158293E-4,1.2886675E-2,2.6068887E-2,7.410881E-3,1.071369E-3,-1.8488258E-2,-1.8925313E-2,-4.3254655E-2,2.7027374E-2,-2.6566138E-2,-2.6670431E-3,1.6180344E-2],"split_indices":[1,1,2,2,1,2,2,2,0,1,2,2,1,2,1,2,2,2,0,2,0,0,1,2,2,2,0,2,0,0,0,0,0,0,0,0,0,0,0,0,0,0,0,0,0,0,0],"split_type":[0,0,0,0,0,0,0,0,0,0,0,0,0,0,0,0,0,0,0,0,0,0,0,0,0,0,0,0,0,0,0,0,0,0,0,0,0,0,0,0,0,0,0,0,0,0,0],"sum_hessian":[1.5976421E3,1.5383492E3,5.929293E1,3.1209265E1,1.50714E3,1.7673288E1,4.161964E1,2.2884449E1,8.324816E0,1.4863636E3,2.0776327E1,5.7959957E0,1.1877292E1,2.8393703E1,1.3225939E1,1.7755245E1,5.1292048E0,1.12250206E2,1.3741134E3,7.633423E0,1.3142904E1,1.3985349E0,4.397461E0,3.6579468E0,8.219345E0,1.0571342E1,1.7822361E1,1.1923452E1,1.3024864E0,7.7882876E0,9.966957E0,2.7572503E0,2.3719544E0,4.5752726E0,1.07674934E2,2.639358E0,4.994065E0,2.565837E0,1.8316239E0,1.3646938E0,2.293253E0,3.444271E0,4.775074E0,8.725927E0,1.8454148E0,1.2438004E0,1.0679651E1],"tree_param":{"num_deleted":"0","num_feature":"3","num_nodes":"47","size_leaf_vector":"1"}},{"base_weights":[-4.9557388E-1,-5.3616214E-1,1.1111711E-1,-2.7416084E-2,-4.9685985E-1,6.9278E-3,3.6544213E-1,-1.2088192E-2,-2.5013108E-2,-8.309034E-2,7.2748154E-2,2.795276E-2,1.9372033E-1,5.6012166E-3,-1.5421803E-1,8.912789E-3,-1.2154473E-1,1.9841776E-3,1.5028953E-2,-5.9073647E-3,7.220515E-3,-1.3191888E-2,-2.2321984E-3,-1.1705856E-2,-1.174418E-3],"categories":[],"categories_nodes":[],"categories_segments":[],"categories_sizes":[],"default_left":[0,0,0,0,0,0,0,0,0,0,0,0,0,0,0,0,0,0,0,0,0,0,0,0,0],"id":43,"left_children":[1,3,5,-1,7,9,11,-1,-1,13,15,-1,17,19,21,-1,23,-1,-1,-1,-1,-1,-1,-1,-1],"loss_changes":[2.3102158E1,1.4680481E-1,1.5742509E0,0E0,6.819916E-2,2.6219496E-1,4.660151E-1,0E0,0E0,1.1899768E-1,5.445141E-1,0E0,1.6394466E-1,1.7679684E-1,1.1346771E-1,0E0,1.00146055E-1,0E0,0E0,0E0,0E0,0E0,0E0,0E0,0E0],"parents":[2147483647,0,0,1,1,2,2,4,4,5,5,6,6,9,9,10,10,12,12,13,13,14,14,16,16],"right_children":[2,4,6,-1,8,10,12,-1,-1,14,16,-1,18,20,22,-1,24,-1,-1,-1,-1,-1,-1,-1,-1],"split_conditions":[9.480968E-1,5.9947616E-1,9.966595E-1,-2.7416084E-2,6.060512E-1,9.849148E-1,9.984398E-1,-1.2088192E-2,-2.5013108E-2,9.6739554E-1,9.954911E-1,2.795276E-2,9.9901414E-1,9.570868E-1,9.7521865E-1,8.912789E-3,9.963226E-1,1.9841776E-3,1.5028953E-2,-5.9073647E-3,7.220515E-3,-1.3191888E-2,-2.2321984E-3,-1.1705856E-2,-1.174418E-3],"split_indices":[1,1,1,0,1,1,1,0,0,1,1,0,1,1,1,0,1,0,0,0,0,0,0,0,0],"split_type":[0,0,0,0,0,0,0,0,0,0,0,0,0,0,0,0,0,0,0,0,0,0,0,0,0],"sum_hessian":[9.3475653E2,8.762507E2,5.8505836E1,6.5931635E2,2.1693434E2,4.2231926E1,1.6273909E1,3.8036485E0,2.1313069E2,1.7726368E1,2.4505558E1,6.589165E0,9.684744E0,8.299138E0,9.42723E0,1.5934907E1,8.570652E0,4.528409E0,5.1563344E0,4.4662867E0,3.8328514E0,4.008855E0,5.4183745E0,3.3440177E0,5.226634E0],"tree_param":{"num_deleted":"0","num_feature":"3","num_nodes":"25","size_leaf_vector":"1"}},{"base_weights":[-5.253067E-1,2.0206319E-1,-5.440479E-1,3.792402E-1,-3.4818646E-1,-3.993699E-1,-2.8096048E-2,1.1500636E-1,5.3314257E-2,-2.3418553E-2,-2.1510308E-3,9.9561736E-2,-4.3030038E-1,2.0886786E-1,-1.8843602E-2,-2.0178713E-2,4.5296758E-1,-4.9866313E-1,-1.3906975E-1,1.4159295E-3,2.3744022E-2,3.418919E-2,1.4028664E-3,-1.0949296E-2,-2.727264E-2,2.3534337E-2,-1.2556351E-2],"categories":[],"categories_nodes":[],"categories_segments":[],"categories_sizes":[],"default_left":[0,0,0,0,0,0,0,0,0,0,0,0,0,0,0,0,0,0,0,0,0,0,0,0,0,0,0],"id":44,"left_children":[1,3,5,7,9,11,-1,13,-1,-1,-1,15,17,19,-1,-1,21,23,25,-1,-1,-1,-1,-1,-1,-1,-1],"loss_changes":[1.2637848E1,2.4536784E0,2.093048E0,3.234436E0,2.1170157E-1,1.6169014E0,0E0,7.47074E-1,0E0,0E0,0E0,1.3859159E0,1.846571E0,6.0132176E-1,0E0,0E0,4.168293E-1,8.9538E-1,1.4629972E0,0E0,0E0,0E0,0E0,0E0,0E0,0E0,0E0],"parents":[2147483647,0,0,1,1,2,2,3,3,4,4,5,5,7,7,11,11,12,12,13,13,16,16,17,17,18,18],"right_children":[2,4,6,8,10,12,-1,14,-1,-1,-1,16,18,20,-1,-1,22,24,26,-1,-1,-1,-1,-1,-1,-1,-1],"split_conditions":[-9.7019005E-1,9.4957164E4,-7.876082E-1,9.4931E4,-9.753399E-1,9.490584E4,-2.8096048E-2,9.49288E4,5.3314257E-2,-2.3418553E-2,-2.1510308E-3,-8.973588E-1,9.493542E4,9.4907055E4,-1.8843602E-2,-2.0178713E-2,-8.2398176E-1,-9.500076E-1,9.494044E4,1.4159295E-3,2.3744022E-2,3.418919E-2,1.4028664E-3,-1.0949296E-2,-2.727264E-2,2.3534337E-2,-1.2556351E-2],"split_indices":[1,2,1,2,1,2,0,2,0,0,0,1,2,2,0,0,1,1,2,0,0,0,0,0,0,0,0],"split_type":[0,0,0,0,0,0,0,0,0,0,0,0,0,0,0,0,0,0,0,0,0,0,0,0,0,0,0],"sum_hessian":[9.1802454E2,2.2813662E1,8.952109E2,1.7492098E1,5.3215637E0,1.0099846E2,7.942124E2,1.34765E1,4.015598E0,3.4342372E0,1.8873267E0,5.766221E0,9.523224E1,1.1800135E1,1.6763654E0,2.3205495E0,3.4456716E0,7.655067E1,1.8681568E1,7.6883307E0,4.1118035E0,1.8380039E0,1.6076678E0,1.1785434E1,6.4765236E1,2.4033563E0,1.6278212E1],"tree_param":{"num_deleted":"0","num_feature":"3","num_nodes":"27","size_leaf_vector":"1"}},{"base_weights":[5.830197E-1,5.981343E-1,1.8331057E-1,5.2245975E-2,6.061445E-1,-2.8473178E-1,3.6549994E-1,-1.0834977E-1,2.2487652E-2,5.2347356E-1,6.165744E-1,2.2359181E-2,-4.2956054E-1,4.0965223E-1,1.0623375E-1,7.7509895E-2,-4.3649137E-2,5.7130724E-1,4.1170326E-1,3.098919E-2,4.420082E-1,-3.706418E-2,3.900266E-1,-2.8463703E-1,-2.8546372E-2,1.8728675E-1,5.023441E-1,-3.009286E-2,2.1464411E-2,-4.056964E-3,2.0047843E-2,1.2420216E-2,2.9968996E-2,2.1265665E-2,-6.914507E-3,-4.162643E-3,2.6198078E-2,2.437547E-2,7.22468E-3,-2.3916535E-2,2.1885193E-3,1.9448962E-2,-1.0499603E-2,2.9369313E-2,1.3530182E-2],"categories":[],"categories_nodes":[],"categories_segments":[],"categories_sizes":[],"default_left":[0,0,0,0,0,0,0,0,0,0,0,0,0,0,0,0,0,0,0,0,0,0,0,0,0,0,0,0,0,0,0,0,0,0,0,0,0,0,0,0,0,0,0,0,0],"id":45,"left_children":[1,3,5,7,9,11,13,15,-1,17,19,21,23,25,27,29,-1,31,33,-1,35,-1,37,39,-1,41,43,-1,-1,-1,-1,-1,-1,-1,-1,-1,-1,-1,-1,-1,-1,-1,-1,-1,-1],"loss_changes":[9.2821045E0,6.5161133E0,5.0569773E0,1.5010244E0,9.4970703E-1,7.5842154E-1,4.4008875E-1,2.484926E0,0E0,6.8406296E-1,4.5706177E-1,2.0709267E0,7.290053E-2,6.4275885E-1,1.9734886E0,7.8181463E-1,0E0,9.192276E-1,4.713459E-1,0E0,1.2076669E0,0E0,4.7773898E-2,5.087037E-1,0E0,1.0521997E0,3.2659054E-1,0E0,0E0,0E0,0E0,0E0,0E0,0E0,0E0,0E0,0E0,0E0,0E0,0E0,0E0,0E0,0E0,0E0,0E0],"parents":[2147483647,0,0,1,1,2,2,3,3,4,4,5,5,6,6,7,7,9,9,10,10,11,11,12,12,13,13,14,14,15,15,17,17,18,18,20,20,22,22,23,23,25,25,26,26],"right_children":[2,4,6,8,10,12,14,16,-1,18,20,22,24,26,28,30,-1,32,34,-1,36,-1,38,40,-1,42,44,-1,-1,-1,-1,-1,-1,-1,-1,-1,-1,-1,-1,-1,-1,-1,-1,-1,-1],"split_conditions":[9.849148E-1,-9.753399E-1,9.491943E4,9.4957164E4,-7.876082E-1,9.488151E4,9.494043E4,9.4946664E4,2.2487652E-2,9.49288E4,9.480968E-1,9.488149E4,9.491694E4,9.493423E4,9.4948414E4,9.492626E4,-4.3649137E-2,9.490584E4,9.495783E4,3.098919E-2,9.487401E4,-3.706418E-2,9.93498E-1,9.490653E4,-2.8546372E-2,9.492802E4,9.493594E4,-3.009286E-2,2.1464411E-2,-4.056964E-3,2.0047843E-2,1.2420216E-2,2.9968996E-2,2.1265665E-2,-6.914507E-3,-4.162643E-3,2.6198078E-2,2.437547E-2,7.22468E-3,-2.3916535E-2,2.1885193E-3,1.9448962E-2,-1.0499603E-2,2.9369313E-2,1.3530182E-2],"split_indices":[1,1,2,2,1,2,2,2,0,2,1,2,2,2,2,2,0,2,2,0,2,0,1,2,0,2,2,0,0,0,0,0,0,0,0,0,0,0,0,0,0,0,0,0,0],"split_type":[0,0,0,0,0,0,0,0,0,0,0,0,0,0,0,0,0,0,0,0,0,0,0,0,0,0,0,0,0,0,0,0,0,0,0,0,0,0,0,0,0,0,0,0,0],"sum_hessian":[1.5535352E3,1.4964517E3,5.708341E1,2.1749695E1,1.474702E3,1.5836581E1,4.1246826E1,1.6009262E1,5.740432E0,1.7094298E2,1.303759E3,5.34622E0,1.0490361E1,3.4749104E1,6.4977217E0,1.3601718E1,2.4075444E0,1.1683177E2,5.4111214E1,1.2777177E3,2.6041332E1,1.407231E0,3.938989E0,6.6680326E0,3.8223288E0,1.1112064E1,2.3637041E1,1.7653332E0,4.7323885E0,9.62825E0,3.9734678E0,1.0132486E1,1.0669929E2,5.302574E1,1.0854704E0,3.5125568E0,2.2528776E1,2.114117E0,1.8248721E0,3.907113E0,2.7609193E0,7.384139E0,3.7279253E0,1.6168858E1,7.468184E0],"tree_param":{"num_deleted":"0","num_feature":"3","num_nodes":"45","size_leaf_vector":"1"}},{"base_weights":[-4.873207E-1,-5.317668E-1,1.479406E-1,-2.7360683E-2,-4.847774E-1,6.245827E-1,-1.603051E-1,-2.736303E-1,-2.4559176E-2,2.4605201E-1,5.1196285E-2,-2.1199277E-1,1.3924675E-1,-8.32212E-2,-2.1991381E-2,3.530488E-2,7.87574E-2,6.207803E-4,-3.2462257E-1,4.609228E-2,-2.7299997E-1,-2.123089E-2,2.6657477E-2,-1.7186379E-2,2.6721915E-2,-1.1248758E-2,2.7190873E-2,-1.1768697E-2,-2.0813106E-2,-2.6497215E-3,-1.9795837E-2],"categories":[],"categories_nodes":[],"categories_segments":[],"categories_sizes":[],"default_left":[0,0,0,0,0,0,0,0,0,0,0,0,0,0,0,0,0,0,0,0,0,0,0,0,0,0,0,0,0,0,0],"id":46,"left_children":[1,3,5,-1,7,9,11,13,-1,15,-1,17,19,21,-1,-1,23,25,27,-1,29,-1,-1,-1,-1,-1,-1,-1,-1,-1,-1],"loss_changes":[2.5678635E1,3.4994507E-1,8.925801E0,0E0,1.6110611E-1,3.345049E0,6.0665035E-1,2.3841876E-1,0E0,9.858787E-1,0E0,7.7094674E-1,2.216068E0,1.3382163E0,0E0,0E0,2.3108654E0,1.6104944E0,7.411981E-2,0E0,1.0772893E-1,0E0,0E0,0E0,0E0,0E0,0E0,0E0,0E0,0E0,0E0],"parents":[2147483647,0,0,1,1,2,2,4,4,5,5,6,6,7,7,9,9,11,11,12,12,13,13,16,16,17,17,18,18,20,20],"right_children":[2,4,6,-1,8,10,12,14,-1,16,-1,18,20,22,-1,-1,24,26,28,-1,30,-1,-1,-1,-1,-1,-1,-1,-1,-1,-1],"split_conditions":[9.480968E-1,5.780774E-1,9.49194E4,-2.7360683E-2,5.908711E-1,9.93498E-1,9.494043E4,9.4924E4,-2.4559176E-2,9.487401E4,5.1196285E-2,9.493423E4,9.4948414E4,9.489025E4,-2.1991381E-2,3.530488E-2,9.489025E4,9.49288E4,9.963226E-1,4.609228E-2,9.495098E4,-2.123089E-2,2.6657477E-2,-1.7186379E-2,2.6721915E-2,-1.1248758E-2,2.7190873E-2,-1.1768697E-2,-2.0813106E-2,-2.6497215E-3,-1.9795837E-2],"split_indices":[1,1,2,0,1,1,2,2,0,2,0,2,2,2,0,0,2,2,1,0,2,0,0,0,0,0,0,0,0,0,0],"split_type":[0,0,0,0,0,0,0,0,0,0,0,0,0,0,0,0,0,0,0,0,0,0,0,0,0,0,0,0,0,0,0],"sum_hessian":[9.0567883E2,8.466087E2,5.907014E1,6.291443E2,2.1746443E2,2.2795334E1,3.6274807E1,7.690707E0,2.0977371E2,1.2532308E1,1.0263027E1,3.1185966E1,5.088839E0,4.283696E0,3.4070113E0,2.4831574E0,1.004915E1,1.1143896E1,2.004207E1,1.3292583E0,3.7595809E0,2.956979E0,1.3267171E0,5.3419967E0,4.7071533E0,8.287734E0,2.8561618E0,1.1961311E1,8.080759E0,1.8605577E0,1.8990232E0],"tree_param":{"num_deleted":"0","num_feature":"3","num_nodes":"31","size_leaf_vector":"1"}},{"base_weights":[-5.1844966E-1,-3.6394185E-1,-2.6183236E-2,-2.6581837E-2,-1.5663727E-1,3.3699624E-2,-2.6043555E-1,-1.9331956E-2,-7.057445E-2,-6.5424116E-3,5.699572E-3],"categories":[],"categories_nodes":[],"categories_segments":[],"categories_sizes":[],"default_left":[0,0,0,0,0,0,0,0,0,0,0],"id":47,"left_children":[1,3,-1,-1,5,-1,7,-1,9,-1,-1],"loss_changes":[5.272522E-1,1.0418968E0,0E0,0E0,1.5456533E0,0E0,3.2847416E-1,0E0,9.4475836E-2,0E0,0E0],"parents":[2147483647,0,0,1,1,4,4,6,6,8,8],"right_children":[2,4,-1,-1,6,-1,8,-1,10,-1,-1],"split_conditions":[9.487079E4,9.485564E4,-2.6183236E-2,-2.6581837E-2,9.48614E4,3.3699624E-2,9.486314E4,-1.9331956E-2,9.4868055E4,-6.5424116E-3,5.699572E-3],"split_indices":[2,2,0,0,2,0,2,0,2,0,0],"split_type":[0,0,0,0,0,0,0,0,0,0,0],"sum_hessian":[8.8986914E2,3.1366043E1,8.585031E2,1.6474669E1,1.4891375E1,1.0439595E0,1.3847415E1,7.6956005E0,6.151815E0,4.8567815E0,1.2950331E0],"tree_param":{"num_deleted":"0","num_feature":"3","num_nodes":"11","size_leaf_vector":"1"}},{"base_weights":[5.633653E-1,5.8300424E-1,3.3736795E-2,7.984506E-2,5.933197E-1,-4.979688E-3,6.802596E-3,1.652953E-2,1.5233035E-1,5.9893584E-1,3.4922162E-1,8.240219E-2,-1.2219806E-2,3.1334496E-4,1.3849039E-3,4.857567E-3,9.4455555E-3,5.150358E-1,3.0489275E-2,1.1055437E-2,2.1000598E-2,-5.229984E-2,1.0609156E-2,2.6120791E-2,1.3764872E-2,3.6312E-3,-8.96357E-3],"categories":[],"categories_nodes":[],"categories_segments":[],"categories_sizes":[],"default_left":[0,0,0,0,0,0,0,0,0,0,0,0,0,0,0,0,0,0,0,0,0,0,0,0,0,0,0],"id":48,"left_children":[1,3,5,7,9,11,-1,13,15,17,19,21,-1,-1,-1,-1,-1,23,-1,-1,-1,25,-1,-1,-1,-1,-1],"loss_changes":[1.563501E1,7.484741E0,2.1805155E-1,1.3658385E-1,1.7400513E0,8.731782E-1,0E0,1.8092692E-3,9.925097E-3,9.499512E-1,2.1890163E-1,5.463901E-1,0E0,0E0,0E0,0E0,0E0,1.4886856E-1,0E0,0E0,0E0,2.6407063E-1,0E0,0E0,0E0,0E0,0E0],"parents":[2147483647,0,0,1,1,2,2,3,3,4,4,5,5,7,7,8,8,9,9,10,10,11,11,17,17,21,21],"right_children":[2,4,6,8,10,12,-1,14,16,18,20,22,-1,-1,-1,-1,-1,24,-1,-1,-1,26,-1,-1,-1,-1,-1],"split_conditions":[9.880546E-1,-9.7019005E-1,9.984398E-1,-9.873868E-1,9.480968E-1,9.966595E-1,6.802596E-3,-9.9271685E-1,-9.753399E-1,-7.876082E-1,9.6739554E-1,9.954911E-1,-1.2219806E-2,3.1334496E-4,1.3849039E-3,4.857567E-3,9.4455555E-3,-8.007864E-1,3.0489275E-2,1.1055437E-2,2.1000598E-2,9.93498E-1,1.0609156E-2,2.6120791E-2,1.3764872E-2,3.6312E-3,-8.96357E-3],"split_indices":[1,1,1,1,1,1,0,1,1,1,1,1,0,0,0,0,0,1,0,0,0,1,0,0,0,0,0],"split_type":[0,0,0,0,0,0,0,0,0,0,0,0,0,0,0,0,0,0,0,0,0,0,0,0,0,0,0],"sum_hessian":[1.5040602E3,1.4501855E3,5.3874672E1,2.9309065E1,1.4208765E3,3.977498E1,1.4099693E1,1.629954E1,1.3009525E1,1.3874995E3,3.337697E1,2.9620098E1,1.01548815E1,9.307823E0,6.9917173E0,6.6437654E0,6.36576E0,1.6443082E2,1.2230686E3,1.3346518E1,2.003045E1,1.4827439E1,1.479266E1,1.5837634E2,6.0544834E0,7.689742E0,7.1376967E0],"tree_param":{"num_deleted":"0","num_feature":"3","num_nodes":"27","size_leaf_vector":"1"}},{"base_weights":[-4.884264E-1,-3.7895462E-1,-4.958482E-1,-2.1348031E-2,5.4563396E-3,-4.77553E-1,-2.6640078E-2,-2.70995E-2,-4.563157E-1,4.4886436E-2,-4.6604055E-1,-8.555032E-3,-2.4013491E-2],"categories":[],"categories_nodes":[],"categories_segments":[],"categories_sizes":[],"default_left":[0,0,0,0,0,0,0,0,0,0,0,0,0],"id":49,"left_children":[1,3,5,-1,-1,7,-1,-1,9,-1,11,-1,-1],"loss_changes":[5.2404785E-1,1.449605E0,2.9818726E-1,0E0,0E0,5.1405334E-1,0E0,0E0,6.011833E0,0E0,1.6905975E0,0E0,0E0],"parents":[2147483647,0,0,1,1,2,2,5,5,8,8,10,10],"right_children":[2,4,6,-1,-1,8,-1,-1,10,-1,12,-1,-1],"split_conditions":[9.488451E4,9.487304E4,9.494051E4,-2.1348031E-2,5.4563396E-3,9.489025E4,-2.6640078E-2,-2.70995E-2,9.4893766E4,4.4886436E-2,9.490705E4,-8.555032E-3,-2.4013491E-2],"split_indices":[2,2,2,0,0,2,0,0,2,0,2,0,0],"split_type":[0,0,0,0,0,0,0,0,0,0,0,0,0],"sum_hessian":[8.752838E2,5.8878902E1,8.164049E2,5.3720383E1,5.158522E0,5.553701E2,2.610348E2,1.315892E2,4.237809E2,2.370781E0,4.2141013E2,1.9994509E1,4.0141562E2],"tree_param":{"num_deleted":"0","num_feature":"3","num_nodes":"13","size_leaf_vector":"1"}},{"base_weights":[-5.1360595E-1,2.2070213E-1,-5.325002E-1,3.588158E-1,-1.825174E-1,-3.8924846E-1,-5.511494E-1,6.514103E-2,5.059905E-2,-1.7403698E-2,-6.529057E-2,3.4279454E-2,-4.1935205E-1,-4.3969977E-1,-2.7747333E-2,3.93348E-2,-1.0786109E-1,-4.077657E-3,-1.2009608E-3,-2.0388016E-2,3.2974556E-1,-5.079656E-1,-2.1754481E-1,-4.7055614E-1,9.55247E-3,2.6546114E-3,-2.194316E-2,3.4100562E-2,-4.197361E-3,-7.247453E-3,-2.6829574E-2,2.6464564E-4,-1.8465526E-2,-1.4986234E-2,-2.6631499E-2],"categories":[],"categories_nodes":[],"categories_segments":[],"categories_sizes":[],"default_left":[0,0,0,0,0,0,0,0,0,0,0,0,0,0,0,0,0,0,0,0,0,0,0,0,0,0,0,0,0,0,0,0,0,0,0],"id":50,"left_children":[1,3,5,7,9,11,13,15,-1,-1,17,19,21,23,-1,-1,25,-1,-1,-1,27,29,31,33,-1,-1,-1,-1,-1,-1,-1,-1,-1,-1,-1],"loss_changes":[1.1965424E1,1.2978325E0,2.0103607E0,3.1604457E0,9.970991E-2,1.2808838E0,6.6833496E-2,1.6666824E0,0E0,0E0,1.3462361E-3,1.1161722E0,1.5493736E0,6.5461636E-1,0E0,0E0,6.146933E-1,0E0,0E0,0E0,7.9436463E-1,5.8468246E-1,1.0189058E0,1.3675404E-1,0E0,0E0,0E0,0E0,0E0,0E0,0E0,0E0,0E0,0E0,0E0],"parents":[2147483647,0,0,1,1,2,2,3,3,4,4,5,5,6,6,7,7,10,10,11,11,12,12,13,13,16,16,20,20,21,21,22,22,23,23],"right_children":[2,4,6,8,10,12,14,16,-1,-1,18,20,22,24,-1,-1,26,-1,-1,-1,28,30,32,34,-1,-1,-1,-1,-1,-1,-1,-1,-1,-1,-1],"split_conditions":[-9.7019005E-1,9.4957164E4,-7.876082E-1,9.4931E4,-9.873868E-1,9.490584E4,9.487079E4,9.488557E4,5.059905E-2,-1.7403698E-2,-9.753399E-1,-8.973588E-1,9.49288E4,9.4868055E4,-2.7747333E-2,3.93348E-2,9.492801E4,-4.077657E-3,-1.2009608E-3,-2.0388016E-2,-8.2398176E-1,-9.5608467E-1,9.494044E4,-4.1868302E-1,9.55247E-3,2.6546114E-3,-2.194316E-2,3.4100562E-2,-4.197361E-3,-7.247453E-3,-2.6829574E-2,2.6464564E-4,-1.8465526E-2,-1.4986234E-2,-2.6631499E-2],"split_indices":[1,2,1,2,1,2,2,2,0,0,1,1,2,2,0,0,2,0,0,0,1,1,2,1,0,0,0,0,0,0,0,0,0,0,0],"split_type":[0,0,0,0,0,0,0,0,0,0,0,0,0,0,0,0,0,0,0,0,0,0,0,0,0,0,0,0,0,0,0,0,0,0,0],"sum_hessian":[8.529504E2,2.112856E1,8.318218E2,1.5819926E1,5.3086324E0,9.83361E1,7.334857E2,1.1671805E1,4.148121E0,1.3843353E0,3.9242969E0,6.5165124E0,9.181958E1,2.8015434E1,7.054703E2,1.5712281E0,1.0100577E1,2.1149135E0,1.8093834E0,2.4584405E0,4.0580716E0,6.274929E1,2.9070295E1,2.695096E1,1.0644739E0,7.3608747E0,2.7397025E0,1.8414531E0,2.2166188E0,5.029654E0,5.7719635E1,1.2168459E1,1.6901834E1,8.736375E0,1.8214586E1],"tree_param":{"num_deleted":"0","num_feature":"3","num_nodes":"35","size_leaf_vector":"1"}},{"base_weights":[5.654486E-1,5.8774453E-1,2.0187666E-1,1.1789313E-1,5.969034E-1,3.2837686E-1,1.392621E-1,4.730424E-2,1.9154637E-1,4.9078232E-1,3.0266685E-2,1.0295507E-2,2.1201927E-2,9.246149E-2,1.4393493E-2,5.740436E-3,-7.7191734E-4,1.1351321E-2,6.0300403E-3,5.0527495E-1,1.6968861E-2,1.7403793E-1,-1.2801959E-2,2.1937985E-2,2.7387643E-2,3.6955625E-3,1.5885482E-2],"categories":[],"categories_nodes":[],"categories_segments":[],"categories_sizes":[],"default_left":[0,0,0,0,0,0,0,0,0,0,0,0,0,0,0,0,0,0,0,0,0,0,0,0,0,0,0],"id":51,"left_children":[1,3,5,7,9,11,13,15,17,19,-1,-1,-1,21,-1,-1,-1,-1,-1,23,-1,25,-1,-1,-1,-1,-1],"loss_changes":[1.1713013E1,5.8454285E0,6.3434577E-1,1.3407671E-1,9.090576E-1,2.3709893E-1,3.848976E-1,6.693846E-2,5.708933E-3,5.783081E-2,0E0,0E0,0E0,1.3657024E0,0E0,0E0,0E0,0E0,0E0,2.3359299E-2,0E0,5.267825E-1,0E0,0E0,0E0,0E0,0E0],"parents":[2147483647,0,0,1,1,2,2,3,3,4,4,5,5,6,6,7,7,8,8,9,9,13,13,19,19,21,21],"right_children":[2,4,6,8,10,12,14,16,18,20,-1,-1,-1,22,-1,-1,-1,-1,-1,24,-1,26,-1,-1,-1,-1,-1],"split_conditions":[9.480968E-1,-9.7019005E-1,9.849148E-1,-9.873868E-1,-8.6364186E-1,9.6739554E-1,9.984398E-1,-9.9271685E-1,-9.753399E-1,-8.8217276E-1,3.0266685E-2,1.0295507E-2,2.1201927E-2,9.966595E-1,1.4393493E-2,5.740436E-3,-7.7191734E-4,1.1351321E-2,6.0300403E-3,-9.3300945E-1,1.6968861E-2,9.954911E-1,-1.2801959E-2,2.1937985E-2,2.7387643E-2,3.6955625E-3,1.5885482E-2],"split_indices":[1,1,1,1,1,1,1,1,1,1,0,0,0,1,0,0,0,0,0,1,0,1,0,0,0,0,0],"split_type":[0,0,0,0,0,0,0,0,0,0,0,0,0,0,0,0,0,0,0,0,0,0,0,0,0,0,0],"sum_hessian":[1.4585848E3,1.3737249E3,8.485998E1,2.653124E1,1.3471936E3,2.669124E1,5.816874E1,1.4386014E1,1.2145226E1,1.0350367E2,1.24369E3,1.3088166E1,1.3603075E1,4.54709E1,1.2697836E1,6.5302787E0,7.8557353E0,6.629692E0,5.515534E0,9.232865E1,1.11750145E1,3.7251698E1,8.219204E0,4.0398563E1,5.193009E1,2.2845098E1,1.44066E1],"tree_param":{"num_deleted":"0","num_feature":"3","num_nodes":"27","size_leaf_vector":"1"}},{"base_weights":[-4.8129618E-1,-3.3093432E-1,-4.915177E-1,-3.8213813E-1,1.3760862E-2,-4.7802407E-1,-2.6900623E-2,-1.9594539E-2,-5.241278E-3,-2.6889075E-2,-4.6192202E-1,4.500702E-1,-4.7016698E-1,3.5331793E-2,6.9987574E-3,-1.25857955E-2,-2.3856616E-2],"categories":[],"categories_nodes":[],"categories_segments":[],"categories_sizes":[],"default_left":[0,0,0,0,0,0,0,0,0,0,0,0,0,0,0,0,0],"id":52,"left_children":[1,3,5,7,-1,9,-1,-1,-1,-1,11,13,15,-1,-1,-1,-1],"loss_changes":[1.1323547E0,1.8647928E0,2.3649597E-1,1.0143852E-1,0E0,3.4707642E-1,0E0,0E0,0E0,0E0,3.930626E0,2.942953E-1,6.2646484E-1,0E0,0E0,0E0,0E0],"parents":[2147483647,0,0,1,1,2,2,3,3,5,5,10,10,11,11,12,12],"right_children":[2,4,6,8,-1,10,-1,-1,-1,-1,12,14,16,-1,-1,-1,-1],"split_conditions":[9.488451E4,9.487304E4,9.495044E4,9.487268E4,1.3760862E-2,9.489025E4,-2.6900623E-2,-1.9594539E-2,-5.241278E-3,-2.6889075E-2,9.489999E4,9.4893766E4,9.490705E4,3.5331793E-2,6.9987574E-3,-1.25857955E-2,-2.3856616E-2],"split_indices":[2,2,2,2,0,2,0,0,0,0,2,2,2,0,0,0,0],"split_type":[0,0,0,0,0,0,0,0,0,0,0,0,0,0,0,0,0],"sum_hessian":[8.4159265E2,5.5693794E1,7.8589886E2,5.169638E1,3.9974144E0,6.178645E2,1.6803433E2,4.954093E1,2.1554472E0,1.24272095E2,4.9359244E2,3.9422839E0,4.8965015E2,1.4575601E0,2.4847238E0,1.6277649E1,4.733725E2],"tree_param":{"num_deleted":"0","num_feature":"3","num_nodes":"17","size_leaf_vector":"1"}},{"base_weights":[-5.092396E-1,-3.7820983E-1,-5.135801E-1,-4.6024808E-1,2.1803263E-3,-2.5903866E-2,-4.419316E-1,-2.629665E-2,-2.835442E-1,3.0377686E-2,-2.3735343E-2,3.255693E-2,-2.4546701E-2],"categories":[],"categories_nodes":[],"categories_segments":[],"categories_sizes":[],"default_left":[0,0,0,0,0,0,0,0,0,0,0,0,0],"id":53,"left_children":[1,3,5,7,-1,-1,9,-1,11,-1,-1,-1,-1],"loss_changes":[2.7593994E-1,1.0686688E0,2.7999878E-2,1.4632082E-1,0E0,0E0,2.1424475E0,0E0,2.0773907E0,0E0,0E0,0E0,0E0],"parents":[2147483647,0,0,1,1,2,2,3,3,6,6,8,8],"right_children":[2,4,6,8,-1,-1,10,-1,12,-1,-1,-1,-1],"split_conditions":[9.487079E4,9.486314E4,9.495678E4,9.485564E4,2.1803263E-3,-2.5903866E-2,9.495726E4,-2.629665E-2,9.48614E4,3.0377686E-2,-2.3735343E-2,3.255693E-2,-2.4546701E-2],"split_indices":[2,2,2,2,0,0,2,0,2,0,0,0,0],"split_type":[0,0,0,0,0,0,0,0,0,0,0,0,0],"sum_hessian":[8.2572986E2,2.9301893E1,7.96428E2,2.4454647E1,4.8472466E0,7.4352704E2,5.290096E1,1.6386906E1,8.067742E0,1.0709643E0,5.1829994E1,1.0764804E0,6.9912615E0],"tree_param":{"num_deleted":"0","num_feature":"3","num_nodes":"13","size_leaf_vector":"1"}},{"base_weights":[5.5225307E-1,4.5160288E-1,5.5922884E-1,4.82467E-1,4.4097584E-2,3.0386854E-2,5.4950523E-1,2.9847322E-2,4.4027045E-1,-3.5240106E-2,1.5809989E-2,-3.2941326E-1,5.5410045E-1,1.3272676E-1,4.7840813E-1,-2.6420077E-2,-8.205906E-3,3.21109E-1,5.600041E-1,1.499251E-2,-2.6549233E-2,2.0830268E-2,2.822257E-2,1.8818157E-2,-2.4154598E-2,2.7490834E-2,2.9478943E-2],"categories":[],"categories_nodes":[],"categories_segments":[],"categories_sizes":[],"default_left":[0,0,0,0,0,0,0,0,0,0,0,0,0,0,0,0,0,0,0,0,0,0,0,0,0,0,0],"id":54,"left_children":[1,3,5,7,9,-1,11,-1,13,-1,-1,15,17,19,21,-1,-1,23,25,-1,-1,-1,-1,-1,-1,-1,-1],"loss_changes":[7.473755E-1,1.2050037E0,2.9223633E-1,1.745224E-1,1.8459868E0,0E0,4.6913147E0,0E0,7.570782E-1,0E0,0E0,1.24886155E-1,1.3482666E0,1.1688833E0,9.379387E-2,0E0,0E0,1.505899E0,1.8615723E-3,0E0,0E0,0E0,0E0,0E0,0E0,0E0,0E0],"parents":[2147483647,0,0,1,1,2,2,3,3,4,4,6,6,8,8,11,11,12,12,13,13,14,14,17,17,18,18],"right_children":[2,4,6,8,10,-1,12,-1,14,-1,-1,16,18,20,22,-1,-1,24,26,-1,-1,-1,-1,-1,-1,-1,-1],"split_conditions":[9.488451E4,9.487304E4,9.489025E4,9.485252E4,9.488149E4,3.0386854E-2,9.489999E4,2.9847322E-2,9.48614E4,-3.5240106E-2,1.5809989E-2,9.489327E4,9.490705E4,9.485564E4,9.4872484E4,-2.6420077E-2,-8.205906E-3,9.490654E4,9.4951E4,1.499251E-2,-2.6549233E-2,2.0830268E-2,2.822257E-2,1.8818157E-2,-2.4154598E-2,2.7490834E-2,2.9478943E-2],"split_indices":[2,2,2,2,2,0,2,0,2,0,0,2,2,2,2,0,0,2,2,0,0,0,0,0,0,0,0],"split_type":[0,0,0,0,0,0,0,0,0,0,0,0,0,0,0,0,0,0,0,0,0,0,0,0,0,0,0],"sum_hessian":[1.4231096E3,9.649959E1,1.32661E3,8.953438E1,6.9652104E0,2.1124892E2,1.1153611E3,2.0572973E1,6.89614E1,1.4324644E0,5.532746E0,5.4334073E0,1.1099276E3,8.102522E0,6.0858883E1,1.4686626E0,3.9647448E0,2.8797855E1,1.0811298E3,6.9106364E0,1.1918857E0,3.8818398E1,2.2040485E1,2.7444248E1,1.3536055E0,8.1870593E2,2.624239E2],"tree_param":{"num_deleted":"0","num_feature":"3","num_nodes":"27","size_leaf_vector":"1"}},{"base_weights":[-4.749531E-1,-4.6052846E-1,-2.6651626E-2,-3.7969744E-1,-4.6715587E-1,-2.2357132E-2,1.3531522E-1,-2.713619E-2,-4.472885E-1,4.7617026E-2,-9.469645E-3,3.6743972E-1,-4.5665172E-1,3.5521176E-2,5.4287673E-3,-1.1963443E-2,-2.3172334E-2],"categories":[],"categories_nodes":[],"categories_segments":[],"categories_sizes":[],"default_left":[0,0,0,0,0,0,0,0,0,0,0,0,0,0,0,0,0],"id":55,"left_children":[1,3,-1,5,7,-1,9,-1,11,-1,-1,13,15,-1,-1,-1,-1],"loss_changes":[4.4108582E-1,1.7822266E-1,0E0,1.993288E0,6.7181396E-1,0E0,2.0933714E0,0E0,3.8907623E0,0E0,0E0,4.6438527E-1,6.024704E-1,0E0,0E0,0E0,0E0],"parents":[2147483647,0,0,1,1,3,3,4,4,6,6,8,8,11,11,12,12],"right_children":[2,4,-1,6,8,-1,10,-1,12,-1,-1,14,16,-1,-1,-1,-1],"split_conditions":[9.4950984E4,9.488451E4,-2.6651626E-2,9.487304E4,9.489025E4,-2.2357132E-2,9.488149E4,-2.713619E-2,9.489999E4,4.7617026E-2,-9.469645E-3,9.489327E4,9.490705E4,3.5521176E-2,5.4287673E-3,-1.1963443E-2,-2.3172334E-2],"split_indices":[2,2,0,2,2,0,2,0,2,0,0,2,2,0,0,0,0],"split_type":[0,0,0,0,0,0,0,0,0,0,0,0,0,0,0,0,0],"sum_hessian":[8.1849536E2,6.628092E2,1.5568613E2,5.464344E1,6.081658E2,4.8432575E1,6.2108655E0,1.2112705E2,4.870387E2,1.2166467E0,4.994219E0,5.099138E0,4.8193958E2,1.442932E0,3.656206E0,1.5705513E1,4.6623404E2],"tree_param":{"num_deleted":"0","num_feature":"3","num_nodes":"17","size_leaf_vector":"1"}},{"base_weights":[-5.088384E-1,-5.1439375E-1,-4.2280182E-1,-4.042373E-1,-2.590909E-2,2.9851774E-2,-4.5467874E-1,-4.3245322E-1,6.6102045E-3,-3.4009913E-1,-2.4426345E-2,-2.6027163E-2,-2.9351845E-1,-2.066083E-2,-9.681533E-3,-3.5312807E-3,-1.9387184E-2],"categories":[],"categories_nodes":[],"categories_segments":[],"categories_sizes":[],"default_left":[0,0,0,0,0,0,0,0,0,0,0,0,0,0,0,0,0],"id":56,"left_children":[1,3,5,7,-1,-1,9,11,-1,13,-1,-1,15,-1,-1,-1,-1],"loss_changes":[1.6741943E-1,1.0429382E-1,2.0420074E0,5.043454E-1,0E0,0E0,4.0875435E-2,1.9358349E-1,0E0,8.5602164E-2,0E0,0E0,2.5140417E-1,0E0,0E0,0E0,0E0],"parents":[2147483647,0,0,1,1,2,2,3,3,6,6,7,7,9,9,12,12],"right_children":[2,4,6,8,-1,-1,10,12,-1,14,-1,-1,16,-1,-1,-1,-1],"split_conditions":[9.495678E4,9.487079E4,9.495726E4,9.4868055E4,-2.590909E-2,2.9851774E-2,9.495858E4,9.485564E4,6.6102045E-3,9.495783E4,-2.4426345E-2,-2.6027163E-2,9.4863055E4,-2.066083E-2,-9.681533E-3,-3.5312807E-3,-1.9387184E-2],"split_indices":[2,2,2,2,0,0,2,2,0,2,0,0,2,0,0,0,0],"split_type":[0,0,0,0,0,0,0,0,0,0,0,0,0,0,0,0,0],"sum_hessian":[8.043398E2,7.5087695E2,5.346288E1,2.8543356E1,7.2233356E2,1.083063E0,5.2379818E1,2.7301207E1,1.2421491E0,1.4464317E1,3.79155E1,1.5026894E1,1.2274314E1,8.433228E0,6.0310903E0,4.1669054E0,8.107409E0],"tree_param":{"num_deleted":"0","num_feature":"3","num_nodes":"17","size_leaf_vector":"1"}},{"base_weights":[5.413443E-1,4.3661806E-1,5.4852366E-1,2.3719115E-2,9.646716E-2,2.9962385E-2,5.385491E-1,-3.420941E-2,2.9706192E-1,4.417895E-2,5.490882E-1,1.9207269E-2,7.1703913E-3,-3.7566146E-1,2.075523E-1,3.0155942E-1,2.7524097E-2,-3.0210396E-2,-8.186737E-3,2.097164E-2,-1.5196909E-2,2.5955578E-2,-1.1558043E-2],"categories":[],"categories_nodes":[],"categories_segments":[],"categories_sizes":[],