{"learner":{"attributes":{"scikit_learn":"{\"_estimator_type\": \"classifier\"}"},"feature_names":["spread","obi","micro_price"],"feature_types":["float","float","float"],"gradient_booster":{"model":{"cats":{"enc":[],"feature_segments":[],"sorted_idx":[]},"gbtree_model_param":{"num_parallel_tree":"1","num_trees":"300"},"iteration_indptr":[0,1,2,3,4,5,6,7,8,9,10,11,12,13,14,15,16,17,18,19,20,21,22,23,24,25,26,27,28,29,30,31,32,33,34,35,36,37,38,39,40,41,42,43,44,45,46,47,48,49,50,51,52,53,54,55,56,57,58,59,60,61,62,63,64,65,66,67,68,69,70,71,72,73,74,75,76,77,78,79,80,81,82,83,84,85,86,87,88,89,90,91,92,93,94,95,96,97,98,99,100,101,102,103,104,105,106,107,108,109,110,111,112,113,114,115,116,117,118,119,120,121,122,123,124,125,126,127,128,129,130,131,132,133,134,135,136,137,138,139,140,141,142,143,144,145,146,147,148,149,150,151,152,153,154,155,156,157,158,159,160,161,162,163,164,165,166,167,168,169,170,171,172,173,174,175,176,177,178,179,180,181,182,183,184,185,186,187,188,189,190,191,192,193,194,195,196,197,198,199,200,201,202,203,204,205,206,207,208,209,210,211,212,213,214,215,216,217,218,219,220,221,222,223,224,225,226,227,228,229,230,231,232,233,234,235,236,237,238,239,240,241,242,243,244,245,246,247,248,249,250,251,252,253,254,255,256,257,258,259,260,261,262,263,264,265,266,267,268,269,270,271,272,273,274,275,276,277,278,279,280,281,282,283,284,285,286,287,288,289,290,291,292,293,294,295,296,297,298,299,300],"tree_info":[0,0,0,0,0,0,0,0,0,0,0,0,0,0,0,0,0,0,0,0,0,0,0,0,0,0,0,0,0,0,0,0,0,0,0,0,0,0,0,0,0,0,0,0,0,0,0,0,0,0,0,0,0,0,0,0,0,0,0,0,0,0,0,0,0,0,0,0,0,0,0,0,0,0,0,0,0,0,0,0,0,0,0,0,0,0,0,0,0,0,0,0,0,0,0,0,0,0,0,0,0,0,0,0,0,0,0,0,0,0,0,0,0,0,0,0,0,0,0,0,0,0,0,0,0,0,0,0,0,0,0,0,0,0,0,0,0,0,0,0,0,0,0,0,0,0,0,0,0,0,0,0,0,0,0,0,0,0,0,0,0,0,0,0,0,0,0,0,0,0,0,0,0,0,0,0,0,0,0,0,0,0,0,0,0,0,0,0,0,0,0,0,0,0,0,0,0,0,0,0,0,0,0,0,0,0,0,0,0,0,0,0,0,0,0,0,0,0,0,0,0,0,0,0,0,0,0,0,0,0,0,0,0,0,0,0,0,0,0,0,0,0,0,0,0,0,0,0,0,0,0,0,0,0,0,0,0,0,0,0,0,0,0,0,0,0,0,0,0,0,0,0,0,0,0,0,0,0,0,0,0,0,0,0,0,0,0,0,0,0,0,0,0,0,0,0,0,0,0,0],"trees":[{"base_weights":[-2.5299404E-2,-1.7889439E0,1.4521937E0,-1.053187E-1,-1.4024342E0,5.1750046E-1,1.6545609E0,7.749248E-1,-1.6643945E0,1.0304924E0,1.1205899E-1,1.1286265E0,8.574235E-2,2.8514338E-3,4.9865842E-2,-1.7602923E0,-8.044531E-1,6.4886674E-2,6.267134E-1,-6.0858488E-2,5.114717E-1,6.692296E-2,-4.165376E-4,-2.9351195E-2,-1.7985938E0,4.785324E-2,-7.744396E-2,-2.685985E-3,5.756827E-2,-4.165376E-4,6.259174E-1,-1.0795057E-1,-7.300881E-2,4.1034516E-2,9.201033E-3],"categories":[],"categories_nodes":[],"categories_segments":[],"categories_sizes":[],"default_left":[0,0,0,0,0,0,0,0,0,0,0,0,0,0,0,0,0,0,0,0,0,0,0,0,0,0,0,0,0,0,0,0,0,0,0],"id":0,"left_children":[1,3,5,-1,7,9,11,13,15,17,19,21,-1,-1,-1,23,25,-1,27,-1,29,-1,-1,-1,31,-1,-1,-1,-1,-1,33,-1,-1,-1,-1],"loss_changes":[4.6123853E2,6.9449463E0,1.7364044E1,0E0,2.3748535E1,3.7528386E0,5.6074524E-1,7.2715926E-1,1.5085373E0,5.9479713E-2,6.733515E0,2.6405573E0,0E0,0E0,0E0,3.4014893E-1,8.563084E0,0E0,1.9022281E0,0E0,5.736289E-1,0E0,0E0,0E0,4.575653E-1,0E0,0E0,0E0,0E0,0E0,5.24101E-1,0E0,0E0,0E0,0E0],"parents":[2147483647,0,0,1,1,2,2,4,4,5,5,6,6,7,7,8,8,9,9,10,10,11,11,15,15,16,16,18,18,20,20,24,24,30,30],"right_children":[2,4,6,-1,8,10,12,14,16,18,20,22,-1,-1,-1,24,26,-1,28,-1,30,-1,-1,-1,32,-1,-1,-1,-1,-1,34,-1,-1,-1,-1],"split_conditions":[-3.866082E-3,-7.297721E-1,3.5078767E-1,-1.053187E-1,-7.065708E-1,1.7980114E-1,5.782864E-1,-7.118818E-1,-6.311576E-2,3.151774E-2,2.1218082E-1,5.553122E-1,8.574235E-2,2.8514338E-3,4.9865842E-2,-6.9716907E-1,-3.0920034E-2,6.4886674E-2,1.2442285E-1,-6.0858488E-2,2.1431282E-1,6.692296E-2,-4.165376E-4,-2.9351195E-2,-6.039443E-1,4.785324E-2,-7.744396E-2,-2.685985E-3,5.756827E-2,-4.165376E-4,2.8665847E-1,-1.0795057E-1,-7.300881E-2,4.1034516E-2,9.201033E-3],"split_indices":[1,1,1,0,1,1,1,1,1,1,1,1,0,0,0,1,1,0,1,0,1,0,0,0,1,0,0,0,0,0,1,0,0,0,0],"split_type":[0,0,0,0,0,0,0,0,0,0,0,0,0,0,0,0,0,0,0,0,0,0,0,0,0,0,0,0,0,0,0,0,0,0,0],"sum_hessian":[1.7500948E2,7.968308E1,9.5326385E1,4.13081E1,3.837498E1,1.7598719E1,7.772767E1,3.9108262E0,3.4464157E1,7.0883727E0,1.0510345E1,1.0021492E1,6.770618E1,1.2221332E0,2.688693E0,3.0064476E1,4.3996797E0,2.9331198E0,4.155253E0,1.9554131E0,8.554933E0,8.310506E0,1.7109865E0,1.4665599E0,2.8597918E1,1.2221332E0,3.1775463E0,2.1998398E0,1.9554131E0,1.7109865E0,6.843946E0,1.1243626E1,1.7354292E1,4.155253E0,2.688693E0],"tree_param":{"num_deleted":"0","num_feature":"3","num_nodes":"35","size_leaf_vector":"1"}},{"base_weights":[-1.1082203E-2,-1.6655276E0,1.3770216E0,-9.800681E-2,-1.295894E0,6.7278284E-1,8.2070634E-2,4.7648378E-2,-1.5685043E0,7.258961E-1,-9.067323E-3,-1.7090824E0,-6.2062275E-1,4.3043447E-1,9.5701224E-1,-2.8406156E-2,-8.737664E-2,4.0606465E-2,-7.3912784E-2,9.5090365E-1,-4.1802403E-1,7.505238E-1,6.418758E-2,6.298023E-2,2.9200459E-2,-6.7745745E-2,1.0149016E-2,4.1843172E-2,1.0271672E-3],"categories":[],"categories_nodes":[],"categories_segments":[],"categories_sizes":[],"default_left":[0,0,0,0,0,0,0,0,0,0,0,0,0,0,0,0,0,0,0,0,0,0,0,0,0,0,0,0,0],"id":1,"left_children":[1,3,5,-1,7,9,-1,-1,11,13,-1,15,17,19,21,-1,-1,-1,-1,23,25,27,-1,-1,-1,-1,-1,-1,-1],"loss_changes":[4.1422137E2,6.420578E0,1.7158142E1,0E0,2.5678185E1,1.4230442E0,0E0,0E0,3.6777267E0,1.4317846E0,0E0,3.4072113E-1,8.773329E0,6.4331317E0,3.4770966E-3,0E0,0E0,0E0,0E0,2.5842476E-1,3.7025657E0,6.880517E-1,0E0,0E0,0E0,0E0,0E0,0E0,0E0],"parents":[2147483647,0,0,1,1,2,2,4,4,5,5,8,8,9,9,11,11,12,12,13,13,14,14,19,19,20,20,21,21],"right_children":[2,4,6,-1,8,10,-1,-1,12,14,-1,16,18,20,22,-1,-1,-1,-1,24,26,28,-1,-1,-1,-1,-1,-1,-1],"split_conditions":[-3.866082E-3,-7.297721E-1,5.782864E-1,-9.800681E-2,-7.065708E-1,5.553122E-1,8.2070634E-2,4.7648378E-2,-1.4233811E-1,2.574361E-1,-9.067323E-3,-6.9716907E-1,-3.0920034E-2,1.8304093E-1,4.9600226E-1,-2.8406156E-2,-8.737664E-2,4.0606465E-2,-7.3912784E-2,3.151774E-2,2.1218082E-1,4.5719567E-1,6.418758E-2,6.298023E-2,2.9200459E-2,-6.7745745E-2,1.0149016E-2,4.1843172E-2,1.0271672E-3],"split_indices":[1,1,1,0,1,1,0,0,1,1,0,1,1,1,1,0,0,0,0,1,1,1,0,0,0,0,0,0,0],"split_type":[0,0,0,0,0,0,0,0,0,0,0,0,0,0,0,0,0,0,0,0,0,0,0,0,0,0,0,0,0],"sum_hessian":[1.7836877E2,8.1286095E1,9.708268E1,4.2839153E1,3.8446945E1,2.7466597E1,6.961608E1,3.8868864E0,3.456006E1,2.5999945E1,1.466651E0,2.939718E1,5.16288E0,1.2667751E1,1.3332193E1,1.4726905E0,2.792449E1,1.9531035E0,3.2097762E0,7.77661E0,4.891142E0,1.018967E1,3.1425235E0,2.9018624E0,4.8747473E0,1.4786038E0,3.412538E0,8.981007E0,1.2086629E0],"tree_param":{"num_deleted":"0","num_feature":"3","num_nodes":"29","size_leaf_vector":"1"}},{"base_weights":[-4.1161712E-2,-1.5783718E0,1.3296725E0,-9.2548616E-2,-1.2391875E0,6.5130764E-1,7.933339E-2,7.1949434E-1,-1.4673281E0,2.9311705E-1,8.893487E-1,9.742843E-3,4.4323802E-2,-9.44872E-2,-1.182172E0,8.307525E-1,-4.969642E-1,4.9185883E-2,7.1213394E-3,-4.220044E-3,-1.2502327E0,5.6352407E-2,5.1649565E-1,-6.544508E-2,1.07614115E-1,-6.9245756E-2,-3.5783518E-2,-3.6057604E-3,4.571739E-2,5.1489443E-2,-3.869436E-2],"categories":[],"categories_nodes":[],"categories_segments":[],"categories_sizes":[],"default_left":[0,0,0,0,0,0,0,0,0,0,0,0,0,0,0,0,0,0,0,0,0,0,0,0,0,0,0,0,0,0,0],"id":2,"left_children":[1,3,5,-1,7,9,-1,11,13,15,17,-1,-1,-1,19,21,23,-1,-1,-1,25,-1,27,-1,29,-1,-1,-1,-1,-1,-1],"loss_changes":[3.7234662E2,5.4066467E0,1.5253021E1,0E0,1.8989971E1,2.0724669E0,0E0,2.5284982E-1,2.1356506E0,5.687047E0,9.839649E-1,0E0,0E0,0E0,1.7121124E0,1.4071131E-1,2.91605E0,0E0,0E0,0E0,6.528816E-1,0E0,1.3804423E0,0E0,4.1823225E0,0E0,0E0,0E0,0E0,0E0,0E0],"parents":[2147483647,0,0,1,1,2,2,4,4,5,5,7,7,8,8,9,9,10,10,14,14,15,15,16,16,20,20,22,22,24,24],"right_children":[2,4,6,-1,8,10,-1,12,14,16,18,-1,-1,-1,20,22,24,-1,-1,-1,26,-1,28,-1,30,-1,-1,-1,-1,-1,-1],"split_conditions":[-3.866082E-3,-7.297721E-1,5.782864E-1,-9.2548616E-2,-7.065708E-1,2.574361E-1,7.933339E-2,-7.118818E-1,-6.039443E-1,1.8304093E-1,5.553122E-1,9.742843E-3,4.4323802E-2,-9.44872E-2,-5.8493567E-1,3.151774E-2,2.1218082E-1,4.9185883E-2,7.1213394E-3,-4.220044E-3,-1.4233811E-1,5.6352407E-2,1.2442285E-1,-6.544508E-2,2.1421695E-1,-6.9245756E-2,-3.5783518E-2,-3.6057604E-3,4.571739E-2,5.1489443E-2,-3.869436E-2],"split_indices":[1,1,1,0,1,1,0,1,1,1,1,0,0,0,1,1,1,0,0,0,1,0,1,0,1,0,0,0,0,0,0],"split_type":[0,0,0,0,0,0,0,0,0,0,0,0,0,0,0,0,0,0,0,0,0,0,0,0,0,0,0,0,0,0,0],"sum_hessian":[1.747011E2,8.2281654E1,9.241944E1,4.3147285E1,3.9134373E1,2.6363821E1,6.605562E1,3.8580115E0,3.527636E1,1.1416419E1,1.4947402E1,1.4546387E0,2.4033728E0,1.1948867E1,2.3327494E1,6.762909E0,4.65351E0,1.2989262E1,1.958141E0,1.4926233E0,2.183487E1,2.1496913E0,4.613218E0,1.4889266E0,3.1645832E0,1.6170086E1,5.6647835E0,2.190772E0,2.4224455E0,1.4643964E0,1.7001868E0],"tree_param":{"num_deleted":"0","num_feature":"3","num_nodes":"31","size_leaf_vector":"1"}},{"base_weights":[2.9895881E-2,-1.49005E0,1.3002228E0,-8.841006E-2,-1.1503397E0,6.1552346E-1,7.601788E-2,6.9477165E-1,-1.3711325E0,4.92579E-2,4.042009E-1,1.2092659E-3,4.561433E-2,-7.403529E-2,-6.8309855E-1,-4.4839628E-2,6.5072125E-1,4.0024E-2,-7.30917E-2,6.567571E-2,8.272312E-1,4.6433344E-2,-2.535708E-2,4.527424E-2,7.838929E-3],"categories":[],"categories_nodes":[],"categories_segments":[],"categories_sizes":[],"default_left":[0,0,0,0,0,0,0,0,0,0,0,0,0,0,0,0,0,0,0,0,0,0,0,0,0],"id":3,"left_children":[1,3,5,-1,7,9,-1,11,13,-1,15,-1,-1,-1,17,-1,19,-1,-1,21,23,-1,-1,-1,-1],"loss_changes":[3.4022006E2,5.546936E0,1.3529526E1,0E0,1.6832539E1,1.5568533E0,0E0,6.824026E-1,1.638504E0,0E0,6.234792E0,0E0,0E0,0E0,8.893773E0,0E0,1.535245E0,0E0,0E0,2.7715807E0,4.739275E-1,0E0,0E0,0E0,0E0],"parents":[2147483647,0,0,1,1,2,2,4,4,5,5,7,7,8,8,10,10,14,14,16,16,19,19,20,20],"right_children":[2,4,6,-1,8,10,-1,12,14,-1,16,-1,-1,-1,18,-1,20,-1,-1,22,24,-1,-1,-1,-1],"split_conditions":[-3.866082E-3,-7.297721E-1,4.9600226E-1,-8.841006E-2,-7.065708E-1,1.7980114E-1,7.601788E-2,-7.118818E-1,-1.4233811E-1,4.92579E-2,2.1218082E-1,1.2092659E-3,4.561433E-2,-7.403529E-2,-3.0920034E-2,-4.4839628E-2,2.574361E-1,4.0024E-2,-7.30917E-2,2.1421695E-1,4.5719567E-1,4.6433344E-2,-2.535708E-2,4.527424E-2,7.838929E-3],"split_indices":[1,1,1,0,1,1,0,1,1,0,1,0,0,0,1,0,1,0,0,1,1,0,0,0,0],"split_type":[0,0,0,0,0,0,0,0,0,0,0,0,0,0,0,0,0,0,0,0,0,0,0,0,0],"sum_hessian":[1.742008E2,7.922962E1,9.497118E1,4.124974E1,3.797988E1,2.4028843E1,7.0942345E1,3.8296585E0,3.4150223E1,7.4084673E0,1.6620377E1,1.210119E0,2.6195393E0,2.8464943E1,5.68528E0,2.227436E0,1.43929405E1,1.9473796E0,3.7379003E0,3.6539474E0,1.0738993E1,1.209907E0,2.4440403E0,9.302654E0,1.4363389E0],"tree_param":{"num_deleted":"0","num_feature":"3","num_nodes":"25","size_leaf_vector":"1"}},{"base_weights":[3.1666182E-2,1.9476154E-1,-9.420252E-2,1.2458646E0,1.2022015E-1,7.100848E-2,2.6751002E-2,-8.7697506E-2,2.1653102E-1,7.002066E-2,1.2604736E-1,-8.299642E-2,2.2161672E-1,7.01493E-2,6.5658437E-3],"categories":[],"categories_nodes":[],"categories_segments":[],"categories_sizes":[],"default_left":[0,0,0,0,0,0,0,0,0,0,0,0,0,0,0],"id":4,"left_children":[1,3,-1,5,7,-1,-1,-1,9,-1,11,-1,13,-1,-1],"loss_changes":[5.4473114E1,1.2424767E1,0E0,5.4377747E-1,2.7630228E1,0E0,0E0,0E0,1.5300541E1,0E0,2.346508E1,0E0,1.3612352E1,0E0,0E0],"parents":[2147483647,0,0,1,1,3,3,4,4,8,8,10,10,12,12],"right_children":[2,4,-1,6,8,-1,-1,-1,10,-1,12,-1,14,-1,-1],"split_conditions":[9.495347E4,9.4863055E4,-9.420252E-2,9.485564E4,9.487079E4,7.100848E-2,2.6751002E-2,-8.7697506E-2,9.488451E4,7.002066E-2,9.488975E4,-8.299642E-2,9.489475E4,7.01493E-2,6.5658437E-3],"split_indices":[2,2,0,2,2,0,0,0,2,0,2,0,2,0,0],"split_type":[0,0,0,0,0,0,0,0,0,0,0,0,0,0,0],"sum_hessian":[1.721705E2,1.5949054E2,1.2679961E1,9.521055E0,1.499695E2,6.8447943E0,2.6762612E0,6.4887977E0,1.434807E2,9.1596365E0,1.3432106E2,5.99115E0,1.2832991E2,8.080313E0,1.20249596E2],"tree_param":{"num_deleted":"0","num_feature":"3","num_nodes":"15","size_leaf_vector":"1"}},{"base_weights":[-1.0245787E-2,-1.4657059E0,1.2471867E0,-8.6439416E-2,-1.1105585E0,6.868187E-1,7.433518E-2,4.8155355E-1,-1.3465021E0,4.5355475E-1,8.272556E-1,7.300878E-1,-6.1202706E-3,-8.010711E-2,-7.1203136E-1,8.8117856E-1,-2.9354367E-1,4.5106545E-2,1.0295353E-2,8.228577E-3,4.887935E-2,-2.1813098E-1,-6.6741735E-2,5.71902E-2,5.717744E-1,-5.5799264E-2,1.9440725E-1,-3.8520142E-2,5.2383076E-2,-4.273784E-3,4.830149E-2,4.385115E-2,-1.6485026E-2],"categories":[],"categories_nodes":[],"categories_segments":[],"categories_sizes":[],"default_left":[0,0,0,0,0,0,0,0,0,0,0,0,0,0,0,0,0,0,0,0,0,0,0,0,0,0,0,0,0,0,0,0,0],"id":5,"left_children":[1,3,5,-1,7,9,-1,11,13,15,17,19,-1,-1,21,23,25,-1,-1,-1,-1,27,-1,-1,29,-1,31,-1,-1,-1,-1,-1,-1],"loss_changes":[3.1907373E2,5.6299744E0,1.1533508E1,0E0,1.4615932E1,6.0323524E-1,0E0,9.202906E-1,4.1544037E0,4.5518227E0,6.251478E-1,4.0812612E-1,0E0,0E0,3.1466317E0,6.076002E-2,2.481098E0,0E0,0E0,0E0,0E0,6.000047E0,0E0,0E0,1.6471648E0,0E0,1.8606856E0,0E0,0E0,0E0,0E0,0E0,0E0],"parents":[2147483647,0,0,1,1,2,2,4,4,5,5,7,7,8,8,9,9,10,10,11,11,14,14,15,15,16,16,21,21,24,24,26,26],"right_children":[2,4,6,-1,8,10,-1,12,14,16,18,20,-1,-1,22,24,26,-1,-1,-1,-1,28,-1,-1,30,-1,32,-1,-1,-1,-1,-1,-1],"split_conditions":[-3.866082E-3,-7.297721E-1,5.782864E-1,-8.6439416E-2,-6.9716907E-1,2.574361E-1,7.433518E-2,-7.1051425E-1,-3.7407574E-1,1.8304093E-1,5.553122E-1,-7.118818E-1,-6.1202706E-3,-8.010711E-2,-3.0920034E-2,3.151774E-2,2.1218082E-1,4.5106545E-2,1.0295353E-2,8.228577E-3,4.887935E-2,-1.4233811E-1,-6.6741735E-2,5.71902E-2,1.2442285E-1,-5.5799264E-2,2.1421695E-1,-3.8520142E-2,5.2383076E-2,-4.273784E-3,4.830149E-2,4.385115E-2,-1.6485026E-2],"split_indices":[1,1,1,0,1,1,0,1,1,1,1,1,0,0,1,1,1,0,0,0,0,1,0,0,1,0,1,0,0,0,0,0,0],"split_type":[0,0,0,0,0,0,0,0,0,0,0,0,0,0,0,0,0,0,0,0,0,0,0,0,0,0,0,0,0,0,0,0,0],"sum_hessian":[1.7234479E2,7.9805466E1,9.253932E1,4.3623043E1,3.6182423E1,2.8867983E1,6.3671337E1,4.5356364E0,3.1646786E1,1.2438079E1,1.6429905E1,3.0653727E0,1.4702637E0,2.1470684E1,1.0176102E1,7.7962165E0,4.641862E0,1.4259659E1,2.1702456E0,1.440007E0,1.6253657E0,6.4284234E0,3.7476785E0,2.7582173E0,5.0379996E0,1.2492186E0,3.3926437E0,4.748149E0,1.6802747E0,2.182621E0,2.8553786E0,1.1810457E0,2.211598E0],"tree_param":{"num_deleted":"0","num_feature":"3","num_nodes":"33","size_leaf_vector":"1"}},{"base_weights":[1.2711613E-2,-1.3720579E0,1.200899E0,9.75387E-1,-1.5443493E0,1.2924981E0,-7.491709E-2,-1.5052912E-3,6.5402605E-2,-8.075954E-2,-5.853392E-1,8.744541E-1,7.245063E-2,3.7610147E-2,-6.42242E-2,7.01229E-2,2.0563844E-1,-1.0256734E0,6.902398E-2,-1.1605605E-2,-6.990292E-2],"categories":[],"categories_nodes":[],"categories_segments":[],"categories_sizes":[],"default_left":[0,0,0,0,0,0,0,0,0,0,0,0,0,0,0,0,0,0,0,0,0],"id":6,"left_children":[1,3,5,7,9,11,-1,-1,-1,-1,13,15,-1,-1,-1,-1,17,19,-1,-1,-1],"loss_changes":[2.8115494E2,3.342302E1,2.4673645E1,2.049293E0,4.075592E0,4.587509E0,0E0,0E0,0E0,0E0,7.186924E0,9.209862E0,0E0,0E0,0E0,0E0,2.0276562E1,1.7262502E0,0E0,0E0,0E0],"parents":[2147483647,0,0,1,1,2,2,3,3,4,4,5,5,10,10,11,11,16,16,17,17],"right_children":[2,4,6,8,10,12,-1,-1,-1,-1,14,16,-1,-1,-1,-1,18,20,-1,-1,-1],"split_conditions":[-3.866082E-3,9.4863055E4,9.495347E4,-7.1647364E-1,-1.4233811E-1,5.782864E-1,-7.491709E-2,-1.5052912E-3,6.5402605E-2,-8.075954E-2,-3.0920034E-2,9.49287E4,7.245063E-2,3.7610147E-2,-6.42242E-2,7.01229E-2,9.493964E4,2.8365147E-1,6.902398E-2,-1.1605605E-2,-6.990292E-2],"split_indices":[1,2,2,1,1,1,0,0,0,0,1,2,0,0,0,0,2,1,0,0,0],"split_type":[0,0,0,0,0,0,0,0,0,0,0,0,0,0,0,0,0,0,0,0,0],"sum_hessian":[1.6887541E2,7.791493E1,9.096048E1,5.0088463E0,7.290609E1,8.8479095E1,2.4813898E0,1.4712968E0,3.5375493E0,6.725386E1,5.6522245E0,2.5896795E1,6.25823E1,1.914219E0,3.7380054E0,1.3858849E1,1.2037947E1,5.939707E0,6.09824E0,2.41551E0,3.5241969E0],"tree_param":{"num_deleted":"0","num_feature":"3","num_nodes":"21","size_leaf_vector":"1"}},{"base_weights":[-1.5366826E-2,-1.3200852E0,1.1660686E0,7.2977155E-1,-1.4556543E0,1.2664305E0,-7.422202E-2,-3.2778095E-2,6.289883E-2,-8.111475E-2,-9.902259E-1,8.287274E-1,7.0785426E-2,-7.597255E-2,-6.212942E-1,1.3407518E0,2.5095007E-1,5.630911E-2,-1.0123528E0,2.217224E-2,7.03494E-2,-7.499731E-1,6.620173E-2,-6.2049624E-2,-1.4675333E-2,2.2167027E-2,-5.2904814E-2],"categories":[],"categories_nodes":[],"categories_segments":[],"categories_sizes":[],"default_left":[0,0,0,0,0,0,0,0,0,0,0,0,0,0,0,0,0,0,0,0,0,0,0,0,0,0,0],"id":7,"left_children":[1,3,5,7,9,11,-1,-1,-1,-1,13,15,-1,-1,17,19,21,-1,23,-1,-1,25,-1,-1,-1,-1,-1],"loss_changes":[2.6366998E2,2.3649933E1,2.5761047E1,5.001578E0,4.3324585E0,4.5138702E0,0E0,0E0,0E0,0E0,3.498724E0,6.925503E0,0E0,0E0,1.145853E1,1.3588142E-1,1.47018175E1,0E0,1.7501955E0,0E0,0E0,3.1319351E0,0E0,0E0,0E0,0E0,0E0],"parents":[2147483647,0,0,1,1,2,2,3,3,4,4,5,5,10,10,11,11,14,14,15,15,16,16,18,18,21,21],"right_children":[2,4,6,8,10,12,-1,-1,-1,-1,14,16,-1,-1,18,20,22,-1,24,-1,-1,26,-1,-1,-1,-1,-1],"split_conditions":[-3.866082E-3,9.4863055E4,9.495347E4,-7.1647364E-1,-6.039443E-1,5.782864E-1,-7.422202E-2,-3.2778095E-2,6.289883E-2,-8.111475E-2,9.4900555E4,9.49287E4,7.0785426E-2,-7.597255E-2,9.490654E4,1.2442285E-1,9.493964E4,5.630911E-2,-1.4233811E-1,2.217224E-2,7.03494E-2,1.8304093E-1,6.620173E-2,-6.2049624E-2,-1.4675333E-2,2.2167027E-2,-5.2904814E-2],"split_indices":[1,2,2,1,1,1,0,0,0,0,2,2,0,0,2,1,2,0,1,0,0,1,0,0,0,0,0],"split_type":[0,0,0,0,0,0,0,0,0,0,0,0,0,0,0,0,0,0,0,0,0,0,0,0,0,0,0],"sum_hessian":[1.6905568E2,8.028052E1,8.877516E1,4.7081704E0,7.557235E1,8.603946E1,2.7357051E0,1.2330675E0,3.4751027E0,5.3817932E1,2.1754416E1,2.3547268E1,6.249219E1,7.654982E0,1.4099434E1,1.1783891E1,1.1763377E1,2.2345119E0,1.1864922E1,1.3390181E0,1.0444872E1,6.242122E0,5.521255E0,8.450689E0,3.4142327E0,1.1909423E0,5.05118E0],"tree_param":{"num_deleted":"0","num_feature":"3","num_nodes":"27","size_leaf_vector":"1"}},{"base_weights":[1.4189649E-2,-1.2240195E0,1.1265597E0,-7.223711E-2,-9.655661E-1,3.4194648E-1,1.3190191E0,6.361952E-1,-1.1607608E0,7.355935E-1,-7.305012E-4,8.669359E-1,6.9092385E-2,5.7248736E-4,4.1826792E-2,-6.309647E-2,-5.0435513E-1,4.659499E-2,4.7136718E-1,-5.507564E-2,2.910055E-1,5.071755E-2,8.334166E-3,4.0428244E-2,-6.831724E-2,-5.4643317E-3,4.2889692E-2,4.0062398E-2,1.2467862E-1,-2.166777E-2,2.1751266E-2],"categories":[],"categories_nodes":[],"categories_segments":[],"categories_sizes":[],"default_left":[0,0,0,0,0,0,0,0,0,0,0,0,0,0,0,0,0,0,0,0,0,0,0,0,0,0,0,0,0,0,0],"id":8,"left_children":[1,3,5,-1,7,9,11,13,15,17,19,21,-1,-1,-1,-1,23,-1,25,-1,27,-1,-1,-1,-1,-1,-1,-1,29,-1,-1],"loss_changes":[2.2712936E2,3.0570908E0,1.2665237E1,0E0,1.2920795E1,2.4905546E0,7.7324677E-1,6.010163E-1,1.6934891E0,6.375313E-3,3.810495E0,9.8209476E-1,0E0,0E0,0E0,0E0,8.292564E0,0E0,1.369525E0,0E0,6.962994E-1,0E0,0E0,0E0,0E0,0E0,0E0,0E0,1.618952E0,0E0,0E0],"parents":[2147483647,0,0,1,1,2,2,4,4,5,5,6,6,7,7,8,8,9,9,10,10,11,11,16,16,18,18,20,20,28,28],"right_children":[2,4,6,-1,8,10,12,14,16,18,20,22,-1,-1,-1,-1,24,-1,26,-1,28,-1,-1,-1,-1,-1,-1,-1,30,-1,-1],"split_conditions":[-1.4236191E-2,-7.297721E-1,3.5078767E-1,-7.223711E-2,-7.065708E-1,1.8304093E-1,5.782864E-1,-7.118818E-1,-1.4233811E-1,3.151774E-2,2.1218082E-1,5.553122E-1,6.9092385E-2,5.7248736E-4,4.1826792E-2,-6.309647E-2,-3.0920034E-2,4.659499E-2,1.2442285E-1,-5.507564E-2,2.1421695E-1,5.071755E-2,8.334166E-3,4.0428244E-2,-6.831724E-2,-5.4643317E-3,4.2889692E-2,4.0062398E-2,2.574361E-1,-2.166777E-2,2.1751266E-2],"split_indices":[1,1,1,0,1,1,1,1,1,1,1,1,0,0,0,0,1,0,1,0,1,0,0,0,0,0,0,0,1,0,0],"split_type":[0,0,0,0,0,0,0,0,0,0,0,0,0,0,0,0,0,0,0,0,0,0,0,0,0,0,0,0,0,0,0],"sum_hessian":[1.6290239E2,7.7043175E1,8.585921E1,3.907912E1,3.7964058E1,1.7459097E1,6.840011E1,3.878437E0,3.4085617E1,7.59165E0,9.867447E0,1.0151737E1,5.824837E1,1.198419E0,2.6800182E0,2.8734434E1,5.351185E0,2.9058533E0,4.6857967E0,1.4857347E0,8.381712E0,8.015738E0,2.1359994E0,2.1454182E0,3.2057667E0,2.1589274E0,2.526869E0,1.1221068E0,7.2596054E0,2.452825E0,4.8067803E0],"tree_param":{"num_deleted":"0","num_feature":"3","num_nodes":"31","size_leaf_vector":"1"}},{"base_weights":[-1.0815527E-2,1.2769681E-1,-8.064557E-2,2.4047518E-2,7.219215E-1,1.0250973E0,-5.0869383E-2,6.1616756E-2,4.673622E-1,6.210586E-2,2.3326803E-2,-7.283061E-2,3.0512715E-2,-5.992953E-2,8.449428E-1,6.170767E-2,-7.05479E-2,6.1570015E-2,4.0261197E-1,-7.151546E-2,1.9259524E-3,-6.059174E-2,6.1734717E-2],"categories":[],"categories_nodes":[],"categories_segments":[],"categories_sizes":[],"default_left":[0,0,0,0,0,0,0,0,0,0,0,0,0,0,0,0,0,0,0,0,0,0,0],"id":9,"left_children":[1,3,-1,5,7,9,11,-1,13,-1,-1,-1,15,-1,17,-1,19,-1,21,-1,-1,-1,-1],"loss_changes":[3.5686592E1,9.103691E0,0E0,9.586369E0,2.2773514E0,4.9924183E-1,1.3684798E1,0E0,1.1242979E1,0E0,0E0,0E0,1.39159155E1,0E0,1.8709211E0,0E0,1.574962E1,0E0,1.2164632E1,0E0,0E0,0E0,0E0],"parents":[2147483647,0,0,1,1,3,3,4,4,5,5,6,6,8,8,12,12,14,14,16,16,18,18],"right_children":[2,4,-1,6,8,10,12,-1,14,-1,-1,-1,16,-1,18,-1,20,-1,22,-1,-1,-1,-1],"split_conditions":[9.495347E4,9.494841E4,-8.064557E-2,9.4863055E4,9.495044E4,9.485564E4,9.487079E4,6.1616756E-2,9.495055E4,6.210586E-2,2.3326803E-2,-7.283061E-2,9.488451E4,-5.992953E-2,9.495099E4,6.170767E-2,9.488975E4,6.1570015E-2,9.4951E4,-7.151546E-2,1.9259524E-3,-6.059174E-2,6.1734717E-2],"split_indices":[2,2,0,2,2,2,2,0,2,0,0,0,2,0,2,0,2,0,2,0,0,0,0],"split_type":[0,0,0,0,0,0,0,0,0,0,0,0,0,0,0,0,0,0,0,0,0,0,0],"sum_hessian":[1.5888744E2,1.4709071E2,1.1796722E1,1.2613052E2,2.0960197E1,7.899062E0,1.1823146E2,5.696721E0,1.5263477E1,4.8074327E0,3.0916293E0,5.5453944E0,1.12686066E2,2.4184496E0,1.2845027E1,7.86006E0,1.04826004E2,5.903416E0,6.9416113E0,6.8842697E0,9.7941734E1,2.2056715E0,4.7359395E0],"tree_param":{"num_deleted":"0","num_feature":"3","num_nodes":"23","size_leaf_vector":"1"}},{"base_weights":[1.579439E-2,-1.1772726E0,1.1123222E0,-7.181875E-2,-8.7663573E-1,4.4003385E-1,6.708359E-2,6.468743E-1,-1.0716759E0,4.2122122E-2,2.2583851E-1,7.7022254E-3,3.995183E-2,-1.2507422E0,-5.6352884E-1,-3.6662045E-1,5.5712366E-1,-1.7372698E-2,-1.2929823E0,-2.034775E-1,-6.1086405E-2,-3.559994E-2,-2.6248667E-2,3.2266576E-2,7.4931392E-3,-7.575356E-2,-4.9759995E-2,-3.3010747E-2,3.8283657E-2,3.9244756E-2,-2.7485473E-2],"categories":[],"categories_nodes":[],"categories_segments":[],"categories_sizes":[],"default_left":[0,0,0,0,0,0,0,0,0,0,0,0,0,0,0,0,0,0,0,0,0,0,0,0,0,0,0,0,0,0,0],"id":10,"left_children":[1,3,5,-1,7,9,-1,11,13,-1,15,-1,-1,17,19,21,23,-1,25,27,-1,-1,29,-1,-1,-1,-1,-1,-1,-1,-1],"loss_changes":[2.1409724E2,4.8465424E0,1.2557297E1,0E0,1.223724E1,1.807559E0,0E0,2.5431418E-1,2.463234E0,0E0,3.441338E0,0E0,0E0,5.0175476E-1,2.3327062E0,7.475442E-1,2.975433E-1,0E0,4.2633057E-2,4.1531835E0,0E0,0E0,2.2661932E0,0E0,0E0,0E0,0E0,0E0,0E0,0E0,0E0],"parents":[2147483647,0,0,1,1,2,2,4,4,5,5,7,7,8,8,10,10,13,13,14,14,15,15,16,16,18,18,19,19,22,22],"right_children":[2,4,6,-1,8,10,-1,12,14,-1,16,-1,-1,18,20,22,24,-1,26,28,-1,-1,30,-1,-1,-1,-1,-1,-1,-1,-1],"split_conditions":[-1.4236191E-2,-7.297721E-1,4.9600226E-1,-7.181875E-2,-7.065708E-1,1.7980114E-1,6.708359E-2,-7.118818E-1,-3.7407574E-1,4.2122122E-2,2.574361E-1,7.7022254E-3,3.995183E-2,-6.9716907E-1,-3.0920034E-2,2.1218082E-1,3.9824885E-1,-1.7372698E-2,-6.039443E-1,-1.4233811E-1,-6.1086405E-2,-3.559994E-2,2.1421695E-1,3.2266576E-2,7.4931392E-3,-7.575356E-2,-4.9759995E-2,-3.3010747E-2,3.8283657E-2,3.9244756E-2,-2.7485473E-2],"split_indices":[1,1,1,0,1,1,0,1,1,0,1,0,0,1,1,1,1,0,1,1,0,0,1,0,0,0,0,0,0,0,0],"split_type":[0,0,0,0,0,0,0,0,0,0,0,0,0,0,0,0,0,0,0,0,0,0,0,0,0,0,0,0,0,0,0],"sum_hessian":[1.6165303E2,7.7383255E1,8.4269775E1,3.9533623E1,3.7849632E1,2.2178112E1,6.2091663E1,4.03268E0,3.381695E1,6.685331E0,1.5492782E1,1.4261084E0,2.6065714E0,2.3924723E1,9.892228E0,5.5179706E0,9.974811E0,1.4809473E0,2.2443775E1,7.240589E0,2.6516392E0,2.196915E0,3.3210557E0,7.7185087E0,2.256302E0,1.051428E1,1.1929496E1,5.137961E0,2.102628E0,1.1067008E0,2.2143548E0],"tree_param":{"num_deleted":"0","num_feature":"3","num_nodes":"31","size_leaf_vector":"1"}},{"base_weights":[2.8097996E-2,-1.0980252E0,1.0786972E0,-6.700468E-2,-8.0502856E-1,5.193738E-1,6.6061996E-2,5.950521E-1,-9.822064E-1,3.0540192E-1,6.839288E-1,7.4830814E-3,3.695727E-2,-1.3263828E0,-7.6819426E-1,3.6686134E-2,-4.8330104E-1,3.938776E-2,1.1705962E-4,-8.460023E-3,-7.250426E-2,8.061493E-3,-8.625235E-1,-5.142461E-2,-6.3625495E-3,-5.3420942E-2,-2.960074E-2,3.8494583E-2,-2.9937863E-2],"categories":[],"categories_nodes":[],"categories_segments":[],"categories_sizes":[],"default_left":[0,0,0,0,0,0,0,0,0,0,0,0,0,0,0,0,0,0,0,0,0,0,0,0,0,0,0,0,0],"id":11,"left_children":[1,3,5,-1,7,9,-1,11,13,15,17,-1,-1,19,21,-1,23,-1,-1,-1,-1,-1,25,-1,27,-1,-1,-1,-1],"loss_changes":[1.8721912E2,4.3391037E0,1.0418037E1,0E0,9.778608E0,7.208934E-1,0E0,1.9654596E-1,1.4322319E0,4.842943E0,9.973812E-1,0E0,0E0,1.3840084E0,2.146309E0,0E0,1.3660804E0,0E0,0E0,0E0,0E0,0E0,5.3392696E-1,0E0,2.2184768E0,0E0,0E0,0E0,0E0],"parents":[2147483647,0,0,1,1,2,2,4,4,5,5,7,7,8,8,9,9,10,10,13,13,14,14,16,16,22,22,24,24],"right_children":[2,4,6,-1,8,10,-1,12,14,16,18,-1,-1,20,22,-1,24,-1,-1,-1,-1,-1,26,-1,28,-1,-1,-1,-1],"split_conditions":[-1.4236191E-2,-7.297721E-1,5.782864E-1,-6.700468E-2,-7.065708E-1,2.574361E-1,6.6061996E-2,-7.118818E-1,-6.039443E-1,1.8304093E-1,5.553122E-1,7.4830814E-3,3.695727E-2,-6.9716907E-1,-5.8093697E-1,3.6686134E-2,2.1218082E-1,3.938776E-2,1.1705962E-4,-8.460023E-3,-7.250426E-2,8.061493E-3,-3.7407574E-1,-5.142461E-2,2.1421695E-1,-5.3420942E-2,-2.960074E-2,3.8494583E-2,-2.9937863E-2],"split_indices":[1,1,1,0,1,1,0,1,1,1,1,0,0,1,1,0,1,0,0,0,0,0,1,0,1,0,0,0,0],"split_type":[0,0,0,0,0,0,0,0,0,0,0,0,0,0,0,0,0,0,0,0,0,0,0,0,0,0,0,0,0],"sum_hessian":[1.5624286E2,7.538912E1,8.085374E1,3.932543E1,3.6063694E1,2.5406227E1,5.5447506E1,3.7861986E0,3.2277496E1,1.2286258E1,1.311997E1,1.4238231E0,2.3623753E0,1.03825245E1,2.189497E1,8.007394E0,4.2788634E0,1.1250424E1,1.8695456E0,1.2313726E0,9.151153E0,1.9520674E0,1.9942904E1,1.4569589E0,2.8219044E0,9.648993E0,1.029391E1,1.0917221E0,1.7301824E0],"tree_param":{"num_deleted":"0","num_feature":"3","num_nodes":"29","size_leaf_vector":"1"}},{"base_weights":[6.3812174E-4,-1.0927539E0,1.0498478E0,-6.48958E-2,-8.5386413E-1,4.5591688E-1,6.495819E-2,6.596189E-1,-1.0041049E0,3.8176894E-2,3.0864304E-1,7.270226E-3,4.4016417E-2,-6.7955874E-2,-7.735466E-1,-4.3540534E-2,4.9633056E-1,1.5167335E-2,-8.459746E-1,5.408082E-1,-2.64239E-3,-4.7312524E-2,-2.1542244E-2,1.5301838E-2,3.7067216E-2],"categories":[],"categories_nodes":[],"categories_segments":[],"categories_sizes":[],"default_left":[0,0,0,0,0,0,0,0,0,0,0,0,0,0,0,0,0,0,0,0,0,0,0,0,0],"id":12,"left_children":[1,3,5,-1,7,9,-1,11,13,-1,15,-1,-1,-1,17,-1,19,-1,21,23,-1,-1,-1,-1,-1],"loss_changes":[1.8008781E2,2.6593475E0,1.1269882E1,0E0,9.402971E0,9.071784E-1,0E0,3.3444965E-1,1.8433075E0,0E0,4.5800614E0,0E0,0E0,0E0,2.1099606E0,0E0,4.389863E-1,0E0,5.3009796E-1,5.090833E-1,0E0,0E0,0E0,0E0,0E0],"parents":[2147483647,0,0,1,1,2,2,4,4,5,5,7,7,8,8,10,10,14,14,16,16,18,18,19,19],"right_children":[2,4,6,-1,8,10,-1,12,14,-1,16,-1,-1,-1,18,-1,20,-1,22,24,-1,-1,-1,-1,-1],"split_conditions":[-3.866082E-3,-7.297721E-1,5.7436097E-1,-6.48958E-2,-7.1051425E-1,1.7980114E-1,6.495819E-2,-7.118818E-1,-6.039443E-1,3.8176894E-2,2.1218082E-1,7.270226E-3,4.4016417E-2,-6.7955874E-2,-5.8493567E-1,-4.3540534E-2,5.553122E-1,1.5167335E-2,-1.4233811E-1,3.5078767E-1,-2.64239E-3,-4.7312524E-2,-2.1542244E-2,1.5301838E-2,3.7067216E-2],"split_indices":[1,1,1,0,1,1,0,1,1,0,1,0,0,0,1,0,1,0,1,1,0,0,0,0,0],"split_type":[0,0,0,0,0,0,0,0,0,0,0,0,0,0,0,0,0,0,0,0,0,0,0,0,0],"sum_hessian":[1.5498062E2,7.587207E1,7.910855E1,3.8432526E1,3.7439545E1,2.422572E1,5.4882835E1,3.0747695E0,3.4364777E1,6.488423E0,1.7737297E1,1.4215683E0,1.6532013E0,1.1603249E1,2.2761528E1,1.9353857E0,1.580191E1,1.2334716E0,2.1528055E1,1.4632107E1,1.1698043E0,1.6309128E1,5.218929E0,7.9043865E0,6.7277203E0],"tree_param":{"num_deleted":"0","num_feature":"3","num_nodes":"25","size_leaf_vector":"1"}},{"base_weights":[-3.389478E-2,-1.0997463E0,1.0115056E0,-6.4667605E-2,-8.525695E-1,4.5440495E-1,6.3645415E-2,4.3961763E-1,-1.0840287E0,7.345888E-1,3.0861408E-1,6.822074E-1,-3.30218E-3,-6.7661926E-2,-7.49777E-1,3.884936E-1,5.3428885E-2,-4.9123775E-2,4.7163054E-1,7.0634806E-3,4.5179646E-2,1.3398913E-2,-8.678432E-1,4.1648556E-2,-1.5960118E-2,4.5362107E-2,5.761524E-1,-3.342354E-2,-6.0809236E-2,4.076937E-2,-2.5736058E-2,4.921289E-2,2.091548E-2],"categories":[],"categories_nodes":[],"categories_segments":[],"categories_sizes":[],"default_left":[0,0,0,0,0,0,0,0,0,0,0,0,0,0,0,0,0,0,0,0,0,0,0,0,0,0,0,0,0,0,0,0,0],"id":13,"left_children":[1,3,5,-1,7,9,-1,11,13,15,17,19,-1,-1,21,23,-1,-1,25,-1,-1,-1,27,-1,-1,29,31,-1,-1,-1,-1,-1,-1],"loss_changes":[1.686614E2,2.4833755E0,1.0552551E1,0E0,1.1198437E1,8.339515E-1,0E0,8.0035627E-1,1.7470894E0,5.2836704E-1,4.4208984E0,3.8122654E-1,0E0,0E0,2.1472464E0,2.0210316E0,0E0,0E0,7.478211E-1,0E0,0E0,0E0,1.949892E-1,0E0,0E0,2.3630912E0,4.814067E-1,0E0,0E0,0E0,0E0,0E0,0E0],"parents":[2147483647,0,0,1,1,2,2,4,4,5,5,7,7,8,8,9,9,10,10,11,11,14,14,15,15,18,18,22,22,25,25,26,26],"right_children":[2,4,6,-1,8,10,-1,12,14,16,18,20,-1,-1,22,24,-1,-1,26,-1,-1,-1,28,-1,-1,30,32,-1,-1,-1,-1,-1,-1],"split_conditions":[-1.4236191E-2,-7.297721E-1,5.782864E-1,-6.4667605E-2,-6.9716907E-1,1.8304093E-1,6.3645415E-2,-7.1051425E-1,-4.996952E-1,1.2442285E-1,2.1218082E-1,-7.118818E-1,-3.30218E-3,-6.7661926E-2,-4.3960324E-1,3.151774E-2,5.3428885E-2,-4.9123775E-2,2.574361E-1,7.0634806E-3,4.5179646E-2,1.3398913E-2,-3.0920034E-2,4.1648556E-2,-1.5960118E-2,2.1421695E-1,2.8665847E-1,-3.342354E-2,-6.0809236E-2,4.076937E-2,-2.5736058E-2,4.921289E-2,2.091548E-2],"split_indices":[1,1,1,0,1,1,0,1,1,1,1,1,0,0,1,1,0,0,1,0,0,0,1,0,0,1,1,0,0,0,0,0,0],"split_type":[0,0,0,0,0,0,0,0,0,0,0,0,0,0,0,0,0,0,0,0,0,0,0,0,0,0,0,0,0,0,0,0,0],"sum_hessian":[1.4937047E2,7.3936035E1,7.543443E1,3.9087532E1,3.4848507E1,2.496577E1,5.0468662E1,5.157264E0,2.969124E1,7.162358E0,1.7803411E1,3.249287E0,1.9079772E0,1.475713E1,1.4934112E1,4.5797725E0,2.5825856E0,1.4323511E0,1.6371061E1,1.4193455E0,1.8299414E0,1.420383E0,1.3513728E1,2.70429E0,1.8754824E0,3.5061252E0,1.2864936E1,1.0451084E1,3.0626442E0,1.28442E0,2.2217054E0,2.127796E0,1.073714E1],"tree_param":{"num_deleted":"0","num_feature":"3","num_nodes":"33","size_leaf_vector":"1"}},{"base_weights":[-2.3162099E-2,-1.0384452E0,1.015236E0,-6.2797844E-2,-7.798449E-1,5.058786E-1,6.2620305E-2,5.884459E-1,-9.0848285E-1,4.6475936E-2,4.2605132E-1,6.8626604E-3,3.9940972E-2,-1.1387328E0,-6.072297E-1,-8.835489E-3,4.9513558E-1,-1.5609828E-2,-6.0832996E-2,1.2983664E-2,-7.0290196E-1,4.7276363E-2,3.9614516E-1,-2.4302885E-2,-5.4760855E-2,-2.8451502E-2,2.6935978E-2],"categories":[],"categories_nodes":[],"categories_segments":[],"categories_sizes":[],"default_left":[0,0,0,0,0,0,0,0,0,0,0,0,0,0,0,0,0,0,0,0,0,0,0,0,0,0,0],"id":14,"left_children":[1,3,5,-1,7,9,-1,11,13,-1,15,-1,-1,17,19,-1,21,-1,-1,-1,23,-1,25,-1,-1,-1,-1],"loss_changes":[1.5779E2,3.276596E0,8.306313E0,0E0,7.0832825E0,4.5579243E-1,0E0,2.5144398E-1,1.694725E0,0E0,1.0469403E0,0E0,0E0,8.0246544E-1,1.5962381E0,0E0,5.587878E-1,0E0,0E0,0E0,7.9655266E-1,0E0,2.9050922E0,0E0,0E0,0E0,0E0],"parents":[2147483647,0,0,1,1,2,2,4,4,5,5,7,7,8,8,10,10,13,13,14,14,16,16,20,20,22,22],"right_children":[2,4,6,-1,8,10,-1,12,14,-1,16,-1,-1,18,20,-1,22,-1,-1,-1,24,-1,26,-1,-1,-1,-1],"split_conditions":[-3.866082E-3,-7.297721E-1,5.782864E-1,-6.2797844E-2,-7.1051425E-1,3.151774E-2,6.2620305E-2,-7.118818E-1,-4.996952E-1,4.6475936E-2,1.2442285E-1,6.8626604E-3,3.9940972E-2,-6.9716907E-1,-4.3960324E-1,-8.835489E-3,1.7980114E-1,-1.5609828E-2,-6.0832996E-2,1.2983664E-2,-3.0920034E-2,4.7276363E-2,2.1218082E-1,-2.4302885E-2,-5.4760855E-2,-2.8451502E-2,2.6935978E-2],"split_indices":[1,1,1,0,1,1,0,1,1,0,1,0,0,1,1,0,1,0,0,0,1,0,1,0,0,0,0],"split_type":[0,0,0,0,0,0,0,0,0,0,0,0,0,0,0,0,0,0,0,0,0,0,0,0,0,0,0],"sum_hessian":[1.4766782E2,7.466492E1,7.300291E1,3.845946E1,3.6205456E1,2.4188194E1,4.881471E1,2.8041344E0,3.340132E1,2.147482E0,2.2040712E1,1.4171557E0,1.3869786E0,1.735601E1,1.6045311E1,2.1062002E0,1.9934513E1,1.9266975E0,1.5429313E1,1.4243981E0,1.4620913E1,2.0510108E0,1.7883503E1,1.0858206E1,3.7627065E0,1.9167446E0,1.5966758E1],"tree_param":{"num_deleted":"0","num_feature":"3","num_nodes":"27","size_leaf_vector":"1"}},{"base_weights":[1.1927954E-2,1.3260593E-1,-7.131194E-2,5.2948374E-2,6.122975E-2,-6.661999E-2,1.4010257E-1,5.652103E-2,7.1777515E-2,-5.9822686E-2,1.3720554E-1,5.7328094E-2,3.4490917E-3],"categories":[],"categories_nodes":[],"categories_segments":[],"categories_sizes":[],"default_left":[0,0,0,0,0,0,0,0,0,0,0,0,0],"id":15,"left_children":[1,3,-1,-1,5,-1,7,-1,9,-1,11,-1,-1],"loss_changes":[2.5329844E1,8.832161E0,0E0,0E0,1.4035808E1,0E0,8.048607E0,0E0,9.579073E0,0E0,7.4126616E0,0E0,0E0],"parents":[2147483647,0,0,1,1,4,4,6,6,8,8,10,10],"right_children":[2,4,-1,-1,6,-1,8,-1,10,-1,12,-1,-1],"split_conditions":[9.495347E4,9.4863055E4,-7.131194E-2,5.2948374E-2,9.487079E4,-6.661999E-2,9.488451E4,5.652103E-2,9.488975E4,-5.9822686E-2,9.489475E4,5.7328094E-2,3.4490917E-3],"split_indices":[2,2,0,0,2,0,2,0,2,0,2,0,0],"split_type":[0,0,0,0,0,0,0,0,0,0,0,0,0],"sum_hessian":[1.4385728E2,1.3355809E2,1.0299195E1,8.5646515E0,1.2499345E2,5.843832E0,1.1914961E2,6.68668E0,1.1246293E2,4.66926E0,1.0779367E2,5.823926E0,1.0196975E2],"tree_param":{"num_deleted":"0","num_feature":"3","num_nodes":"13","size_leaf_vector":"1"}},{"base_weights":[6.148897E-3,1.1693424E-1,-6.9033965E-2,5.4549288E-2,4.5477774E-2,-6.484356E-2,1.1945485E-1,5.5189837E-2,5.618255E-2,-5.985961E-2,1.2846264E-1,5.550359E-2,3.4813897E-3],"categories":[],"categories_nodes":[],"categories_segments":[],"categories_sizes":[],"default_left":[0,0,0,0,0,0,0,0,0,0,0,0,0],"id":16,"left_children":[1,3,-1,-1,5,-1,7,-1,9,-1,11,-1,-1],"loss_changes":[2.2423813E1,9.353818E0,0E0,0E0,1.2757679E1,0E0,7.4864497E0,0E0,1.0566003E1,0E0,6.250633E0,0E0,0E0],"parents":[2147483647,0,0,1,1,4,4,6,6,8,8,10,10],"right_children":[2,4,-1,-1,6,-1,8,-1,10,-1,12,-1,-1],"split_conditions":[9.495347E4,9.4863055E4,-6.9033965E-2,5.4549288E-2,9.487079E4,-6.484356E-2,9.488151E4,5.5189837E-2,9.488975E4,-5.985961E-2,9.489475E4,5.550359E-2,3.4813897E-3],"split_indices":[2,2,0,0,2,0,2,0,2,0,2,0,0],"split_type":[0,0,0,0,0,0,0,0,0,0,0,0,0],"sum_hessian":[1.4389932E2,1.3410237E2,9.7969475E0,8.190231E0,1.2591214E2,5.713175E0,1.2019896E2,6.266372E0,1.13932594E2,5.363497E0,1.0856909E2,5.128973E0,1.03440125E2],"tree_param":{"num_deleted":"0","num_feature":"3","num_nodes":"13","size_leaf_vector":"1"}},{"base_weights":[3.816017E-2,-9.666747E-1,1.0064936E0,7.958911E-1,-1.1060699E0,1.1062673E0,-6.2193077E-2,-2.162881E-2,6.029601E-2,-6.315344E-2,-7.245087E-1,7.5347316E-1,6.2423047E-2,-5.91622E-2,-3.8356748E-1,6.344293E-2,1.7573029E-1,7.4006855E-2,-7.654015E-1,-7.729177E-1,5.9664674E-2,-4.8904207E-2,-6.9571896E-3,1.8710673E-2,-5.34466E-2],"categories":[],"categories_nodes":[],"categories_segments":[],"categories_sizes":[],"default_left":[0,0,0,0,0,0,0,0,0,0,0,0,0,0,0,0,0,0,0,0,0,0,0,0,0],"id":17,"left_children":[1,3,5,7,9,11,-1,-1,-1,-1,13,15,-1,-1,17,-1,19,-1,21,23,-1,-1,-1,-1,-1],"loss_changes":[1.4128403E2,1.8392715E1,1.7974136E1,3.4459193E0,3.0668793E0,2.636879E0,0E0,0E0,0E0,0E0,2.9436464E0,6.6281414E0,0E0,0E0,1.1053687E1,0E0,1.2514632E1,0E0,1.4928188E0,2.7164721E0,0E0,0E0,0E0,0E0,0E0],"parents":[2147483647,0,0,1,1,2,2,3,3,4,4,5,5,10,10,11,11,14,14,16,16,18,18,19,19],"right_children":[2,4,6,8,10,12,-1,-1,-1,-1,14,16,-1,-1,18,-1,20,-1,22,24,-1,-1,-1,-1,-1],"split_conditions":[-3.866082E-3,9.4863055E4,9.495347E4,-7.3808557E-1,-6.039443E-1,5.782864E-1,-6.2193077E-2,-2.162881E-2,6.029601E-2,-6.315344E-2,9.4900555E4,9.49287E4,6.2423047E-2,-5.91622E-2,9.490654E4,6.344293E-2,9.493964E4,7.4006855E-2,-1.4233811E-1,1.8304093E-1,5.9664674E-2,-4.8904207E-2,-6.9571896E-3,1.8710673E-2,-5.34466E-2],"split_indices":[1,2,2,1,1,1,0,0,0,0,2,2,0,0,2,0,2,0,1,1,0,0,0,0,0],"split_type":[0,0,0,0,0,0,0,0,0,0,0,0,0,0,0,0,0,0,0,0,0,0,0,0,0],"sum_hessian":[1.4320236E2,7.027747E1,7.292488E1,4.8054876E0,6.5471985E1,7.0315704E1,2.6091785E0,1.1887989E0,3.6166887E0,4.4749084E1,2.0722902E1,2.2008848E1,4.8306858E1,7.7818823E0,1.2941019E1,1.0999935E1,1.1008913E1,1.7114015E0,1.1229618E1,5.821811E0,5.1871023E0,7.9633894E0,3.2662284E0,1.1399682E0,4.681843E0],"tree_param":{"num_deleted":"0","num_feature":"3","num_nodes":"25","size_leaf_vector":"1"}},{"base_weights":[-9.710142E-3,1.06883876E-1,-6.73862E-2,9.6837205E-1,4.154527E-2,5.623578E-2,2.4866728E-2,-6.2129702E-2,1.1162921E-1,5.431785E-2,4.612872E-2,-5.8435556E-2,1.22536466E-1,7.271005E-4,3.2158908E-2],"categories":[],"categories_nodes":[],"categories_segments":[],"categories_sizes":[],"default_left":[0,0,0,0,0,0,0,0,0,0,0,0,0,0,0],"id":18,"left_children":[1,3,-1,5,7,-1,-1,-1,9,-1,11,-1,13,-1,-1],"loss_changes":[2.2270536E1,7.355529E0,0E0,1.194725E-1,1.1223938E1,0E0,0E0,0E0,7.4654636E0,0E0,1.0478864E1,0E0,5.931758E0,0E0,0E0],"parents":[2147483647,0,0,1,1,3,3,4,4,8,8,10,10,12,12],"right_children":[2,4,-1,6,8,-1,-1,-1,10,-1,12,-1,14,-1,-1],"split_conditions":[9.495347E4,9.4863055E4,-6.73862E-2,9.485564E4,9.487079E4,5.623578E-2,2.4866728E-2,-6.2129702E-2,9.488451E4,5.431785E-2,9.488975E4,-5.8435556E-2,9.494841E4,7.271005E-4,3.2158908E-2],"split_indices":[2,2,0,2,2,0,0,0,2,0,2,0,2,0,0],"split_type":[0,0,0,0,0,0,0,0,0,0,0,0,0,0,0],"sum_hessian":[1.4083244E2,1.3039038E2,1.0442051E1,8.217817E0,1.2217257E2,5.12802E0,3.0897975E0,5.4568744E0,1.167157E2,6.3679094E0,1.10347786E2,5.6837454E0,1.0466404E2,8.753497E1,1.7129068E1],"tree_param":{"num_deleted":"0","num_feature":"3","num_nodes":"15","size_leaf_vector":"1"}},{"base_weights":[2.680971E-2,-9.6966803E-1,9.793024E-1,8.092157E-1,-1.0988308E0,1.0683789E0,-5.788965E-2,1.8759565E-3,5.409677E-2,-1.2244867E0,-6.256243E-1,7.2259635E-1,6.0436428E-2,-7.550272E-1,-1.287545E0,-5.388167E-2,-2.0170952E-1,1.1627067E0,2.1428846E-1,-5.812044E-2,4.5715284E-2,-8.1082624E-1,-6.994285E-2,7.554749E-2,-8.657037E-1,2.2232711E-2,6.157753E-2,-6.645481E-1,5.7657845E-2,-6.1615605E-2,1.2105058E-2,-6.1913162E-2,-1.2238665E-2,1.8246656E-2,-4.7159985E-2],"categories":[],"categories_nodes":[],"categories_segments":[],"categories_sizes":[],"default_left":[0,0,0,0,0,0,0,0,0,0,0,0,0,0,0,0,0,0,0,0,0,0,0,0,0,0,0,0,0,0,0,0,0,0,0],"id":19,"left_children":[1,3,5,7,9,11,-1,-1,-1,13,15,17,-1,19,21,-1,23,25,27,-1,-1,29,-1,-1,31,-1,-1,33,-1,-1,-1,-1,-1,-1,-1],"loss_changes":[1.3228502E2,1.6542603E1,1.4799652E1,1.051198E0,3.0358887E0,2.471054E0,0E0,0E0,0E0,4.9261475E-1,2.7451367E0,4.7580976E0,0E0,6.691571E0,1.1052094E0,0E0,1.1780079E1,3.422165E-2,1.034796E1,0E0,0E0,4.8994274E0,0E0,0E0,1.3790879E0,0E0,0E0,2.2468257E0,0E0,0E0,0E0,0E0,0E0,0E0,0E0],"parents":[2147483647,0,0,1,1,2,2,3,3,4,4,5,5,9,9,10,10,11,11,13,13,14,14,16,16,17,17,18,18,21,21,24,24,27,27],"right_children":[2,4,6,8,10,12,-1,-1,-1,14,16,18,-1,20,22,-1,24,26,28,-1,-1,30,-1,-1,32,-1,-1,34,-1,-1,-1,-1,-1,-1,-1],"split_conditions":[-3.866082E-3,9.4863055E4,9.495347E4,-7.1647364E-1,-4.996952E-1,5.782864E-1,-5.788965E-2,1.8759565E-3,5.409677E-2,9.490057E4,9.4900555E4,9.49287E4,6.0436428E-2,9.489774E4,-9.5608467E-1,-5.388167E-2,9.493781E4,1.2442285E-1,9.493964E4,-5.812044E-2,4.5715284E-2,-9.6973515E-1,-6.994285E-2,7.554749E-2,-1.4233811E-1,2.2232711E-2,6.157753E-2,1.8304093E-1,5.7657845E-2,-6.1615605E-2,1.2105058E-2,-6.1913162E-2,-1.2238665E-2,1.8246656E-2,-4.7159985E-2],"split_indices":[1,2,2,1,1,1,0,0,0,2,2,2,0,2,1,0,2,1,2,0,0,1,0,0,1,0,0,1,0,0,0,0,0,0,0],"split_type":[0,0,0,0,0,0,0,0,0,0,0,0,0,0,0,0,0,0,0,0,0,0,0,0,0,0,0,0,0,0,0,0,0,0,0],"sum_hessian":[1.373734E2,6.712775E1,7.024566E1,4.187717E0,6.294003E1,6.791496E1,2.330694E0,1.3905488E0,2.797168E0,4.847917E1,1.4460855E1,2.138262E1,4.6532345E1,7.2769313E0,4.120224E1,6.2522E0,8.208654E0,1.0770095E1,1.0612524E1,6.0935407E0,1.1833906E0,9.367609E0,3.1834633E1,1.9369856E0,6.2716694E0,1.5948128E0,9.1752825E0,5.632424E0,4.9801006E0,6.5680547E0,2.7995539E0,3.29841E0,2.9732592E0,1.1338317E0,4.498592E0],"tree_param":{"num_deleted":"0","num_feature":"3","num_nodes":"35","size_leaf_vector":"1"}},{"base_weights":[-1.2128671E-2,9.6602336E-2,-6.4449765E-2,9.0948296E-1,3.6860567E-2,5.4127555E-2,2.0980125E-2,-5.9734076E-2,1.04079366E-1,5.2209076E-2,4.74299E-2,-5.5974603E-2,1.1755054E-1,4.0131528E-2,1.3029828E-3],"categories":[],"categories_nodes":[],"categories_segments":[],"categories_sizes":[],"default_left":[0,0,0,0,0,0,0,0,0,0,0,0,0,0,0],"id":20,"left_children":[1,3,-1,5,7,-1,-1,-1,9,-1,11,-1,13,-1,-1],"loss_changes":[1.8936949E1,6.075653E0,0E0,2.7236938E-1,9.911662E0,0E0,0E0,0E0,5.9700184E0,0E0,8.940368E0,0E0,6.4008865E0,0E0,0E0],"parents":[2147483647,0,0,1,1,3,3,4,4,8,8,10,10,12,12],"right_children":[2,4,-1,6,8,-1,-1,-1,10,-1,12,-1,14,-1,-1],"split_conditions":[9.495347E4,9.4863055E4,-6.4449765E-2,9.485564E4,9.487079E4,5.4127555E-2,2.0980125E-2,-5.9734076E-2,9.488451E4,5.2209076E-2,9.488975E4,-5.5974603E-2,9.490098E4,4.0131528E-2,1.3029828E-3],"split_indices":[2,2,0,2,2,0,0,0,2,0,2,0,2,0,0],"split_type":[0,0,0,0,0,0,0,0,0,0,0,0,0,0,0],"sum_hessian":[1.3450208E2,1.24799194E2,9.702876E0,7.570266E0,1.17228935E2,4.699994E0,2.870272E0,5.1992064E0,1.12029724E2,5.376357E0,1.06653366E2,5.197259E0,1.0145611E2,1.1037201E1,9.041891E1],"tree_param":{"num_deleted":"0","num_feature":"3","num_nodes":"15","size_leaf_vector":"1"}},{"base_weights":[-2.0194189E-3,1.04693376E-1,-6.323408E-2,1.3102734E-2,6.845161E-1,5.1363267E-2,-3.6889754E-2,5.2747857E-2,4.6696526E-1,-7.650878E-1,2.8267449E-2,-4.4509772E-2,7.662561E-1,1.4937545E-2,-5.8835525E-2,5.093471E-2,-4.0409695E-2,5.1810663E-2,4.0248337E-1,-5.4587312E-2,1.7485332E-3,-4.7087036E-2,5.3756326E-2],"categories":[],"categories_nodes":[],"categories_segments":[],"categories_sizes":[],"default_left":[0,0,0,0,0,0,0,0,0,0,0,0,0,0,0,0,0,0,0,0,0,0,0],"id":21,"left_children":[1,3,-1,5,7,-1,9,-1,11,13,15,-1,17,-1,-1,-1,19,-1,21,-1,-1,-1,-1],"loss_changes":[1.775029E1,6.442749E0,0E0,5.4087887E0,8.4137917E-1,0E0,4.857576E0,0E0,5.6468353E0,4.0326996E0,6.470116E0,0E0,6.191554E-1,0E0,0E0,0E0,7.119102E0,0E0,6.555089E0,0E0,0E0,0E0,0E0],"parents":[2147483647,0,0,1,1,3,3,4,4,6,6,8,8,9,9,10,10,12,12,16,16,18,18],"right_children":[2,4,-1,6,8,-1,10,-1,12,14,16,-1,18,-1,-1,-1,20,-1,22,-1,-1,-1,-1],"split_conditions":[9.495347E4,9.494841E4,-6.323408E-2,9.485564E4,9.495044E4,5.1363267E-2,9.487079E4,5.2747857E-2,9.495055E4,9.4863055E4,9.488451E4,-4.4509772E-2,9.495099E4,1.4937545E-2,-5.8835525E-2,5.093471E-2,9.488975E4,5.1810663E-2,9.4951E4,-5.4587312E-2,1.7485332E-3,-4.7087036E-2,5.3756326E-2],"split_indices":[2,2,0,2,2,0,2,0,2,2,2,0,2,0,0,0,2,0,2,0,0,0,0],"split_type":[0,0,0,0,0,0,0,0,0,0,0,0,0,0,0,0,0,0,0,0,0,0,0],"sum_hessian":[1.2975253E2,1.2048678E2,9.265749E0,1.04933716E2,1.5553066E1,4.0112805E0,1.0092243E2,4.330291E0,1.1222775E1,7.4063826E0,9.351605E1,1.6710236E0,9.551752E0,2.1427243E0,5.2636585E0,5.1670084E0,8.834904E1,4.4218E0,5.129952E0,5.0087266E0,8.334032E1,1.577461E0,3.552491E0],"tree_param":{"num_deleted":"0","num_feature":"3","num_nodes":"23","size_leaf_vector":"1"}},{"base_weights":[-1.5430746E-2,-9.26315E-1,9.297749E-1,-9.8015535E-1,-1.15733296E-1,4.2200682E-1,5.9180867E-2,-5.5666514E-2,-7.8227216E-1,3.631397E-2,-3.866804E-2,4.7624275E-1,-9.850155E-3,3.567262E-1,-9.242113E-1,3.8856104E-1,4.4722617E-2,1.9950327E-3,2.5120405E-2,-1.1405892E0,-7.1553713E-1,3.3560965E-2,2.2686139E-1,-1.6993217E-2,-6.1995406E-2,6.84797E-3,-4.255669E-2,-4.101703E-2,1.9679416E-2],"categories":[],"categories_nodes":[],"categories_segments":[],"categories_sizes":[],"default_left":[0,0,0,0,0,0,0,0,0,0,0,0,0,0,0,0,0,0,0,0,0,0,0,0,0,0,0,0,0],"id":22,"left_children":[1,3,5,7,9,11,-1,-1,13,-1,-1,15,-1,17,19,21,-1,-1,-1,23,25,-1,27,-1,-1,-1,-1,-1,-1],"loss_changes":[1.1435449E2,2.8380585E0,7.903076E0,7.9678726E-1,3.5220196E0,8.754506E-1,0E0,0E0,4.98897E0,0E0,0E0,4.48133E-1,0E0,1.6065425E-1,3.535385E-1,7.484057E-1,0E0,0E0,0E0,4.5612812E-1,1.951148E0,0E0,2.7752018E0,0E0,0E0,0E0,0E0,0E0,0E0],"parents":[2147483647,0,0,1,1,2,2,3,3,4,4,5,5,8,8,11,11,13,13,14,14,15,15,19,19,20,20,22,22],"right_children":[2,4,6,8,10,12,-1,-1,14,-1,-1,16,-1,18,20,22,-1,-1,-1,24,26,-1,28,-1,-1,-1,-1,-1,-1],"split_conditions":[-3.866082E-3,-1.4233811E-1,5.782864E-1,-7.297721E-1,-3.0920034E-2,5.553122E-1,5.9180867E-2,-5.5666514E-2,-7.065708E-1,3.631397E-2,-3.866804E-2,4.9600226E-1,-9.850155E-3,-7.118818E-1,-6.039443E-1,1.8304093E-1,4.4722617E-2,1.9950327E-3,2.5120405E-2,-6.9716907E-1,-5.8093697E-1,3.3560965E-2,2.1218082E-1,-1.6993217E-2,-6.1995406E-2,6.84797E-3,-4.255669E-2,-4.101703E-2,1.9679416E-2],"split_indices":[1,1,1,1,1,1,0,0,1,0,0,1,0,1,1,1,0,0,0,1,1,0,1,0,0,0,0,0,0],"split_type":[0,0,0,0,0,0,0,0,0,0,0,0,0,0,0,0,0,0,0,0,0,0,0,0,0,0,0,0,0],"sum_hessian":[1.3081975E2,6.662956E1,6.419019E1,6.2283382E1,4.3461795E0,2.2281786E1,4.19084E1,3.4463406E1,2.7819977E1,1.860123E0,2.4860563E0,2.0698849E1,1.5829382E0,2.9150195E0,2.4904957E1,1.8706049E1,1.992799E0,1.3194342E0,1.5955853E0,1.0034316E1,1.4870642E1,5.660397E0,1.3045652E1,1.5952344E0,8.439081E0,2.0393279E0,1.2831314E1,1.2533252E0,1.1792327E1],"tree_param":{"num_deleted":"0","num_feature":"3","num_nodes":"29","size_leaf_vector":"1"}},{"base_weights":[1.6875522E-2,-8.889127E-1,9.2912805E-1,-9.473924E-1,-1.2956576E-1,3.135843E-1,5.7579376E-2,-5.5016465E-2,-7.8197795E-1,3.8185447E-2,-4.056503E-2,6.1037296E-1,1.15118906E-1,-3.1178918E-1,-9.3163514E-1,4.155349E-2,3.7623882E-1,-3.774671E-2,2.6020813E-1,-3.7029937E-2,1.8263526E-1,-6.0960986E-2,-7.052888E-1,-8.631568E-3,3.793222E-2,3.41565E-2,1.5011464E-1,3.1156152E-2,-1.6814305E-2,6.6126036E-3,-4.1834865E-2,-9.970051E-3,1.317353E-2],"categories":[],"categories_nodes":[],"categories_segments":[],"categories_sizes":[],"default_left":[0,0,0,0,0,0,0,0,0,0,0,0,0,0,0,0,0,0,0,0,0,0,0,0,0,0,0,0,0,0,0,0,0],"id":23,"left_children":[1,3,5,7,9,11,-1,-1,13,-1,-1,15,17,19,21,-1,23,-1,25,-1,27,-1,29,-1,-1,-1,31,-1,-1,-1,-1,-1,-1],"loss_changes":[1.090206E2,2.8175125E0,8.638821E0,6.908264E-1,4.208322E0,1.0383804E0,0E0,0E0,2.0256195E0,0E0,0E0,6.505108E-2,1.775857E0,2.1387815E0,7.325802E-1,0E0,1.2589768E0,0E0,4.3137258E-1,0E0,1.3961782E0,0E0,1.8784537E0,0E0,0E0,0E0,4.6379822E-1,0E0,0E0,0E0,0E0,0E0,0E0],"parents":[2147483647,0,0,1,1,2,2,3,3,4,4,5,5,8,8,11,11,12,12,13,13,14,14,16,16,18,18,20,20,22,22,26,26],"right_children":[2,4,6,8,10,12,-1,-1,14,-1,-1,16,18,20,22,-1,24,-1,26,-1,28,-1,30,-1,-1,-1,32,-1,-1,-1,-1,-1,-1],"split_conditions":[-3.866082E-3,-1.4233811E-1,4.8551014E-1,-7.935971E-1,-3.0920034E-2,1.8304093E-1,5.7579376E-2,-5.5016465E-2,-6.9716907E-1,3.8185447E-2,-4.056503E-2,3.151774E-2,2.1218082E-1,-7.297721E-1,-6.039443E-1,4.155349E-2,1.2442285E-1,-3.774671E-2,2.1421695E-1,-3.7029937E-2,-7.1051425E-1,-6.0960986E-2,-5.8093697E-1,-8.631568E-3,3.793222E-2,3.41565E-2,2.574361E-1,3.1156152E-2,-1.6814305E-2,6.6126036E-3,-4.1834865E-2,-9.970051E-3,1.317353E-2],"split_indices":[1,1,1,1,1,1,0,0,1,0,0,1,1,1,1,0,1,0,1,0,1,0,1,0,0,0,1,0,0,0,0,0,0],"split_type":[0,0,0,0,0,0,0,0,0,0,0,0,0,0,0,0,0,0,0,0,0,0,0,0,0,0,0,0,0,0,0,0,0],"sum_hessian":[1.2993755E2,6.5212616E1,6.472492E1,6.0319572E1,4.8930435E0,1.7821781E1,4.6903145E1,2.8405144E1,3.1914429E1,2.065882E0,2.8271613E0,6.3100934E0,1.1511688E1,8.449955E0,2.3464474E1,1.9358238E0,4.37427E0,1.0445598E0,1.0467129E1,4.258606E0,4.1913486E0,8.402342E0,1.5062131E1,2.0214412E0,2.3528285E0,1.0868845E0,9.380244E0,2.1583893E0,2.0329592E0,2.0418482E0,1.3020283E1,2.1113012E0,7.268943E0],"tree_param":{"num_deleted":"0","num_feature":"3","num_nodes":"33","size_leaf_vector":"1"}},{"base_weights":[-3.728315E-3,-8.7269783E-1,8.77691E-1,-5.390616E-2,-6.3329154E-1,3.7871152E-1,5.772341E-2,4.0418047E-1,-7.6126677E-1,3.7123848E-2,3.0515188E-1,1.0624814E-3,2.8525455E-2,-8.591716E-1,-1.8706648E-1,-8.332491E-3,3.6191878E-1,-1.0871179E0,-6.499086E-1,3.7154466E-2,-4.7617737E-2,3.8688872E-2,2.8749722E-1,-1.6013293E-2,-5.953467E-2,-1.4780459E-2,-4.1394435E-2,-1.8854806E-2,1.8890526E-2],"categories":[],"categories_nodes":[],"categories_segments":[],"categories_sizes":[],"default_left":[0,0,0,0,0,0,0,0,0,0,0,0,0,0,0,0,0,0,0,0,0,0,0,0,0,0,0,0,0],"id":24,"left_children":[1,3,5,-1,7,9,-1,11,13,-1,15,-1,-1,17,19,-1,21,23,25,-1,-1,-1,27,-1,-1,-1,-1,-1,-1],"loss_changes":[9.802422E1,2.4865723E0,8.337715E0,0E0,4.5807867E0,4.1984487E-1,0E0,2.545731E-1,1.469389E0,0E0,6.4395666E-1,0E0,0E0,4.6187782E-1,4.624397E0,0E0,3.8341236E-1,4.3179035E-1,7.173557E-1,0E0,0E0,0E0,1.2428315E0,0E0,0E0,0E0,0E0,0E0,0E0],"parents":[2147483647,0,0,1,1,2,2,4,4,5,5,7,7,8,8,10,10,13,13,14,14,16,16,17,17,18,18,22,22],"right_children":[2,4,6,-1,8,10,-1,12,14,-1,16,-1,-1,18,20,-1,22,24,26,-1,-1,-1,28,-1,-1,-1,-1,-1,-1],"split_conditions":[-1.4236191E-2,-7.297721E-1,5.782864E-1,-5.390616E-2,-7.065708E-1,3.151774E-2,5.772341E-2,-7.118818E-1,-1.4233811E-1,3.7123848E-2,1.2442285E-1,1.0624814E-3,2.8525455E-2,-6.039443E-1,-3.0920034E-2,-8.332491E-3,1.7980114E-1,-6.9716907E-1,-4.5363173E-1,3.7154466E-2,-4.7617737E-2,3.8688872E-2,2.1218082E-1,-1.6013293E-2,-5.953467E-2,-1.4780459E-2,-4.1394435E-2,-1.8854806E-2,1.8890526E-2],"split_indices":[1,1,1,0,1,1,0,1,1,0,1,0,0,1,1,0,1,1,1,0,0,0,1,0,0,0,0,0,0],"split_type":[0,0,0,0,0,0,0,0,0,0,0,0,0,0,0,0,0,0,0,0,0,0,0,0,0,0,0,0,0],"sum_hessian":[1.2598118E2,6.3443596E1,6.253758E1,3.225957E1,3.1184027E1,2.3157343E1,3.9380238E1,3.187256E0,2.799677E1,2.3655827E0,2.0791761E1,1.3066869E0,1.8805692E0,2.3494513E1,4.5022573E0,2.0250943E0,1.8766666E1,9.237403E0,1.4257111E1,2.0453188E0,2.4569387E0,1.4339237E0,1.7332743E1,1.5861285E0,7.651274E0,5.6569357E0,8.600175E0,1.6937115E0,1.5639031E1],"tree_param":{"num_deleted":"0","num_feature":"3","num_nodes":"29","size_leaf_vector":"1"}},{"base_weights":[1.0384368E-3,-8.425826E-1,8.801267E-1,-5.29547E-2,-6.027394E-1,3.3247644E-1,5.7248484E-2,3.712363E-2,-7.460813E-1,3.8912615E-1,-1.2085552E-2,-8.499882E-1,-1.9995771E-1,2.0121105E-1,5.7922167E-1,-1.0690632E0,-6.5263796E-1,3.6163162E-2,-4.1548193E-2,5.3101605E-1,-1.21544205E-1,4.0470374E-1,4.2037774E-2,-1.5550266E-2,-5.8542956E-2,7.2389166E-3,-3.756049E-2,3.9136562E-2,1.218587E-2,-2.7965775E-2,5.364227E-3,2.6719103E-2,-1.0099709E-2],"categories":[],"categories_nodes":[],"categories_segments":[],"categories_sizes":[],"default_left":[0,0,0,0,0,0,0,0,0,0,0,0,0,0,0,0,0,0,0,0,0,0,0,0,0,0,0,0,0,0,0,0,0],"id":25,"left_children":[1,3,5,-1,7,9,-1,-1,11,13,-1,15,17,19,21,23,25,-1,-1,27,29,31,-1,-1,-1,-1,-1,-1,-1,-1,-1,-1,-1],"loss_changes":[9.350511E1,2.702732E0,8.574589E0,0E0,6.887477E0,7.945409E-1,0E0,0E0,1.542736E0,5.9733295E-1,0E0,3.8529968E-1,4.1733446E0,1.2974164E0,8.888507E-2,4.3100166E-1,1.3463984E0,0E0,0E0,2.3697472E-1,7.279072E-1,7.033098E-1,0E0,0E0,0E0,0E0,0E0,0E0,0E0,0E0,0E0,0E0,0E0],"parents":[2147483647,0,0,1,1,2,2,4,4,5,5,8,8,9,9,11,11,12,12,13,13,14,14,15,15,16,16,19,19,20,20,21,21],"right_children":[2,4,6,-1,8,10,-1,-1,12,14,-1,16,18,20,22,24,26,-1,-1,28,30,32,-1,-1,-1,-1,-1,-1,-1,-1,-1,-1,-1],"split_conditions":[-3.866082E-3,-7.297721E-1,5.782864E-1,-5.29547E-2,-7.065708E-1,5.553122E-1,5.7248484E-2,3.712363E-2,-1.4233811E-1,2.8455818E-1,-1.2085552E-2,-6.039443E-1,-3.0920034E-2,1.7980114E-1,4.9600226E-1,-6.9716907E-1,-5.8093697E-1,3.6163162E-2,-4.1548193E-2,3.151774E-2,2.1218082E-1,4.5719567E-1,4.2037774E-2,-1.5550266E-2,-5.8542956E-2,7.2389166E-3,-3.756049E-2,3.9136562E-2,1.218587E-2,-2.7965775E-2,5.364227E-3,2.6719103E-2,-1.0099709E-2],"split_indices":[1,1,1,0,1,1,0,0,1,1,0,1,1,1,1,1,1,0,0,1,1,1,0,0,0,0,0,0,0,0,0,0,0],"split_type":[0,0,0,0,0,0,0,0,0,0,0,0,0,0,0,0,0,0,0,0,0,0,0,0,0,0,0,0,0,0,0,0,0],"sum_hessian":[1.2408274E2,6.3339874E1,6.0742867E1,3.1493898E1,3.1845978E1,2.0535112E1,4.0207756E1,2.66415E0,2.9181828E1,1.89844E1,1.5507121E0,2.4049667E1,5.132159E0,1.0582127E1,8.402274E0,9.304183E0,1.4745485E1,2.0242646E0,3.1078947E0,4.9147587E0,5.667368E0,6.5673766E0,1.834897E0,1.5815818E0,7.722601E0,1.5706494E0,1.3174835E1,1.7004591E0,3.2142997E0,1.4496996E0,4.217668E0,5.5090446E0,1.0583318E0],"tree_param":{"num_deleted":"0","num_feature":"3","num_nodes":"33","size_leaf_vector":"1"}},{"base_weights":[1.6949767E-2,1.2295567E-1,-6.060002E-2,9.014626E-1,6.1288178E-2,5.177475E-2,2.3258602E-2,-5.4410256E-2,1.1946514E-1,4.879317E-2,6.762401E-2,-5.1325586E-2,1.338011E-1,5.0595947E-2,3.8178887E-3],"categories":[],"categories_nodes":[],"categories_segments":[],"categories_sizes":[],"default_left":[0,0,0,0,0,0,0,0,0,0,0,0,0,0,0],"id":26,"left_children":[1,3,-1,5,7,-1,-1,-1,9,-1,11,-1,13,-1,-1],"loss_changes":[1.6072504E1,5.3904037E0,0E0,9.1028214E-4,7.230562E0,0E0,0E0,0E0,4.460882E0,0E0,7.1766415E0,0E0,4.5915785E0,0E0,0E0],"parents":[2147483647,0,0,1,1,3,3,4,4,8,8,10,10,12,12],"right_children":[2,4,-1,6,8,-1,-1,-1,10,-1,12,-1,14,-1,-1],"split_conditions":[9.495347E4,9.4863055E4,-6.060002E-2,9.485564E4,9.487079E4,5.177475E-2,2.3258602E-2,-5.4410256E-2,9.488451E4,4.879317E-2,9.488975E4,-5.1325586E-2,9.489475E4,5.0595947E-2,3.8178887E-3],"split_indices":[2,2,0,2,2,0,0,0,2,0,2,0,2,0,0],"split_type":[0,0,0,0,0,0,0,0,0,0,0,0,0,0,0],"sum_hessian":[1.2122887E2,1.1243083E2,8.798028E0,7.2526994E0,1.0517814E2,4.4975915E0,2.7551076E0,4.213829E0,1.0096431E2,4.745535E0,9.621877E1,4.660075E0,9.155869E1,4.6014752E0,8.695722E1],"tree_param":{"num_deleted":"0","num_feature":"3","num_nodes":"15","size_leaf_vector":"1"}},{"base_weights":[7.1527194E-3,1.0312734E-1,-5.9791725E-2,4.7394734E-2,4.0121626E-2,-5.373748E-2,9.7575895E-2,4.7844153E-2,4.888437E-2,-5.0275136E-2,1.0953558E-1,5.001987E-2,2.5955925E-3],"categories":[],"categories_nodes":[],"categories_segments":[],"categories_sizes":[],"default_left":[0,0,0,0,0,0,0,0,0,0,0,0,0],"id":27,"left_children":[1,3,-1,-1,5,-1,7,-1,9,-1,11,-1,-1],"loss_changes":[1.4016427E1,5.9424543E0,0E0,0E0,6.869464E0,0E0,4.193746E0,0E0,6.3112006E0,0E0,4.701407E0,0E0,0E0],"parents":[2147483647,0,0,1,1,4,4,6,6,8,8,10,10],"right_children":[2,4,-1,-1,6,-1,8,-1,10,-1,12,-1,-1],"split_conditions":[9.495347E4,9.4863055E4,-5.9791725E-2,4.7394734E-2,9.487079E4,-5.373748E-2,9.488451E4,4.7844153E-2,9.488975E4,-5.0275136E-2,9.489475E4,5.001987E-2,2.5955925E-3],"split_indices":[2,2,0,0,2,0,2,0,2,0,2,0,0],"split_type":[0,0,0,0,0,0,0,0,0,0,0,0,0],"sum_hessian":[1.1933221E2,1.1136199E2,7.9702134E0,6.7545004E0,1.0460749E2,4.25893E0,1.00348564E2,4.3809905E0,9.596757E1,4.372673E0,9.1594894E1,4.5707245E0,8.702417E1],"tree_param":{"num_deleted":"0","num_feature":"3","num_nodes":"13","size_leaf_vector":"1"}},{"base_weights":[-1.5597904E-2,8.026656E-2,-5.894767E-2,8.3028185E-1,2.6995659E-2,4.9183402E-2,2.07649E-2,-5.3272843E-2,8.3853476E-2,4.741115E-2,3.518632E-2,-4.8703484E-2,8.791149E-2,3.572821E-2,1.2840812E-4],"categories":[],"categories_nodes":[],"categories_segments":[],"categories_sizes":[],"default_left":[0,0,0,0,0,0,0,0,0,0,0,0,0,0,0],"id":28,"left_children":[1,3,-1,5,7,-1,-1,-1,9,-1,11,-1,13,-1,-1],"loss_changes":[1.358686E1,4.480643E0,0E0,6.510162E-2,6.6899633E0,0E0,0E0,0E0,4.254691E0,0E0,5.276074E0,0E0,5.004756E0,0E0,0E0],"parents":[2147483647,0,0,1,1,3,3,4,4,8,8,10,10,12,12],"right_children":[2,4,-1,6,8,-1,-1,-1,10,-1,12,-1,14,-1,-1],"split_conditions":[9.495347E4,9.4863055E4,-5.894767E-2,9.485564E4,9.487079E4,4.9183402E-2,2.07649E-2,-5.3272843E-2,9.488451E4,4.741115E-2,9.488975E4,-4.8703484E-2,9.490098E4,3.572821E-2,1.2840812E-4],"split_indices":[2,2,0,2,2,0,0,0,2,0,2,0,2,0,0],"split_type":[0,0,0,0,0,0,0,0,0,0,0,0,0,0,0],"sum_hessian":[1.1998002E2,1.1170606E2,8.273956E0,6.440633E0,1.05265434E2,3.7019448E0,2.738688E0,4.3300433E0,1.0093539E2,4.3948755E0,9.654051E1,3.9254656E0,9.261504E1,1.0217551E1,8.239749E1],"tree_param":{"num_deleted":"0","num_feature":"3","num_nodes":"15","size_leaf_vector":"1"}},{"base_weights":[1.7901178E-2,-8.2577366E-1,8.349749E-1,6.5946335E-1,-9.331557E-1,9.334111E-1,-5.1478475E-2,7.3577184E-4,4.6247937E-2,-1.0269895E0,-3.4095195E-1,4.9777782E-1,5.7588022E-2,-8.6104876E-1,-1.1832565E0,9.365829E-2,-6.6895986E-1,1.0710883E0,-5.578285E-2,-1.1169466E0,1.07758224E-1,-6.3190304E-2,5.17432E-4,-6.364529E-1,6.0970318E-2,-5.0973423E-2,-3.4566596E-3,1.2964542E-2,5.728395E-2,-1.0139662E0,5.5960383E-2,-4.0492143E-2,-6.45925E-2,-3.867573E-2,-1.02446815E-2,1.8303405E-2,-6.762591E-2],"categories":[],"categories_nodes":[],"categories_segments":[],"categories_sizes":[],"default_left":[0,0,0,0,0,0,0,0,0,0,0,0,0,0,0,0,0,0,0,0,0,0,0,0,0,0,0,0,0,0,0,0,0,0,0,0,0],"id":29,"left_children":[1,3,5,7,9,11,-1,-1,-1,13,15,17,-1,19,21,23,25,27,29,31,-1,-1,-1,33,-1,-1,-1,-1,-1,35,-1,-1,-1,-1,-1,-1,-1],"loss_changes":[8.0378876E1,9.766441E0,1.1830891E1,7.4891806E-1,2.646286E0,4.827469E0,0E0,0E0,0E0,1.7530441E-1,1.3274653E0,6.6349063E0,0E0,2.2480059E1,2.0363731E0,4.633601E0,1.0184038E0,3.2220936E-1,1.4072205E1,2.7683258E-1,0E0,0E0,0E0,4.877186E-2,0E0,0E0,0E0,0E0,0E0,3.6974826E0,0E0,0E0,0E0,0E0,0E0,0E0,0E0],"parents":[2147483647,0,0,1,1,2,2,3,3,4,4,5,5,9,9,10,10,11,11,13,13,14,14,15,15,16,16,17,17,18,18,19,19,23,23,29,29],"right_children":[2,4,6,8,10,12,-1,-1,-1,14,16,18,-1,20,22,24,26,28,30,32,-1,-1,-1,34,-1,-1,-1,-1,-1,36,-1,-1,-1,-1,-1,-1,-1],"split_conditions":[-1.4236191E-2,9.4863055E4,9.495347E4,-7.1647364E-1,-3.7407574E-1,5.782864E-1,-5.1478475E-2,7.3577184E-4,4.6247937E-2,9.4928695E4,9.49287E4,9.49287E4,5.7588022E-2,9.492801E4,-5.3705317E-1,9.4900555E4,-1.4233811E-1,1.2442285E-1,9.493964E4,9.490654E4,1.07758224E-1,-6.3190304E-2,5.17432E-4,-1.9371192E-1,6.0970318E-2,-5.0973423E-2,-3.4566596E-3,1.2964542E-2,5.728395E-2,1.8304093E-1,5.5960383E-2,-4.0492143E-2,-6.45925E-2,-3.867573E-2,-1.02446815E-2,1.8303405E-2,-6.762591E-2],"split_indices":[1,2,2,1,1,1,0,0,0,2,2,2,0,2,1,2,1,1,2,2,0,0,0,1,0,0,0,0,0,1,0,0,0,0,0,0,0],"split_type":[0,0,0,0,0,0,0,0,0,0,0,0,0,0,0,0,0,0,0,0,0,0,0,0,0,0,0,0,0,0,0,0,0,0,0,0,0],"sum_hessian":[1.1460168E2,5.637778E1,5.82239E1,3.45461E0,5.292317E1,5.5778534E1,2.4453669E0,1.3154655E0,2.1391447E0,4.505076E1,7.8724103E0,1.9718159E1,3.606037E1,2.5006416E1,2.0044342E1,3.6932797E0,4.17913E0,9.227027E0,1.0491133E1,2.3631212E1,1.3752038E0,1.8722082E1,1.3222604E0,2.5039601E0,1.1893196E0,2.196185E0,1.9829452E0,1.1531423E0,8.073884E0,5.85419E0,4.6369424E0,1.061795E1,1.3013263E1,1.2990233E0,1.204937E0,1.1372318E0,4.716958E0],"tree_param":{"num_deleted":"0","num_feature":"3","num_nodes":"37","size_leaf_vector":"1"}},{"base_weights":[-2.6423106E-2,-7.8567857E-1,8.035045E-1,-8.424851E-1,-5.5720285E-2,2.506446E-1,5.558178E-2,-4.911172E-2,-6.4409614E-1,3.5122424E-2,-3.4462884E-2,3.7802964E-2,1.683764E-1,3.2444382E-1,-7.797853E-1,-1.12579E-1,3.2845446E-1,-2.0655855E-3,2.5451973E-2,-1.0153433E0,-5.7728684E-1,1.7895456E-1,-3.7654653E-1,4.3002197E-1,-1.2299855E-2,-1.4007838E-2,-5.600834E-2,2.7884317E-3,-3.3284377E-2,-1.2659495E-2,2.855332E-2,-3.5995316E-2,-2.305777E-3,1.3275066E-2,4.103337E-2],"categories":[],"categories_nodes":[],"categories_segments":[],"categories_sizes":[],"default_left":[0,0,0,0,0,0,0,0,0,0,0,0,0,0,0,0,0,0,0,0,0,0,0,0,0,0,0,0,0,0,0,0,0,0,0],"id":30,"left_children":[1,3,5,7,9,11,-1,-1,13,-1,-1,-1,15,17,19,21,23,-1,-1,25,27,29,31,33,-1,-1,-1,-1,-1,-1,-1,-1,-1,-1,-1],"loss_changes":[7.297511E1,2.4602242E0,9.1497E0,9.206581E-1,3.095415E0,7.499517E-1,0E0,0E0,3.6778002E0,0E0,0E0,0E0,9.108931E-1,2.849162E-1,5.181837E-1,6.6744626E-1,8.42906E-1,0E0,0E0,4.093752E-1,8.6353207E-1,8.873069E-1,4.676425E-1,4.9546623E-1,0E0,0E0,0E0,0E0,0E0,0E0,0E0,0E0,0E0,0E0,0E0],"parents":[2147483647,0,0,1,1,2,2,3,3,4,4,5,5,8,8,12,12,13,13,14,14,15,15,16,16,19,19,20,20,21,21,22,22,23,23],"right_children":[2,4,6,8,10,12,-1,-1,14,-1,-1,-1,16,18,20,22,24,-1,-1,26,28,30,32,34,-1,-1,-1,-1,-1,-1,-1,-1,-1,-1,-1],"split_conditions":[-3.866082E-3,-1.4233811E-1,5.782864E-1,-7.297721E-1,-3.0920034E-2,3.151774E-2,5.558178E-2,-4.911172E-2,-7.065708E-1,3.5122424E-2,-3.4462884E-2,3.7802964E-2,2.574361E-1,-7.118818E-1,-6.039443E-1,1.8304093E-1,5.553122E-1,-2.0655855E-3,2.5451973E-2,-6.9716907E-1,-5.8093697E-1,1.2442285E-1,2.1218082E-1,4.9600226E-1,-1.2299855E-2,-1.4007838E-2,-5.600834E-2,2.7884317E-3,-3.3284377E-2,-1.2659495E-2,2.855332E-2,-3.5995316E-2,-2.305777E-3,1.3275066E-2,4.103337E-2],"split_indices":[1,1,1,1,1,1,0,0,1,0,0,0,1,1,1,1,1,0,0,1,1,1,1,1,0,0,0,0,0,0,0,0,0,0,0],"split_type":[0,0,0,0,0,0,0,0,0,0,0,0,0,0,0,0,0,0,0,0,0,0,0,0,0,0,0,0,0,0,0,0,0,0,0],"sum_hessian":[1.1380828E2,5.946256E1,5.4345726E1,5.5026176E1,4.4363804E0,2.0098215E1,3.4247513E1,2.9966267E1,2.505991E1,1.9700294E0,2.4663513E0,1.6669753E0,1.843124E1,2.9084582E0,2.2151453E1,6.797525E0,1.1633715E1,1.2358882E0,1.6725699E0,8.384284E0,1.3767168E1,3.3831415E0,3.4143834E0,1.0099471E1,1.5342433E0,1.5045648E0,6.8797193E0,1.7321336E0,1.2035035E1,1.7779565E0,1.605185E0,1.0963979E0,2.3179855E0,8.288437E0,1.8110343E0],"tree_param":{"num_deleted":"0","num_feature":"3","num_nodes":"35","size_leaf_vector":"1"}},{"base_weights":[-7.843759E-3,-8.245778E-1,8.0341536E-1,6.4135194E-1,-9.5339173E-1,8.846826E-1,-4.7193345E-2,-1.8479956E-2,5.164052E-2,-1.0359689E0,-3.6734802E-1,4.7251025E-1,5.5055775E-2,-7.130076E-1,-1.1100582E0,1.4875193E-1,-6.450539E-1,1.0288563E0,-5.1348642E-3,-5.5460602E-2,2.1104038E-2,-1.2218349E0,-7.522976E-1,1.9396316E-2,-8.897145E-3,-5.0858166E-2,-3.274263E-3,1.4668574E-2,5.528152E-2,-7.7373904E-1,5.3187955E-2,-2.1334503E-2,-6.3202925E-2,-5.4876626E-2,-1.9192426E-2,2.148657E-2,-5.492788E-2],"categories":[],"categories_nodes":[],"categories_segments":[],"categories_sizes":[],"default_left":[0,0,0,0,0,0,0,0,0,0,0,0,0,0,0,0,0,0,0,0,0,0,0,0,0,0,0,0,0,0,0,0,0,0,0,0,0],"id":31,"left_children":[1,3,5,7,9,11,-1,-1,-1,13,15,17,-1,19,21,23,25,27,29,-1,-1,31,33,-1,-1,-1,-1,-1,-1,35,-1,-1,-1,-1,-1,-1,-1],"loss_changes":[7.355729E1,1.1057014E1,8.744179E0,2.3865638E0,2.0996552E0,4.2737503E0,0E0,0E0,0E0,2.7023697E-1,1.2252105E0,5.387712E0,0E0,5.449103E0,4.522972E-1,3.4790182E-1,1.0785668E0,2.0424938E-1,1.0594064E1,0E0,0E0,2.841835E-1,9.4824696E-1,0E0,0E0,0E0,0E0,0E0,0E0,3.4028769E0,0E0,0E0,0E0,0E0,0E0,0E0,0E0],"parents":[2147483647,0,0,1,1,2,2,3,3,4,4,5,5,9,9,10,10,11,11,13,13,14,14,15,15,16,16,17,17,18,18,21,21,22,22,29,29],"right_children":[2,4,6,8,10,12,-1,-1,-1,14,16,18,-1,20,22,24,26,28,30,-1,-1,32,34,-1,-1,-1,-1,-1,-1,36,-1,-1,-1,-1,-1,-1,-1],"split_conditions":[-3.866082E-3,9.4863055E4,9.495347E4,-7.3808557E-1,-3.4877786E-1,5.782864E-1,-4.7193345E-2,-1.8479956E-2,5.164052E-2,-9.5608467E-1,9.49287E4,9.49287E4,5.5055775E-2,-9.6973515E-1,-5.8947974E-1,-1.9371192E-1,-6.311576E-2,1.2442285E-1,9.493964E4,-5.5460602E-2,2.1104038E-2,9.490057E4,9.4900555E4,1.9396316E-2,-8.897145E-3,-5.0858166E-2,-3.274263E-3,1.4668574E-2,5.528152E-2,1.8304093E-1,5.3187955E-2,-2.1334503E-2,-6.3202925E-2,-5.4876626E-2,-1.9192426E-2,2.148657E-2,-5.492788E-2],"split_indices":[1,2,2,1,1,1,0,0,0,1,2,2,0,1,1,1,1,1,2,0,0,2,2,0,0,0,0,0,0,1,0,0,0,0,0,0,0],"split_type":[0,0,0,0,0,0,0,0,0,0,0,0,0,0,0,0,0,0,0,0,0,0,0,0,0,0,0,0,0,0,0,0,0,0,0,0,0],"sum_hessian":[1.0901613E2,5.4316574E1,5.4699554E1,4.0659785E0,5.0250595E1,5.2740253E1,1.9593017E0,1.150535E0,2.9154434E0,4.337154E1,6.8790536E0,1.92548E1,3.348545E1,1.007544E1,3.32961E1,2.5690258E0,4.3100276E0,8.361532E0,1.0893269E1,7.485434E0,2.590006E0,2.3529453E1,9.766647E0,1.374975E0,1.1940508E0,2.1649783E0,2.1450493E0,1.2460245E0,7.1155076E0,6.4973693E0,4.3958993E0,1.7464372E0,2.1783016E1,4.020588E0,5.74606E0,1.3122865E0,5.185083E0],"tree_param":{"num_deleted":"0","num_feature":"3","num_nodes":"37","size_leaf_vector":"1"}},{"base_weights":[2.3791362E-2,-7.3573613E-1,8.004147E-1,6.512348E-1,-8.579709E-1,8.9728093E-1,-4.930943E-2,-1.803784E-2,5.14066E-2,-9.7256047E-1,-2.3027754E-1,5.24299E-1,5.4592606E-2,-8.06867E-1,-1.1328936E0,5.731978E-2,-4.220006E-2,1.0294086E0,6.2260654E-2,-1.0661312E0,1.04583144E-1,-6.0684808E-2,-4.347533E-3,-3.0062175E-1,3.469781E-2,1.432969E-2,5.525461E-2,-7.526187E-1,5.4401178E-2,-3.776006E-2,-6.1970185E-2,1.4824468E-2,-4.6453495E-2,1.4270169E-2,-4.9274135E-2],"categories":[],"categories_nodes":[],"categories_segments":[],"categories_sizes":[],"default_left":[0,0,0,0,0,0,0,0,0,0,0,0,0,0,0,0,0,0,0,0,0,0,0,0,0,0,0,0,0,0,0,0,0,0,0],"id":32,"left_children":[1,3,5,7,9,11,-1,-1,-1,13,15,17,-1,19,21,23,-1,25,27,29,-1,-1,-1,31,-1,-1,-1,33,-1,-1,-1,-1,-1,-1,-1],"loss_changes":[6.633457E1,1.0200346E1,1.0505028E1,2.3445823E0,3.566307E0,3.2921753E0,0E0,0E0,0E0,2.6148224E-1,1.7154946E0,4.645549E0,0E0,2.1194818E1,1.5859756E0,1.8875704E0,0E0,2.216587E-1,1.0518167E1,3.4768677E-1,0E0,0E0,0E0,2.3070385E0,0E0,0E0,0E0,1.9872417E0,0E0,0E0,0E0,0E0,0E0,0E0,0E0],"parents":[2147483647,0,0,1,1,2,2,3,3,4,4,5,5,9,9,10,10,11,11,13,13,14,14,15,15,17,17,18,18,19,19,23,23,27,27],"right_children":[2,4,6,8,10,12,-1,-1,-1,14,16,18,-1,20,22,24,-1,26,28,30,-1,-1,-1,32,-1,-1,-1,34,-1,-1,-1,-1,-1,-1,-1],"split_conditions":[-1.4236191E-2,9.4863055E4,9.495347E4,-7.3808557E-1,-3.7407574E-1,5.782864E-1,-4.930943E-2,-1.803784E-2,5.14066E-2,9.4928695E4,-3.0920034E-2,9.49287E4,5.4592606E-2,9.492801E4,-5.3705317E-1,-1.4233811E-1,-4.220006E-2,1.2442285E-1,9.493964E4,9.490654E4,1.04583144E-1,-6.0684808E-2,-4.347533E-3,9.49287E4,3.469781E-2,1.432969E-2,5.525461E-2,1.8304093E-1,5.4401178E-2,-3.776006E-2,-6.1970185E-2,1.4824468E-2,-4.6453495E-2,1.4270169E-2,-4.9274135E-2],"split_indices":[1,2,2,1,1,1,0,0,0,2,1,2,0,2,1,1,0,1,2,2,0,0,0,2,0,0,0,1,0,0,0,0,0,0,0],"split_type":[0,0,0,0,0,0,0,0,0,0,0,0,0,0,0,0,0,0,0,0,0,0,0,0,0,0,0,0,0,0,0,0,0,0,0],"sum_hessian":[1.1045852E2,5.5870525E1,5.4587997E1,4.1745934E0,5.169593E1,5.2252728E1,2.335271E0,1.1444638E0,3.0301297E0,4.3250793E1,8.445137E0,1.9180136E1,3.307259E1,2.4236471E1,1.901432E1,6.3677473E0,2.0773897E0,8.576339E0,1.0603797E1,2.2826864E1,1.4096079E0,1.750186E1,1.5124625E0,4.4138865E0,1.9538608E0,1.2356349E0,7.340704E0,6.0577364E0,4.54606E0,1.0086154E1,1.274071E1,2.534237E0,1.8796498E0,1.0686163E0,4.9891205E0],"tree_param":{"num_deleted":"0","num_feature":"3","num_nodes":"35","size_leaf_vector":"1"}},{"base_weights":[1.0364056E-2,-7.15153E-1,7.831307E-1,5.0546026E-1,-8.0286866E-1,8.549558E-1,-4.286074E-2,-1.7607601E-2,4.635588E-2,-9.254822E-1,-1.6235304E-1,4.677213E-1,5.3916283E-2,-9.97635E-1,-5.955432E-1,-3.3129346E-2,1.2501381E-1,1.0114516E0,-5.797751E-3,-7.607398E-1,-5.9032824E-2,5.049094E-3,-7.4603474E-1,6.422525E-2,-4.1789532E-1,1.3998683E-2,5.4386504E-2,-7.54544E-1,5.172289E-2,-5.6716856E-2,9.887264E-2,-4.925592E-2,-1.1189511E-4,-4.3646775E-2,4.5087395E-4,1.6414257E-2,-4.991926E-2],"categories":[],"categories_nodes":[],"categories_segments":[],"categories_sizes":[],"default_left":[0,0,0,0,0,0,0,0,0,0,0,0,0,0,0,0,0,0,0,0,0,0,0,0,0,0,0,0,0,0,0,0,0,0,0,0,0],"id":33,"left_children":[1,3,5,7,9,11,-1,-1,-1,13,15,17,-1,19,21,-1,23,25,27,29,-1,-1,31,-1,33,-1,-1,35,-1,-1,-1,-1,-1,-1,-1,-1,-1],"loss_changes":[5.9581882E1,6.2751293E0,6.7950687E0,1.8774513E0,3.8967018E0,3.802822E0,0E0,0E0,0E0,4.3043137E-1,1.4473419E0,5.15063E0,0E0,5.687599E-1,1.1449304E0,0E0,4.861513E0,2.1477127E-1,9.874073E0,2.0204834E1,0E0,0E0,1.511169E0,0E0,1.0634365E0,0E0,0E0,2.2729092E0,0E0,0E0,0E0,0E0,0E0,0E0,0E0,0E0,0E0],"parents":[2147483647,0,0,1,1,2,2,3,3,4,4,5,5,9,9,10,10,11,11,13,13,14,14,16,16,17,17,18,18,19,19,22,22,24,24,27,27],"right_children":[2,4,6,8,10,12,-1,-1,-1,14,16,18,-1,20,22,-1,24,26,28,30,-1,-1,32,-1,34,-1,-1,36,-1,-1,-1,-1,-1,-1,-1,-1,-1],"split_conditions":[-3.866082E-3,9.4863055E4,9.495347E4,-7.3808557E-1,-3.7407574E-1,5.782864E-1,-4.286074E-2,-1.7607601E-2,4.635588E-2,-6.039443E-1,9.4900555E4,9.49241E4,5.3916283E-2,9.4928695E4,-5.8093697E-1,-3.3129346E-2,9.49287E4,1.2442285E-1,9.493964E4,9.492801E4,-5.9032824E-2,5.049094E-3,9.492801E4,6.422525E-2,-1.4233811E-1,1.3998683E-2,5.4386504E-2,1.8304093E-1,5.172289E-2,-5.6716856E-2,9.887264E-2,-4.925592E-2,-1.1189511E-4,-4.3646775E-2,4.5087395E-4,1.6414257E-2,-4.991926E-2],"split_indices":[1,2,2,1,1,1,0,0,0,1,2,2,0,2,1,0,2,1,2,2,0,0,2,0,1,0,0,1,0,0,0,0,0,0,0,0,0],"split_type":[0,0,0,0,0,0,0,0,0,0,0,0,0,0,0,0,0,0,0,0,0,0,0,0,0,0,0,0,0,0,0,0,0,0,0,0,0],"sum_hessian":[1.0427291E2,5.3819077E1,5.045384E1,3.2889533E0,5.053012E1,4.879602E1,1.6578152E0,1.1383969E0,2.1505566E0,4.2037926E1,8.492198E0,1.898226E1,2.9813763E1,3.283393E1,9.203994E0,2.622085E0,5.8701124E0,8.307236E0,1.0675024E1,1.6558228E1,1.6275705E1,1.6937478E0,7.510246E0,1.4364083E0,4.4337044E0,1.2255119E0,7.0817237E0,6.3669386E0,4.3080854E0,1.5085681E1,1.4725457E0,5.437869E0,2.0723767E0,1.6404305E0,2.7932737E0,1.1065884E0,5.26035E0],"tree_param":{"num_deleted":"0","num_feature":"3","num_nodes":"37","size_leaf_vector":"1"}},{"base_weights":[1.1457123E-2,-7.1918595E-1,7.989831E-1,6.7626935E-1,-8.262996E-1,8.8093686E-1,-4.3803092E-2,1.6308625E-3,4.6339516E-2,-9.972409E-1,-3.327685E-1,4.845252E-1,5.371342E-2,-7.6768595E-1,-5.9241947E-2,-9.267146E-1,1.3152176E-1,9.876749E-1,-1.5838781E-2,-1.0988044E0,9.3762994E-2,-5.2154925E-2,-1.7466841E-2,6.1742246E-2,-6.076073E-1,1.3675413E-2,5.3329594E-2,-7.690057E-1,4.910003E-2,-5.826446E-2,-2.4437223E-2,-5.2197307E-2,5.841519E-3,9.1934735E-3,-5.9578516E-2],"categories":[],"categories_nodes":[],"categories_segments":[],"categories_sizes":[],"default_left":[0,0,0,0,0,0,0,0,0,0,0,0,0,0,0,0,0,0,0,0,0,0,0,0,0,0,0,0,0,0,0,0,0,0,0],"id":34,"left_children":[1,3,5,7,9,11,-1,-1,-1,13,15,17,-1,19,-1,21,23,25,27,29,-1,-1,-1,-1,31,-1,-1,33,-1,-1,-1,-1,-1,-1,-1],"loss_changes":[5.943415E1,8.568905E0,7.594927E0,6.744484E-1,3.9048805E0,3.1492767E0,0E0,0E0,0E0,6.7512894E-1,4.098418E0,4.426223E0,0E0,1.9028563E1,0E0,6.909561E-2,8.064622E0,2.0148373E-1,8.096273E0,1.5491104E-1,0E0,0E0,0E0,0E0,2.0316045E0,0E0,0E0,2.68627E0,0E0,0E0,0E0,0E0,0E0,0E0,0E0],"parents":[2147483647,0,0,1,1,2,2,3,3,4,4,5,5,9,9,10,10,11,11,13,13,15,15,16,16,17,17,18,18,19,19,24,24,27,27],"right_children":[2,4,6,8,10,12,-1,-1,-1,14,16,18,-1,20,-1,22,24,26,28,30,-1,-1,-1,-1,32,-1,-1,34,-1,-1,-1,-1,-1,-1,-1],"split_conditions":[-3.866082E-3,9.4863055E4,9.495347E4,-7.1647364E-1,-5.3705317E-1,5.7436097E-1,-4.3803092E-2,1.6308625E-3,4.6339516E-2,9.4928695E4,9.4900555E4,9.49287E4,5.371342E-2,9.492801E4,-5.9241947E-2,-1.9371192E-1,9.493781E4,1.2442285E-1,9.493964E4,-6.039443E-1,9.3762994E-2,-5.2154925E-2,-1.7466841E-2,6.1742246E-2,-1.4233811E-1,1.3675413E-2,5.3329594E-2,2.8365147E-1,4.910003E-2,-5.826446E-2,-2.4437223E-2,-5.2197307E-2,5.841519E-3,9.1934735E-3,-5.9578516E-2],"split_indices":[1,2,2,1,1,1,0,0,0,2,2,2,0,2,0,1,2,1,2,1,0,0,0,0,1,0,0,1,0,0,0,0,0,0,0],"split_type":[0,0,0,0,0,0,0,0,0,0,0,0,0,0,0,0,0,0,0,0,0,0,0,0,0,0,0,0,0,0,0,0,0,0,0],"sum_hessian":[1.01293175E2,5.258923E1,4.870394E1,3.3701403E0,4.921909E1,4.6884155E1,1.8197869E0,1.2608624E0,2.109278E0,3.5798992E1,1.3420098E1,1.6519121E1,3.0365032E1,1.8389187E1,1.7409805E1,5.450953E0,7.9691453E0,7.751028E0,8.768093E0,1.6861023E1,1.5281636E0,3.8652155E0,1.5857375E0,2.9278975E0,5.041248E0,1.2156508E0,6.5353775E0,5.1273274E0,3.6407661E0,1.4383388E1,2.4776356E0,2.870976E0,2.1702716E0,1.7487655E0,3.3785617E0],"tree_param":{"num_deleted":"0","num_feature":"3","num_nodes":"35","size_leaf_vector":"1"}},{"base_weights":[2.0149834E-2,-6.8086517E-1,7.676364E-1,-7.920096E-1,-2.6355675E-1,2.9951522E-1,5.3017892E-2,-5.2880425E-2,-7.0810986E-1,2.3271736E-2,-3.8210627E-1,3.570453E-1,-1.2930918E-2,2.4155995E-1,-8.0549634E-1,-2.0010498E-1,-4.106734E-2,2.8789032E-1,3.564821E-2,-5.8186664E-3,2.8750796E-2,-5.0335694E-2,-6.277289E-1,-4.636073E-1,3.0562509E-2,3.238216E-2,2.0337816E-1,-1.2241746E-2,-4.152315E-2,-3.6579326E-2,-7.7591375E-3,-1.6435402E-2,1.4496139E-2],"categories":[],"categories_nodes":[],"categories_segments":[],"categories_sizes":[],"default_left":[0,0,0,0,0,0,0,0,0,0,0,0,0,0,0,0,0,0,0,0,0,0,0,0,0,0,0,0,0,0,0,0,0],"id":35,"left_children":[1,3,5,7,9,11,-1,-1,13,-1,15,17,-1,19,21,23,-1,25,-1,-1,-1,-1,27,29,-1,-1,31,-1,-1,-1,-1,-1,-1],"loss_changes":[5.3117E1,2.2182007E0,6.403063E0,1.6075134E-1,1.2584491E0,7.429755E-1,0E0,0E0,3.343525E0,0E0,7.3931646E-1,2.57226E-1,0E0,5.367111E-1,4.8093605E-1,2.2747595E0,0E0,3.9761066E-1,0E0,0E0,0E0,0E0,1.285141E0,5.1459646E-1,0E0,0E0,8.1163925E-1,0E0,0E0,0E0,0E0,0E0,0E0],"parents":[2147483647,0,0,1,1,2,2,3,3,4,4,5,5,8,8,10,10,11,11,13,13,14,14,15,15,17,17,22,22,23,23,26,26],"right_children":[2,4,6,8,10,12,-1,-1,14,-1,16,18,-1,20,22,24,-1,26,-1,-1,-1,-1,28,30,-1,-1,32,-1,-1,-1,-1,-1,-1],"split_conditions":[-1.4236191E-2,-4.996952E-1,5.782864E-1,-9.6973515E-1,-4.3960324E-1,5.553122E-1,5.3017892E-2,-5.2880425E-2,-9.5608467E-1,2.3271736E-2,-3.0920034E-2,4.9600226E-1,-1.2930918E-2,-9.6185404E-1,-7.935971E-1,-1.4233811E-1,-4.106734E-2,3.151774E-2,3.564821E-2,-5.8186664E-3,2.8750796E-2,-5.0335694E-2,-6.9716907E-1,-3.7407574E-1,3.0562509E-2,3.238216E-2,1.2442285E-1,-1.2241746E-2,-4.152315E-2,-3.6579326E-2,-7.7591375E-3,-1.6435402E-2,1.4496139E-2],"split_indices":[1,1,1,1,1,1,0,0,1,0,1,1,0,1,1,1,0,1,0,0,0,0,1,1,0,0,1,0,0,0,0,0,0],"split_type":[0,0,0,0,0,0,0,0,0,0,0,0,0,0,0,0,0,0,0,0,0,0,0,0,0,0,0,0,0,0,0,0,0],"sum_hessian":[9.9371025E1,5.1325542E1,4.804548E1,3.982168E1,1.1503864E1,1.9263086E1,2.8782394E1,6.7734694E0,3.304821E1,1.1998149E0,1.03040495E1,1.7789686E1,1.4734002E0,2.9361124E0,3.0112097E1,8.314478E0,1.9895713E0,1.6410074E1,1.3796107E0,1.7300627E0,1.2060496E0,1.1937159E1,1.8174938E1,6.599705E0,1.7147729E0,1.8541174E0,1.4555958E1,7.0560975E0,1.111884E1,2.7972567E0,3.8024485E0,1.6448845E0,1.2911073E1],"tree_param":{"num_deleted":"0","num_feature":"3","num_nodes":"33","size_leaf_vector":"1"}},{"base_weights":[-4.0347185E-3,7.899096E-2,-5.417751E-2,4.1645214E-2,2.0619886E-2,-4.889563E-2,7.5496756E-2,-2.4918342E-2,4.5665422E-1,2.1639225E-1,-4.4107515E-1,2.913392E-1,4.8019554E-2,2.5185312E-3,7.323861E-2,-4.291716E-2,-6.606196E-3,2.272252E-2,-3.8029358E-2],"categories":[],"categories_nodes":[],"categories_segments":[],"categories_sizes":[],"default_left":[0,0,0,0,0,0,0,0,0,0,0,0,0,0,0,0,0,0,0],"id":36,"left_children":[1,3,-1,-1,5,-1,7,9,11,13,15,17,-1,-1,-1,-1,-1,-1,-1],"loss_changes":[8.829632E0,4.0105147E0,0E0,0E0,4.7848234E0,0E0,3.1660113E0,6.74188E0,1.155704E0,8.747856E0,3.060595E0,2.8188481E0,0E0,0E0,0E0,0E0,0E0,0E0,0E0],"parents":[2147483647,0,0,1,1,4,4,6,6,7,7,8,8,9,9,10,10,11,11],"right_children":[2,4,-1,-1,6,-1,8,10,12,14,16,18,-1,-1,-1,-1,-1,-1,-1],"split_conditions":[9.495347E4,9.4863055E4,-5.417751E-2,4.1645214E-2,9.487079E4,-4.889563E-2,9.493964E4,9.492878E4,9.4951E4,9.492801E4,9.493241E4,9.495099E4,4.8019554E-2,2.5185312E-3,7.323861E-2,-4.291716E-2,-6.606196E-3,2.272252E-2,-3.8029358E-2],"split_indices":[2,2,0,0,2,0,2,2,2,2,2,2,0,0,0,0,0,0,0],"split_type":[0,0,0,0,0,0,0,0,0,0,0,0,0,0,0,0,0,0,0],"sum_hessian":[9.65598E1,9.052438E1,6.0354147E0,5.551593E0,8.4972786E1,3.5503814E0,8.142241E1,6.518436E1,1.6238052E1,4.156355E1,2.3620808E1,1.3414178E1,2.8238738E0,3.7603077E1,3.9604714E0,9.292354E0,1.4328454E1,1.2105143E1,1.3090352E0],"tree_param":{"num_deleted":"0","num_feature":"3","num_nodes":"19","size_leaf_vector":"1"}},{"base_weights":[7.565415E-4,-6.5256685E-1,7.080596E-1,-7.8666973E-1,-3.556712E-1,1.850801E-1,5.240689E-2,-5.1664036E-2,-6.9378924E-1,1.9406354E-2,-4.5684266E-1,4.7216251E-1,5.7420015E-2,4.5799765E-1,-8.21851E-1,-5.5175877E-1,-1.3651954E-1,3.3891357E-2,2.6128885E-1,-1.9323908E-2,1.6741373E-1,8.059762E-3,2.729225E-2,-4.9769077E-2,-5.927471E-1,-2.6014024E-1,-6.455178E-1,3.2478943E-2,-4.1505884E-2,-8.257216E-3,3.0944172E-2,2.2617409E-1,-6.719641E-3,-5.5380617E-3,-5.154542E-2,-3.3982288E-2,3.0161232E-2,-4.0277414E-2,-1.8658262E-2,4.788229E-3,3.4115843E-2],"categories":[],"categories_nodes":[],"categories_segments":[],"categories_sizes":[],"default_left":[0,0,0,0,0,0,0,0,0,0,0,0,0,0,0,0,0,0,0,0,0,0,0,0,0,0,0,0,0,0,0,0,0,0,0,0,0,0,0,0,0],"id":37,"left_children":[1,3,5,7,9,11,-1,-1,13,-1,15,17,19,21,23,25,27,-1,29,-1,31,-1,-1,-1,33,35,37,-1,-1,-1,-1,39,-1,-1,-1,-1,-1,-1,-1,-1,-1],"loss_changes":[4.4927536E1,1.7325039E0,8.108852E0,6.1691284E-2,1.4980488E0,6.915583E-1,0E0,0E0,4.467305E0,0E0,4.083662E-1,7.8660846E-2,7.8303343E-1,1.1128187E-3,4.1653252E-1,1.5863681E-1,3.2464683E0,0E0,7.943815E-1,0E0,2.51866E-1,0E0,0E0,0E0,2.7122984E0,2.0690882E0,6.3889265E-2,0E0,0E0,0E0,0E0,5.786353E-1,0E0,0E0,0E0,0E0,0E0,0E0,0E0,0E0,0E0],"parents":[2147483647,0,0,1,1,2,2,3,3,4,4,5,5,8,8,10,10,11,11,12,12,13,13,14,14,15,15,16,16,18,18,20,20,24,24,25,25,26,26,31,31],"right_children":[2,4,6,8,10,12,-1,-1,14,-1,16,18,20,22,24,26,28,-1,30,-1,32,-1,-1,-1,34,36,38,-1,-1,-1,-1,40,-1,-1,-1,-1,-1,-1,-1,-1,-1],"split_conditions":[-3.866082E-3,-6.039443E-1,5.782864E-1,-9.6973515E-1,-5.8093697E-1,1.8304093E-1,5.240689E-2,-5.1664036E-2,-9.5608467E-1,1.9406354E-2,-1.4233811E-1,3.151774E-2,2.1431282E-1,-9.6614593E-1,-7.935971E-1,-4.5363173E-1,-3.0920034E-2,3.3891357E-2,1.2442285E-1,-1.9323908E-2,5.553122E-1,8.059762E-3,2.729225E-2,-4.9769077E-2,-6.9716907E-1,-5.232533E-1,-3.7407574E-1,3.2478943E-2,-4.1505884E-2,-8.257216E-3,3.0944172E-2,4.9600226E-1,-6.719641E-3,-5.5380617E-3,-5.154542E-2,-3.3982288E-2,3.0161232E-2,-4.0277414E-2,-1.8658262E-2,4.788229E-3,3.4115843E-2],"split_indices":[1,1,1,1,1,1,0,0,1,0,1,1,1,1,1,1,1,0,1,0,1,0,0,0,1,1,1,0,0,0,0,1,0,0,0,0,0,0,0,0,0],"split_type":[0,0,0,0,0,0,0,0,0,0,0,0,0,0,0,0,0,0,0,0,0,0,0,0,0,0,0,0,0,0,0,0,0,0,0,0,0,0,0,0,0],"sum_hessian":[9.522529E1,4.9541794E1,4.56835E1,3.299076E1,1.6551033E1,1.8609556E1,2.7073942E1,6.255822E0,2.6734938E1,1.6421139E0,1.4908919E1,4.897485E0,1.371207E1,2.4173074E0,2.431763E1,1.0943658E1,3.9652622E0,1.3583314E0,3.539153E0,2.223822E0,1.1488249E1,1.1995242E0,1.2177833E0,1.1933868E1,1.2383762E1,3.580816E0,7.3628416E0,1.8884398E0,2.0768225E0,1.8596692E0,1.6794839E0,9.825808E0,1.6624409E0,6.4935346E0,5.8902283E0,2.5530794E0,1.0277368E0,3.404605E0,3.9582365E0,8.582148E0,1.2436599E0],"tree_param":{"num_deleted":"0","num_feature":"3","num_nodes":"41","size_leaf_vector":"1"}},{"base_weights":[2.0305412E-2,-6.5307057E-1,7.7073413E-1,6.169384E-1,-7.728114E-1,8.572173E-1,-4.354692E-2,-1.622119E-2,4.8544314E-2,-8.859851E-1,-2.1347854E-1,5.2586216E-1,5.206892E-2,-7.0973486E-1,-1.0560969E0,-3.7217658E-2,8.557681E-2,9.6554685E-1,1.2253379E-1,-9.806769E-1,8.600501E-2,-5.734023E-2,4.2035654E-3,6.051463E-2,-4.344569E-1,1.0089114E-2,5.2321862E-2,-6.566127E-2,5.9489983E-1,-3.1555668E-2,-5.858457E-2,-4.4163566E-2,2.9601904E-3,5.8883126E-3,4.8650235E-2],"categories":[],"categories_nodes":[],"categories_segments":[],"categories_sizes":[],"default_left":[0,0,0,0,0,0,0,0,0,0,0,0,0,0,0,0,0,0,0,0,0,0,0,0,0,0,0,0,0,0,0,0,0,0,0],"id":38,"left_children":[1,3,5,7,9,11,-1,-1,-1,13,15,17,-1,19,21,-1,23,25,27,29,-1,-1,-1,-1,31,-1,-1,-1,33,-1,-1,-1,-1,-1,-1],"loss_changes":[4.9497936E1,8.330311E0,7.3220882E0,1.9828398E0,2.8264236E0,2.1678963E0,0E0,0E0,0E0,4.2886543E-1,1.5456122E0,3.0590625E0,0E0,1.640261E1,1.9529419E0,0E0,4.5426383E0,3.094697E-1,7.8957763E0,6.458492E-1,0E0,0E0,0E0,0E0,1.2558403E0,0E0,0E0,0E0,1.4335847E0,0E0,0E0,0E0,0E0,0E0,0E0],"parents":[2147483647,0,0,1,1,2,2,3,3,4,4,5,5,9,9,10,10,11,11,13,13,14,14,16,16,17,17,18,18,19,19,24,24,28,28],"right_children":[2,4,6,8,10,12,-1,-1,-1,14,16,18,-1,20,22,-1,24,26,28,30,-1,-1,-1,-1,32,-1,-1,-1,34,-1,-1,-1,-1,-1,-1],"split_conditions":[-3.866082E-3,9.4863055E4,9.495347E4,-7.3808557E-1,-3.7407574E-1,5.782864E-1,-4.354692E-2,-1.622119E-2,4.8544314E-2,9.4928695E4,9.4900555E4,9.49287E4,5.206892E-2,9.492801E4,-5.3705317E-1,-3.7217658E-2,9.49287E4,1.2442285E-1,9.493241E4,9.490654E4,8.600501E-2,-5.734023E-2,4.2035654E-3,6.051463E-2,-1.4233811E-1,1.0089114E-2,5.2321862E-2,-6.566127E-2,9.493964E4,-3.1555668E-2,-5.858457E-2,-4.4163566E-2,2.9601904E-3,5.8883126E-3,4.8650235E-2],"split_indices":[1,2,2,1,1,1,0,0,0,2,2,2,0,2,1,0,2,1,2,2,0,0,0,0,1,0,0,0,2,0,0,0,0,0,0],"split_type":[0,0,0,0,0,0,0,0,0,0,0,0,0,0,0,0,0,0,0,0,0,0,0,0,0,0,0,0,0,0,0,0,0,0,0],"sum_hessian":[9.595743E1,5.0643578E1,4.5313847E1,4.005689E0,4.663789E1,4.3500103E1,1.8137429E0,1.1173611E0,2.8883278E0,3.8303646E1,8.334244E0,1.6917124E1,2.6582981E1,2.1352657E1,1.6950989E1,2.4665964E0,5.867647E0,7.426857E0,9.490266E0,1.9747128E1,1.6055284E0,1.5696418E1,1.2545718E0,1.4355472E0,4.4321E0,1.0459111E0,6.3809457E0,1.9086907E0,7.5815754E0,8.498528E0,1.1248601E1,1.9081066E0,2.5239933E0,3.9316537E0,3.649922E0],"tree_param":{"num_deleted":"0","num_feature":"3","num_nodes":"35","size_leaf_vector":"1"}},{"base_weights":[1.3591601E-2,-6.9361925E-1,6.7116857E-1,5.6006056E-1,-8.2005185E-1,7.895258E-1,-4.947151E-2,-1.5838755E-2,4.5999955E-2,-5.954564E-1,-1.0624583E0,4.4368672E-1,5.1550627E-2,-8.727379E-1,8.481698E-2,-5.6661207E-2,-4.8275706E-1,1.9968343E-1,5.334081E-2,-9.673663E-1,1.2012238E-2,1.135604E-2,-4.219849E-2,7.696564E-1,-5.7593817E-1,-3.218093E-2,-5.766323E-2,2.7018122E-3,5.2497443E-2,-6.363949E-2,-4.830979E-3],"categories":[],"categories_nodes":[],"categories_segments":[],"categories_sizes":[],"default_left":[0,0,0,0,0,0,0,0,0,0,0,0,0,0,0,0,0,0,0,0,0,0,0,0,0,0,0,0,0,0,0],"id":39,"left_children":[1,3,5,7,9,11,-1,-1,-1,13,15,17,-1,19,-1,-1,21,23,-1,25,-1,-1,-1,27,29,-1,-1,-1,-1,-1,-1],"loss_changes":[4.3238537E1,7.5614986E0,1.0248434E1,1.77447E0,1.6054249E0,3.3441887E0,0E0,0E0,0E0,1.6485943E1,2.1165466E-1,2.8995953E0,0E0,2.5204582E0,0E0,0E0,1.15435E0,7.4906898E0,0E0,4.747448E-1,0E0,0E0,0E0,1.8722453E0,2.3235087E0,0E0,0E0,0E0,0E0,0E0,0E0],"parents":[2147483647,0,0,1,1,2,2,3,3,4,4,5,5,9,9,10,10,11,11,13,13,16,16,17,17,19,19,23,23,24,24],"right_children":[2,4,6,8,10,12,-1,-1,-1,14,16,18,-1,20,-1,-1,22,24,-1,26,-1,-1,-1,28,30,-1,-1,-1,-1,-1,-1],"split_conditions":[-1.4233811E-1,9.4863055E4,9.495347E4,-7.3808557E-1,9.49287E4,5.782864E-1,-4.947151E-2,-1.5838755E-2,4.5999955E-2,9.492801E4,-5.3705317E-1,9.493964E4,5.1550627E-2,-3.4877786E-1,8.481698E-2,-5.6661207E-2,-4.3495524E-1,9.49287E4,5.334081E-2,9.490654E4,1.2012238E-2,1.135604E-2,-4.219849E-2,9.486314E4,9.493241E4,-3.218093E-2,-5.766323E-2,2.7018122E-3,5.2497443E-2,-6.363949E-2,-4.830979E-3],"split_indices":[1,2,2,1,2,1,0,0,0,2,1,2,0,1,0,0,1,2,0,2,0,0,0,2,2,0,0,0,0,0,0],"split_type":[0,0,0,0,0,0,0,0,0,0,0,0,0,0,0,0,0,0,0,0,0,0,0,0,0,0,0,0,0,0,0],"sum_hessian":[9.097593E1,4.380727E1,4.7168655E1,3.6990016E0,4.010827E1,4.4520092E1,2.6485636E0,1.1114209E0,2.5875807E0,2.261311E1,1.7495161E1,1.947162E1,2.5048471E1,2.0724829E1,1.8882804E0,1.4740857E1,2.754304E0,1.4941372E1,4.5302477E0,1.9221413E1,1.5034158E0,1.0540485E0,1.7002553E0,8.616872E0,6.3245E0,8.638827E0,1.0582586E1,2.7608573E0,5.8560143E0,1.902768E0,4.4217324E0],"tree_param":{"num_deleted":"0","num_feature":"3","num_nodes":"31","size_leaf_vector":"1"}},{"base_weights":[2.9025674E-2,-6.009381E-1,7.246812E-1,-7.4801826E-1,-2.6409844E-1,2.5483832E-1,5.306081E-2,-5.050831E-2,-6.492252E-1,1.7870145E-2,-3.6168182E-1,1.405774E-1,4.153992E-1,2.665287E-1,-7.667513E-1,-5.9832984E-1,-1.23369895E-1,2.5813976E-1,-1.6894698E-2,2.8657397E-2,-2.814872E-3,-1.9891388E-3,2.4653332E-2,-4.6923496E-2,-5.561581E-1,-3.225789E-1,-3.6277283E-2,1.10220864E-1,-2.8804336E-2,3.1205429E-2,1.4966808E-1,-7.802684E-3,-4.916709E-2,-3.6410727E-2,7.665839E-3,-8.838825E-3,3.7116986E-2,-2.2252522E-2,1.52525855E-2],"categories":[],"categories_nodes":[],"categories_segments":[],"categories_sizes":[],"default_left":[0,0,0,0,0,0,0,0,0,0,0,0,0,0,0,0,0,0,0,0,0,0,0,0,0,0,0,0,0,0,0,0,0,0,0,0,0,0,0],"id":40,"left_children":[1,3,5,7,9,11,-1,-1,13,-1,15,17,19,21,23,25,27,29,-1,-1,-1,-1,-1,-1,31,33,-1,35,-1,-1,37,-1,-1,-1,-1,-1,-1,-1,-1],"loss_changes":[3.964113E1,2.1554356E0,6.523548E0,1.8622017E-1,1.0984818E0,2.9472888E-1,0E0,0E0,3.0470467E0,0E0,7.331705E-1,8.048098E-1,5.8968306E-1,2.7957422E-1,3.3391285E-1,8.705616E-3,9.5067114E-1,3.3562785E-1,0E0,0E0,0E0,0E0,0E0,0E0,2.0829701E0,8.809372E-1,0E0,1.2874572E0,0E0,0E0,1.0277195E0,0E0,0E0,0E0,0E0,0E0,0E0,0E0,0E0],"parents":[2147483647,0,0,1,1,2,2,3,3,4,4,5,5,8,8,10,10,11,11,12,12,13,13,14,14,15,15,16,16,17,17,24,24,25,25,27,27,30,30],"right_children":[2,4,6,8,10,12,-1,-1,14,-1,16,18,20,22,24,26,28,30,-1,-1,-1,-1,-1,-1,32,34,-1,36,-1,-1,38,-1,-1,-1,-1,-1,-1,-1,-1],"split_conditions":[-3.866082E-3,-6.039443E-1,5.782864E-1,-9.6973515E-1,-5.8093697E-1,3.5078767E-1,5.306081E-2,-5.050831E-2,-9.5608467E-1,1.7870145E-2,-3.7407574E-1,2.8665847E-1,5.553122E-1,-9.6185404E-1,-7.935971E-1,-4.5363173E-1,-3.0920034E-2,3.151774E-2,-1.6894698E-2,2.8657397E-2,-2.814872E-3,-1.9891388E-3,2.4653332E-2,-4.6923496E-2,-6.9716907E-1,-5.3705317E-1,-3.6277283E-2,-6.311576E-2,-2.8804336E-2,3.1205429E-2,1.2442285E-1,-7.802684E-3,-4.916709E-2,-3.6410727E-2,7.665839E-3,-8.838825E-3,3.7116986E-2,-2.2252522E-2,1.52525855E-2],"split_indices":[1,1,1,1,1,1,0,0,1,0,1,1,1,1,1,1,1,1,0,0,0,0,0,0,1,1,0,1,0,0,1,0,0,0,0,0,0,0,0],"split_type":[0,0,0,0,0,0,0,0,0,0,0,0,0,0,0,0,0,0,0,0,0,0,0,0,0,0,0,0,0,0,0,0,0,0,0,0,0,0,0],"sum_hessian":[8.846203E1,4.6494354E1,4.196767E1,3.1513412E1,1.4980943E1,1.8248224E1,2.3719446E1,6.1005387E0,2.5412874E1,1.6716692E0,1.3309274E1,1.1757032E1,6.491192E0,2.7462783E0,2.2666595E1,5.919954E0,7.3893194E0,9.807726E0,1.9493072E0,4.7032228E0,1.787969E0,1.5180488E0,1.2282294E0,1.058182E1,1.2084776E1,2.9851265E0,2.9348273E0,5.3733416E0,2.0159779E0,1.1555157E0,8.65221E0,6.9451694E0,5.1396065E0,1.3252962E0,1.6598303E0,4.1909094E0,1.1824322E0,1.406135E0,7.246075E0],"tree_param":{"num_deleted":"0","num_feature":"3","num_nodes":"39","size_leaf_vector":"1"}},{"base_weights":[-2.7102966E-2,5.3851232E-2,-5.1890124E-2,3.7254494E-2,-8.166622E-3,-4.716628E-2,4.7390923E-2,4.180979E-2,1.3077591E-3,-4.121253E-2,4.6434123E-2,2.8266612E-2,-1.3123098E-3],"categories":[],"categories_nodes":[],"categories_segments":[],"categories_sizes":[],"default_left":[0,0,0,0,0,0,0,0,0,0,0,0,0],"id":41,"left_children":[1,3,-1,-1,5,-1,7,-1,9,-1,11,-1,-1],"loss_changes":[7.103977E0,3.4657836E0,0E0,0E0,3.9438486E0,0E0,2.6085863E0,0E0,2.6025255E0,0E0,2.5118616E0,0E0,0E0],"parents":[2147483647,0,0,1,1,4,4,6,6,8,8,10,10],"right_children":[2,4,-1,-1,6,-1,8,-1,10,-1,12,-1,-1],"split_conditions":[9.495347E4,9.4863055E4,-5.1890124E-2,3.7254494E-2,9.487079E4,-4.716628E-2,9.488151E4,4.180979E-2,9.488975E4,-4.121253E-2,9.490098E4,2.8266612E-2,-1.3123098E-3],"split_indices":[2,2,0,0,2,0,2,0,2,0,2,0,0],"split_type":[0,0,0,0,0,0,0,0,0,0,0,0,0],"sum_hessian":[8.514103E1,7.9703705E1,5.4373245E0,5.655418E0,7.404829E1,3.256404E0,7.0791885E1,2.9611173E0,6.7830765E1,2.6207325E0,6.521003E1,7.178818E0,5.8031216E1],"tree_param":{"num_deleted":"0","num_feature":"3","num_nodes":"13","size_leaf_vector":"1"}},{"base_weights":[2.6740283E-2,-6.1243784E-1,7.360617E-1,4.961714E-1,-7.059537E-1,8.1707096E-1,-3.969371E-2,-1.54148955E-2,4.4102017E-2,-8.8532025E-1,-3.8573065E-1,5.3524107E-2,5.265578E-1,-6.216297E-1,-5.509257E-2,-8.938215E-1,-9.7016126E-2,-9.8570704E-1,8.1044817E-1,-5.1576156E-2,7.886634E-2,-5.063192E-2,-1.178217E-2,6.2190335E-2,-5.1823497E-1,-5.8365054E-2,-1.4072858E-2,2.669308E-1,5.253696E-2,-4.571886E-2,-1.3911478E-2,3.823766E-2,-3.7511237E-2],"categories":[],"categories_nodes":[],"categories_segments":[],"categories_sizes":[],"default_left":[0,0,0,0,0,0,0,0,0,0,0,0,0,0,0,0,0,0,0,0,0,0,0,0,0,0,0,0,0,0,0,0,0],"id":42,"left_children":[1,3,5,7,9,11,-1,-1,-1,13,15,-1,17,19,-1,21,23,25,27,-1,-1,-1,-1,-1,29,-1,-1,31,-1,-1,-1,-1,-1],"loss_changes":[4.006952E1,5.1721783E0,5.838457E0,1.5773822E0,2.145855E0,2.4003067E0,0E0,0E0,0E0,8.5585403E-1,2.4540048E0,0E0,9.69664E0,1.4662357E1,0E0,2.4263477E-1,7.515694E0,1.4808655E-1,2.0701647E0,0E0,0E0,0E0,0E0,0E0,6.928935E-1,0E0,0E0,4.046532E0,0E0,0E0,0E0,0E0,0E0],"parents":[2147483647,0,0,1,1,2,2,3,3,4,4,5,5,9,9,10,10,12,12,13,13,15,15,16,16,17,17,18,18,24,24,27,27],"right_children":[2,4,6,8,10,12,-1,-1,-1,14,16,-1,18,20,-1,22,24,26,28,-1,-1,-1,-1,-1,30,-1,-1,32,-1,-1,-1,-1,-1],"split_conditions":[-3.866082E-3,9.4863055E4,9.495347E4,-7.3808557E-1,-6.039443E-1,9.492994E4,-3.969371E-2,-1.54148955E-2,4.4102017E-2,9.4928695E4,9.4900555E4,5.3524107E-2,9.493241E4,9.492801E4,-5.509257E-2,-1.9371192E-1,9.490654E4,5.7436097E-1,3.6785293E-1,-5.1576156E-2,7.886634E-2,-5.063192E-2,-1.178217E-2,6.2190335E-2,9.492801E4,-5.8365054E-2,-1.4072858E-2,2.8665847E-1,5.253696E-2,-4.571886E-2,-1.3911478E-2,3.823766E-2,-3.7511237E-2],"split_indices":[1,2,2,1,1,2,0,0,0,2,2,0,2,2,0,1,2,1,1,0,0,0,0,0,2,0,0,1,0,0,0,0,0],"split_type":[0,0,0,0,0,0,0,0,0,0,0,0,0,0,0,0,0,0,0,0,0,0,0,0,0,0,0,0,0,0,0,0,0],"sum_hessian":[8.6384735E1,4.55109E1,4.0873837E1,3.205438E0,4.230546E1,3.9260933E1,1.6129016E0,1.1042659E0,2.101172E0,2.5985504E1,1.6319956E1,1.9535532E1,1.9725403E1,1.3462181E1,1.2523323E1,5.153958E0,1.1165998E1,2.7269554E0,1.6998447E1,1.179454E1,1.6676412E0,3.9096284E0,1.2443292E0,2.2024117E0,8.963587E0,1.6452185E0,1.0817369E0,5.858314E0,1.1140133E1,2.3216903E0,6.6418962E0,4.099874E0,1.7584401E0],"tree_param":{"num_deleted":"0","num_feature":"3","num_nodes":"33","size_leaf_vector":"1"}},{"base_weights":[-2.0475682E-2,-4.4023094E-1,9.633945E-1,-6.261799E-1,1.1014538E-1,4.6857765E-1,5.0120454E-2,-4.0009268E-2,-4.3917358E-1,3.525114E-1,-3.2217808E-2,3.593013E-2,7.119411E-4,2.133011E-2,-5.493466E-1,7.2084576E-2,3.1828545E-2,-1.8420225E-2,7.075824E-2,-7.391501E-1,-3.1262106E-1,1.962347E-2,-1.3026478E-2,2.3034938E-1,-3.7609927E-2,-1.0435148E-2,-3.9333124E-2,2.4102775E-2,-2.2493616E-2,2.9408705E-4,1.8142596E-2,-1.601616E-2,8.141668E-3],"categories":[],"categories_nodes":[],"categories_segments":[],"categories_sizes":[],"default_left":[0,0,0,0,0,0,0,0,0,0,0,0,0,0,0,0,0,0,0,0,0,0,0,0,0,0,0,0,0,0,0,0,0],"id":43,"left_children":[1,3,5,7,9,11,-1,-1,13,15,17,-1,-1,-1,19,21,-1,-1,23,25,27,-1,-1,29,31,-1,-1,-1,-1,-1,-1,-1,-1],"loss_changes":[3.4653038E1,6.084861E0,1.4842987E-2,1.0831852E0,5.5290025E-1,4.114521E-1,0E0,0E0,2.4726887E0,4.2341495E-1,4.000799E-1,0E0,0E0,0E0,7.239108E-1,5.3835344E-1,0E0,0E0,1.6620399E-1,1.1464834E-1,1.4374722E0,0E0,0E0,1.1161062E-1,4.0831283E-1,0E0,0E0,0E0,0E0,0E0,0E0,0E0,0E0],"parents":[2147483647,0,0,1,1,2,2,3,3,4,4,5,5,8,8,9,9,10,10,14,14,15,15,18,18,19,19,20,20,23,23,24,24],"right_children":[2,4,6,8,10,12,-1,-1,14,16,18,-1,-1,-1,20,22,-1,-1,24,26,28,-1,-1,30,32,-1,-1,-1,-1,-1,-1,-1,-1],"split_conditions":[4.9600226E-1,-1.4236191E-2,5.782864E-1,-7.297721E-1,1.8304093E-1,5.553122E-1,5.0120454E-2,-4.0009268E-2,-7.065708E-1,1.2442285E-1,2.1431282E-1,3.593013E-2,7.119411E-4,2.133011E-2,-4.996952E-1,3.151774E-2,3.1828545E-2,-1.8420225E-2,2.8665847E-1,-6.9716907E-1,-4.3960324E-1,1.962347E-2,-1.3026478E-2,2.574361E-1,3.5078767E-1,-1.0435148E-2,-3.9333124E-2,2.4102775E-2,-2.2493616E-2,2.9408705E-4,1.8142596E-2,-1.601616E-2,8.141668E-3],"split_indices":[1,1,1,1,1,1,0,0,1,1,1,0,0,0,1,1,0,0,1,1,1,0,0,1,1,0,0,0,0,0,0,0,0],"split_type":[0,0,0,0,0,0,0,0,0,0,0,0,0,0,0,0,0,0,0,0,0,0,0,0,0,0,0,0,0,0,0,0,0],"sum_hessian":[8.188182E1,5.7782307E1,2.409951E1,4.3087227E1,1.4695084E1,2.7121377E0,2.1387371E1,2.0620943E1,2.2466282E1,4.8914685E0,9.803615E0,1.3742411E0,1.3378967E0,2.2119505E0,2.0254332E1,3.0923903E0,1.7990781E0,1.6943811E0,8.109234E0,1.006331E1,1.0191022E1,1.4834901E0,1.6089002E0,2.8243153E0,5.2849183E0,1.270585E0,8.792725E0,1.1309099E0,9.060112E0,1.4360114E0,1.388304E0,1.9443936E0,3.3405247E0],"tree_param":{"num_deleted":"0","num_feature":"3","num_nodes":"33","size_leaf_vector":"1"}},{"base_weights":[-2.1781731E-2,-6.261826E-1,6.904228E-1,4.3164736E-1,-7.2096914E-1,2.830582E-1,4.9681894E-2,-1.9722512E-2,4.3247942E-2,-8.2673436E-1,-2.1619117E-1,8.914127E-1,-1.11774094E-1,-9.9527514E-1,-6.010518E-1,-3.1579744E-2,7.819605E-2,1.2765317E-2,4.8777953E-2,-6.0770392E-2,2.2700633E-1,-6.030557E-1,-5.6501627E-2,7.728919E-2,-9.3612856E-1,5.1619805E-2,-3.796077E-1,4.5320132E-1,-3.573825E-2,-4.514583E-2,7.421953E-3,-5.4592807E-2,1.0837771E-2,-4.0185187E-2,4.9152053E-3,-4.403119E-3,4.694403E-2],"categories":[],"categories_nodes":[],"categories_segments":[],"categories_sizes":[],"default_left":[0,0,0,0,0,0,0,0,0,0,0,0,0,0,0,0,0,0,0,0,0,0,0,0,0,0,0,0,0,0,0,0,0,0,0,0,0],"id":44,"left_children":[1,3,5,7,9,11,-1,-1,-1,13,15,17,19,21,23,-1,25,-1,-1,-1,27,29,-1,-1,31,-1,33,35,-1,-1,-1,-1,-1,-1,-1,-1,-1],"loss_changes":[3.5709915E1,4.808876E0,4.424486E0,1.8855274E0,2.0391178E0,4.340344E0,0E0,0E0,0E0,6.947212E-1,1.0950251E0,1.2883043E-1,4.611151E0,2.664566E-1,1.3717062E1,0E0,2.9666169E0,0E0,0E0,0E0,2.393309E0,1.6507246E0,0E0,0E0,2.9973803E0,0E0,1.0344806E0,2.3026905E0,0E0,0E0,0E0,0E0,0E0,0E0,0E0,0E0,0E0],"parents":[2147483647,0,0,1,1,2,2,3,3,4,4,5,5,9,9,10,10,11,11,12,12,13,13,14,14,16,16,20,20,21,21,24,24,26,26,27,27],"right_children":[2,4,6,8,10,12,-1,-1,-1,14,16,18,20,22,24,-1,26,-1,-1,-1,28,30,-1,-1,32,-1,34,36,-1,-1,-1,-1,-1,-1,-1,-1,-1],"split_conditions":[-3.866082E-3,9.4863055E4,5.782864E-1,-7.1647364E-1,-3.7407574E-1,9.49287E4,4.9681894E-2,-1.9722512E-2,4.3247942E-2,9.492801E4,9.4900555E4,1.2696882E-1,9.493241E4,9.490057E4,9.4928695E4,-3.1579744E-2,9.490654E4,1.2765317E-2,4.8777953E-2,-6.0770392E-2,9.495347E4,9.489774E4,-5.6501627E-2,7.728919E-2,-5.3705317E-1,5.1619805E-2,-1.4233811E-1,9.493964E4,-3.573825E-2,-4.514583E-2,7.421953E-3,-5.4592807E-2,1.0837771E-2,-4.0185187E-2,4.9152053E-3,-4.403119E-3,4.694403E-2],"split_indices":[1,2,1,1,1,2,0,0,0,2,2,1,2,2,2,0,2,0,0,0,2,2,0,0,1,0,1,2,0,0,0,0,0,0,0,0,0],"split_type":[0,0,0,0,0,0,0,0,0,0,0,0,0,0,0,0,0,0,0,0,0,0,0,0,0,0,0,0,0,0,0,0,0,0,0,0,0],"sum_hessian":[8.09538E1,4.385648E1,3.7097313E1,3.3143218E0,4.0542156E1,1.665505E1,2.0442265E1,1.1711801E0,2.1431415E0,3.2991657E1,7.550501E0,6.060059E0,1.0594991E1,1.6934687E1,1.6056969E1,2.6565053E0,4.893996E0,1.1792871E0,4.880772E0,1.8806998E0,8.714291E0,5.730589E0,1.1204098E1,1.6799989E0,1.437697E1,1.1798109E0,3.7141848E0,7.44494E0,1.2693508E0,3.9521222E0,1.7784666E0,1.2712716E1,1.6642548E0,1.6067054E0,2.1074793E0,3.9081721E0,3.536768E0],"tree_param":{"num_deleted":"0","num_feature":"3","num_nodes":"37","size_leaf_vector":"1"}},{"base_weights":[1.0086791E-2,-5.807822E-1,6.726201E-1,6.064089E-1,-6.8622905E-1,7.63479E-1,-4.0334515E-2,3.124467E-3,4.0324766E-2,-8.6149365E-1,-3.3364922E-1,4.3729848E-1,4.9381774E-2,-6.003099E-1,-5.383724E-2,-4.5437355E-2,-4.751876E-3,8.934563E-1,8.477385E-2,-5.0230265E-2,7.42629E-2,6.0820855E-2,-5.080017E-1,1.4959645E-2,4.8622187E-2,-4.8577514E-1,4.6890076E-2,-3.3357136E-2,2.4022337E-3,3.6440678E-2,-4.067918E-2],"categories":[],"categories_nodes":[],"categories_segments":[],"categories_sizes":[],"default_left":[0,0,0,0,0,0,0,0,0,0,0,0,0,0,0,0,0,0,0,0,0,0,0,0,0,0,0,0,0,0,0],"id":45,"left_children":[1,3,5,7,9,11,-1,-1,-1,13,15,17,-1,19,-1,-1,21,23,25,-1,-1,-1,27,-1,-1,29,-1,-1,-1,-1,-1],"loss_changes":[3.215048E1,5.8517876E0,5.8186893E0,3.9286232E-1,2.2058487E0,2.2721138E0,0E0,0E0,0E0,8.332596E-1,2.8384132E0,2.635129E0,0E0,1.3423749E1,0E0,0E0,7.1115494E0,4.9078465E-2,5.621318E0,0E0,0E0,0E0,7.56618E-1,0E0,0E0,3.387506E0,0E0,0E0,0E0,0E0,0E0],"parents":[2147483647,0,0,1,1,2,2,3,3,4,4,5,5,9,9,10,10,11,11,13,13,16,16,17,17,18,18,22,22,25,25],"right_children":[2,4,6,8,10,12,-1,-1,-1,14,16,18,-1,20,-1,-1,22,24,26,-1,-1,-1,28,-1,-1,30,-1,-1,-1,-1,-1],"split_conditions":[-3.866082E-3,9.4863055E4,9.495347E4,-7.1647364E-1,-6.039443E-1,5.782864E-1,-4.0334515E-2,3.124467E-3,4.0324766E-2,9.4928695E4,9.4900555E4,9.49287E4,4.9381774E-2,9.492801E4,-5.383724E-2,-4.5437355E-2,9.490654E4,1.2696882E-1,9.493964E4,-5.0230265E-2,7.42629E-2,6.0820855E-2,-6.311576E-2,1.4959645E-2,4.8622187E-2,1.8304093E-1,4.6890076E-2,-3.3357136E-2,2.4022337E-3,3.6440678E-2,-4.067918E-2],"split_indices":[1,2,2,1,1,1,0,0,0,2,2,2,0,2,0,0,2,1,2,0,0,0,1,0,0,1,0,0,0,0,0],"split_type":[0,0,0,0,0,0,0,0,0,0,0,0,0,0,0,0,0,0,0,0,0,0,0,0,0,0,0,0,0,0,0],"sum_hessian":[8.01296E1,4.242076E1,3.7708836E1,3.0729213E0,3.934784E1,3.5982685E1,1.7261529E0,1.1793258E0,1.8935953E0,2.5318712E1,1.4029126E1,1.5857931E1,2.0124754E1,1.3150682E1,1.2168031E1,4.4627366E0,9.566389E0,6.2439585E0,9.613973E0,1.1449465E1,1.701217E0,2.3782601E0,7.1881294E0,1.2942791E0,4.9496794E0,6.0188093E0,3.5951629E0,5.4333134E0,1.7548162E0,1.0192E0,4.9996095E0],"tree_param":{"num_deleted":"0","num_feature":"3","num_nodes":"31","size_leaf_vector":"1"}},{"base_weights":[2.6020812E-2,-5.6889206E-1,7.276592E-1,4.1207954E-1,-6.5961117E-1,8.027295E-1,-3.5572987E-2,-1.9295026E-2,4.212607E-2,-8.4722626E-1,-2.9904863E-1,5.564057E-1,5.0969023E-2,-6.0787827E-1,-5.302405E-2,-4.4976395E-2,3.3087824E-2,9.219019E-1,2.0868693E-1,-4.9938336E-2,7.148955E-2,5.8624502E-2,-4.3609944E-1,8.554221E-3,4.989175E-2,-7.035452E-2,6.647831E-1,-4.141035E-2,-9.315843E-3,1.1076807E-2,4.7033932E-2],"categories":[],"categories_nodes":[],"categories_segments":[],"categories_sizes":[],"default_left":[0,0,0,0,0,0,0,0,0,0,0,0,0,0,0,0,0,0,0,0,0,0,0,0,0,0,0,0,0,0,0],"id":46,"left_children":[1,3,5,7,9,11,-1,-1,-1,13,15,17,-1,19,-1,-1,21,23,25,-1,-1,-1,27,-1,-1,-1,29,-1,-1,-1,-1],"loss_changes":[3.293988E1,4.074438E0,4.4812145E0,1.7789478E0,2.4184933E0,1.2936096E0,0E0,0E0,0E0,6.5353584E-1,3.0340393E0,2.1611419E0,0E0,1.2839259E1,0E0,0E0,6.2118897E0,3.2733727E-1,8.881727E0,0E0,0E0,0E0,6.5684557E-1,0E0,0E0,0E0,9.0299654E-1,0E0,0E0,0E0,0E0],"parents":[2147483647,0,0,1,1,2,2,3,3,4,4,5,5,9,9,10,10,11,11,13,13,16,16,17,17,18,18,22,22,26,26],"right_children":[2,4,6,8,10,12,-1,-1,-1,14,16,18,-1,20,-1,-1,22,24,26,-1,-1,-1,28,-1,-1,-1,30,-1,-1,-1,-1],"split_conditions":[-3.866082E-3,9.4863055E4,9.495347E4,-7.1647364E-1,-6.039443E-1,6.857577E-1,-3.5572987E-2,-1.9295026E-2,4.212607E-2,9.4928695E4,9.4900555E4,9.492869E4,5.0969023E-2,9.492801E4,-5.302405E-2,-4.4976395E-2,9.490654E4,1.2442285E-1,9.493241E4,-4.9938336E-2,7.148955E-2,5.8624502E-2,9.492801E4,8.554221E-3,4.989175E-2,-7.035452E-2,9.493964E4,-4.141035E-2,-9.315843E-3,1.1076807E-2,4.7033932E-2],"split_indices":[1,2,2,1,1,1,0,0,0,2,2,2,0,2,0,0,2,1,2,0,0,0,2,0,0,0,2,0,0,0,0],"split_type":[0,0,0,0,0,0,0,0,0,0,0,0,0,0,0,0,0,0,0,0,0,0,0,0,0,0,0,0,0,0,0],"sum_hessian":[7.692251E1,4.1729572E1,3.5192932E1,3.2325647E0,3.849701E1,3.3868427E1,1.3245068E0,1.1689571E0,2.0636075E0,2.4433529E1,1.4063478E1,1.7518631E1,1.6349796E1,1.33266945E1,1.1106835E1,4.4001E0,9.663379E0,7.7359204E0,9.78271E0,1.1609483E1,1.717212E0,2.3813605E0,7.282018E0,1.0092887E0,6.726632E0,1.6945351E0,8.088175E0,1.9325693E0,5.3494487E0,3.79469E0,4.293485E0],"tree_param":{"num_deleted":"0","num_feature":"3","num_nodes":"31","size_leaf_vector":"1"}},{"base_weights":[-7.6993904E-3,7.0532665E-2,-4.9470823E-2,6.5393376E-1,2.18208E-2,3.4883434E-1,4.5699384E-2,-1.7830025E-2,4.3010693E-2,3.2871414E-2,-3.2154073E-3,-3.919259E-2,2.1287194E-2,2.0347862E-1,-1.8775125E-1,1.7773297E-3,6.667626E-2,-4.3297276E-2,2.2233683E-3],"categories":[],"categories_nodes":[],"categories_segments":[],"categories_sizes":[],"default_left":[0,0,0,0,0,0,0,0,0,0,0,0,0,0,0,0,0,0,0],"id":47,"left_children":[1,3,-1,5,7,9,-1,11,-1,-1,-1,-1,13,15,17,-1,-1,-1,-1],"loss_changes":[6.0653386E0,2.0670197E0,0E0,1.262219E-1,2.2967272E0,5.775365E-1,0E0,2.0095835E0,0E0,0E0,0E0,0E0,2.4851885E0,6.5584707E0,4.832622E0,0E0,0E0,0E0,0E0],"parents":[2147483647,0,0,1,1,3,3,4,4,5,5,7,7,12,12,13,13,14,14],"right_children":[2,4,-1,6,8,10,-1,12,-1,-1,-1,-1,14,16,18,-1,-1,-1,-1],"split_conditions":[9.495347E4,9.4863055E4,-4.9470823E-2,9.48614E4,9.4951E4,9.485356E4,4.5699384E-2,9.487079E4,4.3010693E-2,3.2871414E-2,-3.2154073E-3,-3.919259E-2,9.492878E4,9.492801E4,9.493241E4,1.7773297E-3,6.667626E-2,-4.3297276E-2,2.2233683E-3],"split_indices":[2,2,0,2,2,2,0,2,0,0,0,0,2,2,2,0,0,0,0],"split_type":[0,0,0,0,0,0,0,0,0,0,0,0,0,0,0,0,0,0,0],"sum_hessian":[7.706532E1,7.2236984E1,4.8283396E0,4.609265E0,6.7627716E1,3.198328E0,1.4109368E0,6.550831E1,2.1194065E0,1.4923446E0,1.7059833E0,2.2577076E0,6.3250603E1,3.3809708E1,2.9440897E1,3.0333426E1,3.476282E0,6.813389E0,2.2627508E1],"tree_param":{"num_deleted":"0","num_feature":"3","num_nodes":"19","size_leaf_vector":"1"}},{"base_weights":[-6.306641E-3,-5.7067233E-1,6.496744E-1,-6.557031E-1,-1.09612614E-1,2.2446142E-1,4.872639E-2,-4.679091E-2,-5.81261E-1,1.4558028E-1,-2.7590517E-2,2.6481876E-1,-4.4691986E-3,3.4354255E-1,-6.724137E-1,-1.6515894E-1,2.8600557E-2,1.824638E-1,3.3624988E-2,4.6090023E-3,2.1988703E-2,-4.3920968E-2,-5.2214444E-1,1.640722E-2,-2.6053702E-2,2.962274E-1,-1.116848E-1,-5.0575375E-3,-3.5039317E-2,8.398593E-3,2.2243671E-2,-1.3931672E-2,3.3756073E-3],"categories":[],"categories_nodes":[],"categories_segments":[],"categories_sizes":[],"default_left":[0,0,0,0,0,0,0,0,0,0,0,0,0,0,0,0,0,0,0,0,0,0,0,0,0,0,0,0,0,0,0,0,0],"id":48,"left_children":[1,3,5,7,9,11,-1,-1,13,15,-1,17,-1,19,21,23,-1,25,-1,-1,-1,-1,27,-1,-1,29,31,-1,-1,-1,-1,-1,-1],"loss_changes":[2.8591846E1,1.5554342E0,4.715453E0,1.8263435E-1,9.451738E-1,2.3607832E-1,0E0,0E0,2.7741175E0,8.432469E-1,0E0,3.8465738E-1,0E0,4.0943712E-2,4.0190697E-1,8.8114005E-1,0E0,4.9970713E-1,0E0,0E0,0E0,0E0,1.3234386E0,0E0,0E0,1.22195184E-1,1.5688135E-1,0E0,0E0,0E0,0E0,0E0,0E0],"parents":[2147483647,0,0,1,1,2,2,3,3,4,4,5,5,8,8,9,9,11,11,13,13,14,14,15,15,17,17,22,22,25,25,26,26],"right_children":[2,4,6,8,10,12,-1,-1,14,16,-1,18,-1,20,22,24,-1,26,-1,-1,-1,-1,28,-1,-1,30,32,-1,-1,-1,-1,-1,-1],"split_conditions":[-3.866082E-3,-3.4877786E-1,5.782864E-1,